svm_type nu_svr
kernel_type rbf
gamma 0.01
nr_class 2
total_sv 317
rho -3.6816207123583506
SV
1 1:1 2:1 3:1 4:1 5:1 6:1 7:1 8:1 9:1 10:1 11:1 12:1 13:1 14:1 15:1 16:1 17:1 18:1 19:1 20:1 21:1 22:1 23:1 24:1 25:1 26:1 27:1 28:1 29:1 30:1 31:1 32:1 
1 1:0.99927235 2:0.99959607 3:0.9997689 4:0.99975062 5:0.9995153 6:0.99908482 7:0.99956799 8:0.99956782 9:0.99931114 10:0.99870057 11:0.99883529 12:0.99904003 13:0.99785026 14:0.99529124 15:0.99407236 16:0.99079462 17:0.98902842 18:0.9831667 19:0.98190891 20:0.98168133 21:0.98295 22:0.98917646 23:0.99179794 24:0.99320413 25:0.99133951 26:0.98453912 27:0.98633315 28:0.99041063 29:0.96313327 30:0.90816874 31:0.51714576 32:0.37213823 
1 1:0.99157391 2:0.99644441 3:0.99894139 4:0.99930228 5:0.99782547 6:0.99554967 7:0.99768348 8:0.9983338 9:0.9975419 10:0.99497817 11:0.99782721 12:0.9983614 13:0.99789832 14:0.99725789 15:0.99536804 16:0.99464802 17:0.99245293 18:0.98926291 19:0.98844729 20:0.98754893 21:0.9852188 22:0.98507313 23:0.9847427 24:0.98310185 25:0.98100296 26:0.97185876 27:0.96628469 28:0.96720629 29:0.95572346 30:0.94854996 31:0.89450011 32:0.84844162 
1 1:0.93479194 2:0.96185889 3:0.97666561 4:0.98230104 5:0.96239535 6:0.92345324 7:0.95304472 8:0.95654981 9:0.95370033 10:0.94696773 11:0.94079095 12:0.95435812 13:0.94636342 14:0.93686869 15:0.92432836 16:0.92634072 17:0.90573759 18:0.87509607 19:0.86795519 20:0.86688833 21:0.87194789 22:0.70937978 23:0.63878295 24:0.72046959 25:0.68399221 26:0.84335155 27:0.62256631 28:0.59196978 29:0.60929135 30:0.27040378 31:0.15586882 32:0.20144534 
1 1:0.99954641 2:0.99974819 3:0.99981115 4:0.99974569 5:0.99964362 6:0.99958817 7:0.99984414 8:0.99984719 9:0.9997536 10:0.99960765 11:0.9996838 12:0.99979612 13:0.99974476 14:0.99947302 15:0.99921177 16:0.99909421 17:0.99886255 18:0.99759303 19:0.99711365 20:0.99732964 21:0.9981644 22:0.99895031 23:0.99875836 24:0.99929994 25:0.99899592 26:0.99777118 27:0.99820018 28:0.99838714 29:0.99911253 30:0.99696359 31:0.96571195 32:0.81536723 
1 1:0.98360646 2:0.99174147 3:0.99251582 4:0.99246095 5:0.9847805 6:0.98434809 7:0.99243859 8:0.99311368 9:0.9875439 10:0.98424725 11:0.98484617 12:0.9861909 13:0.980521 14:0.97172338 15:0.96876317 16:0.97167194 17:0.95914851 18:0.93906318 19:0.93045951 20:0.92932372 21:0.95318992 22:0.96789704 23:0.97248531 24:0.97980693 25:0.94005371 26:0.80879345 27:0.80225183 28:0.85336397 29:0.94107436 30:0.94040093 31:0.7627757 32:0.49623784 
1 1:0.99407482 2:0.99655166 3:0.99777686 4:0.99682011 5:0.99252187 6:0.99305066 7:0.99658339 8:0.99657999 9:0.99399807 10:0.99138706 11:0.9926955 12:0.99362072 13:0.98896255 14:0.98367348 15:0.97483066 16:0.97981908 17:0.96732434 18:0.94465282 19:0.94557558 20:0.94743053 21:0.95356824 22:0.97719221 23:0.98335738 24:0.98047621 25:0.97083457 26:0.90759383 27:0.87995588 28:0.8973977 29:0.96009211 30:0.97097511 31:0.97760156 32:0.97393319 
1 1:0.94663621 2:0.97270457 3:0.98637312 4:0.98805178 5:0.96664221 6:0.94341665 7:0.96917354 8:0.97629933 9:0.97146778 10:0.96759446 11:0.97330507 12:0.98225911 13:0.9821046 14:0.97790478 15:0.97615024 16:0.98043265 17:0.97040724 18:0.95002148 19:0.95427875 20:0.95628946 21:0.96510074 22:0.97603613 23:0.98230633 24:0.98304838 25:0.9694267 26:0.94788633 27:0.94633566 28:0.96659603 29:0.88780846 30:0.7883732 31:0.39131124 32:0.30567323 
1 1:0.99944267 2:0.99971042 3:0.99993667 4:0.99988053 5:0.99991833 6:0.99998345 7:0.99999114 8:0.99999069 9:0.99998887 10:0.99998575 11:0.99997668 12:0.999969 13:0.99995374 14:0.99994539 15:0.99994162 16:0.99993549 17:0.99988998 18:0.99929331 19:0.46034058 20:0.1988053 21:0.099487914 22:0.065060932 23:0.063754208 24:0.085204939 25:0.09654865 26:0.082907208 27:0.08250198 28:0.074040869 29:0.079242973 30:0.085801272 31:0.11503514 32:0.2010689 
1 1:0.99958868 2:0.99981031 3:0.99998858 4:0.99998207 5:0.99996892 6:0.99999772 7:0.99999877 8:0.99999852 9:0.9999979 10:0.99999705 11:0.99999622 12:0.9999947 13:0.99999009 14:0.99998928 15:0.99998934 16:0.99998721 17:0.99997784 18:0.99995472 19:0.99995717 20:0.99996522 21:0.99996847 22:0.99997752 23:0.99851983 24:0.82735717 25:0.46268984 26:0.1065761 27:0.10688307 28:0.082117573 29:0.080895658 30:0.083869018 31:0.11242418 32:0.20261734 
1 1:1 2:1 3:1 4:1 5:1 6:1 7:1 8:1 9:1 10:1 11:1 12:1 13:1 14:1 15:1 16:1 17:1 18:1 19:1 20:1 21:1 22:1 23:1 24:1 25:1 26:1 27:1 28:1 29:1 30:1 31:1 32:1 
1 1:0.99872885 2:0.9868289 3:0.87951584 4:0.90707094 5:0.96043429 6:0.97999173 7:0.98550551 8:0.99488021 9:0.99743357 10:0.99819767 11:0.99874382 12:0.99940152 13:0.99950109 14:0.9989598 15:0.99960451 16:0.99916396 17:0.99398966 18:0.98988532 19:0.97590217 20:0.99250618 21:0.99822448 22:0.99895852 23:0.99825417 24:0.99558464 25:0.99765428 26:0.99564402 27:0.99243341 28:0.99528071 29:0.96239478 30:0.57737641 31:0.501964 32:0.44495313 
-1 1:0.99196479 2:0.96709961 3:0.80980288 4:0.90318978 5:0.97242362 6:0.98653301 7:0.99276273 8:0.99554837 9:0.99754124 10:0.99864171 11:0.99894592 12:0.99939672 13:0.99956811 14:0.99873328 15:0.99954997 16:0.99888282 17:0.99441995 18:0.99101676 19:0.97656774 20:0.99132194 21:0.99756153 22:0.99910152 23:0.99614052 24:0.98268499 25:0.97983298 26:0.95983278 27:0.95081837 28:0.92538508 29:0.90840406 30:0.83226552 31:0.79284286 32:0.78705355 
-1 1:0.94577835 2:0.86894346 3:0.56961259 4:0.57148462 5:0.59119983 6:0.5362486 7:0.55795287 8:0.64588456 9:0.83696769 10:0.93785123 11:0.95224619 12:0.97354028 13:0.98420658 14:0.95437777 15:0.98104671 16:0.96945371 17:0.90243549 18:0.90952488 19:0.8002362 20:0.80569277 21:0.92384937 22:0.7277172 23:0.5883246 24:0.66008839 25:0.73311414 26:0.79215454 27:0.86385702 28:0.82834008 29:0.79412149 30:0.45399866 31:0.25605443 32:0.29419432 
-1 1:0.98836839 2:0.89593881 3:0.60007362 4:0.71929459 5:0.83837403 6:0.88431169 7:0.93122556 8:0.94998293 9:0.97127248 10:0.98404234 11:0.98866478 12:0.99474356 13:0.99565318 14:0.99271998 15:0.99720001 16:0.99488232 17:0.96991327 18:0.93725107 19:0.86168758 20:0.95371771 21:0.98897813 22:0.99655025 23:0.98507084 24:0.94942013 25:0.95319079 26:0.88628322 27:0.79214131 28:0.75985021 29:0.81638533 30:0.52076252 31:0.61296882 32:0.5138124 
-1 1:0.99474169 2:0.94915509 3:0.757339 4:0.84690949 5:0.92760064 6:0.94633466 7:0.96687661 8:0.97948382 9:0.9866182 10:0.993989 11:0.99485994 12:0.99770709 13:0.99821702 14:0.99621817 15:0.99890271 16:0.99675162 17:0.97733052 18:0.94110302 19:0.88569425 20:0.96204625 21:0.99222697 22:0.99735116 23:0.98948175 24:0.96846509 25:0.98757829 26:0.95697551 27:0.83884367 28:0.82286169 29:0.70453875 30:0.50955928 31:0.74264267 32:0.90232917 
0.25348879974928901 1:0.96206609 2:0.84393847 3:0.58550521 4:0.71398701 5:0.86884702 6:0.9313527 7:0.95918288 8:0.97760518 9:0.98674064 10:0.98984897 11:0.98855987 12:0.99603248 13:0.99851765 14:0.99906867 15:0.99895608 16:0.99769147 17:0.99283665 18:0.99045491 19:0.59617877 20:-0.43639458 21:-0.21545875 22:0.014317814 23:0.0435687 24:0.049819494 25:0.050875208 26:0.055220451 27:0.055632938 28:0.067903057 29:0.078440484 30:0.12518532 31:0.23037185 32:0.2654429 
1 1:0.97336475 2:0.89070352 3:0.66464819 4:0.78719771 5:0.91582385 6:0.96400279 7:0.9803952 8:0.99090446 9:0.99401423 10:0.994843 11:0.99690529 12:0.99906489 13:0.99956544 14:0.999716 15:0.99966978 16:0.99934017 17:0.998173 18:0.99683084 19:0.99588874 20:0.99648184 21:0.99848808 22:0.99891833 23:0.99699148 24:-0.43963366 25:-0.27559455 26:0.025251659 27:0.060461065 28:0.069019701 29:0.080120941 30:0.12604521 31:0.22326912 32:0.25906123 
1 1:1 2:1 3:1 4:1 5:1 6:1 7:1 8:1 9:1 10:1 11:1 12:1 13:1 14:1 15:1 16:1 17:1 18:1 19:1 20:1 21:1 22:1 23:1 24:1 25:1 26:1 27:1 28:1 29:1 30:1 31:1 32:1 
-1 1:0.88468039 2:0.92543673 3:0.98027351 4:0.9966351 5:0.99606029 6:0.97977194 7:0.98440892 8:0.98611151 9:0.97732588 10:0.9829749 11:0.95803814 12:0.97165036 13:0.96474253 14:0.95986968 15:0.95901763 16:0.9545536 17:0.96792842 18:0.96237261 19:0.94011607 20:0.86532348 21:0.85101011 22:0.85613772 23:0.85218154 24:0.82557423 25:0.79140427 26:0.80559137 27:0.77999333 28:0.78965343 29:0.80553034 30:0.78612225 31:0.82359389 32:0.8785486 
1 1:0.99963006 2:0.99985945 3:0.9999344 4:0.99998878 5:0.9999898 6:0.9999508 7:0.99995515 8:0.99996019 9:0.99993482 10:0.99994417 11:0.99982919 12:0.999884 13:0.99986292 14:0.9997329 15:0.99966216 16:0.99973571 17:0.99981047 18:0.99980868 19:0.99974541 20:0.99922413 21:0.99924181 22:0.99924182 23:0.99942055 24:0.99925834 25:0.99911496 26:0.99925464 27:0.99936314 28:0.9993379 29:0.99936267 30:0.99762461 31:0.99146302 32:0.99784554 
-1 1:0.99181428 2:0.99747687 3:0.99906186 4:0.99853143 5:0.99961595 6:0.99910618 7:0.99912564 8:0.99956245 9:0.99964597 10:0.99834039 11:0.99756671 12:0.99530726 13:0.99796646 14:0.99786535 15:0.99975623 16:0.99974337 17:0.99945289 18:0.99948872 19:0.96266858 20:0.86512946 21:0.83259961 22:0.86344925 23:0.89249265 24:0.87016813 25:0.8555832 26:0.88765677 27:0.91928281 28:0.92113346 29:0.91774799 30:0.91395169 31:0.95940443 32:0.9945694 
-1 1:0.9918133 2:0.99747616 3:0.99906194 4:0.99852107 5:0.99961429 6:0.9991086 7:0.99912137 8:0.99955324 9:0.99963459 10:0.99833183 11:0.99738584 12:0.99498249 13:0.99801092 14:0.99785774 15:0.99974338 16:0.99971341 17:0.99937065 18:0.99949685 19:0.99875191 20:0.99591334 21:0.99507371 22:0.99528289 23:0.99675701 24:0.87124661 25:0.85611547 26:0.90014931 27:0.91989415 28:0.92118001 29:0.9176843 30:0.91350444 31:0.95909785 32:0.99456284 
1 1:0.99975669 2:0.99828063 3:0.98603971 4:0.97273744 5:0.97836617 6:0.97988656 7:0.98528248 8:0.99226233 9:0.99491213 10:0.99523205 11:0.99920544 12:0.99988027 13:0.99974325 14:0.99797053 15:0.99708579 16:0.99954849 17:0.99973496 18:0.99870954 19:0.99914491 20:0.99942188 21:0.99985099 22:0.99947584 23:0.99923974 24:0.9991464 25:0.99539435 26:0.9916043 27:0.99463517 28:0.99249333 29:0.98463395 30:0.73528198 31:0.7806249 32:0.88619336 
1 1:0.98868364 2:0.97485922 3:0.91678484 4:0.88098311 5:0.86545301 6:0.8522775 7:0.90409575 8:0.92862584 9:0.93174512 10:0.95399901 11:0.99233804 12:0.9980707 13:0.99801719 14:0.9562696 15:0.93459108 16:0.96081932 17:0.99391289 18:0.98275245 19:0.98567234 20:0.99304092 21:0.9938935 22:0.809847 23:0.40858931 24:0.28887856 25:0.55087034 26:0.68791883 27:0.64342266 28:0.65356773 29:0.84665267 30:0.75802445 31:0.7031092 32:0.75531011 
1 1:0.99748157 2:0.99012055 3:0.96326698 4:0.95259476 5:0.95038539 6:0.94214592 7:0.96761425 8:0.98526994 9:0.98080885 10:0.99361024 11:0.99737996 12:0.99955286 13:0.99905239 14:0.99084269 15:0.98658806 16:0.98885073 17:0.99919626 18:0.99772583 19:0.9982813 20:0.99920421 21:0.99982605 22:0.99918799 23:0.9982484 24:0.99723455 25:0.97779657 26:0.95625288 27:0.91728507 28:0.8857166 29:0.86522417 30:0.69754132 31:0.85338989 32:0.93481364 
1 1:0.99739959 2:0.98966757 3:0.96676228 4:0.95865551 5:0.96470298 6:0.97142776 7:0.9844215 8:0.99065457 9:0.99156487 10:0.99423968 11:0.99910058 12:0.99980531 13:0.99943486 14:0.99088547 15:0.98669158 16:0.98948817 17:0.99830749 18:0.99871174 19:0.99884286 20:0.99871871 21:0.99967129 22:0.99881158 23:0.99514589 24:0.99561705 25:0.98938597 26:0.96489494 27:0.95133356 28:0.93155374 29:0.89709674 30:0.94278264 31:0.97624951 32:0.9947611 
-1 1:0.99052529 2:0.97026017 3:0.85848532 4:0.84697574 5:0.86117992 6:0.8627564 7:0.94818881 8:0.97219143 9:0.96731327 10:0.98263387 11:0.99636148 12:0.99823256 13:0.99865177 14:0.99226199 15:0.99220121 16:0.98688558 17:0.99742004 18:0.99140724 19:0.99325785 20:0.99732612 21:0.99862799 22:0.99669931 23:0.9978515 24:0.99550842 25:0.98432556 26:0.98345853 27:0.98477889 28:0.97635091 29:0.9700791 30:0.73356586 31:0.7701838 32:0.86925204 
-1 1:0.98608193 2:0.96976549 3:0.92749599 4:0.87379138 5:0.8147873 6:0.75567346 7:0.85419254 8:0.90257227 9:0.9203203 10:0.93902797 11:0.99079327 12:0.99905845 13:0.99743459 14:0.98764147 15:0.99500763 16:0.99846822 17:0.99887744 18:0.99755677 19:0.99811732 20:0.99854725 21:0.99808359 22:0.99782001 23:0.98968554 24:0.64716036 25:0.50715478 26:0.53524565 27:0.55205251 28:0.60092493 29:0.65470657 30:0.7136902 31:0.73437529 32:0.73085011 
1 1:0.9996691 2:0.99976394 3:0.99979279 4:0.99986467 5:0.99985944 6:0.9998641 7:0.99986672 8:0.99979232 9:0.99942109 10:0.99959364 11:0.99938917 12:0.99908802 13:0.99838657 14:0.99666468 15:0.9958758 16:0.99538568 17:0.99523397 18:0.99508006 19:0.99604119 20:0.99125939 21:0.98969121 22:0.99436657 23:0.99351579 24:0.99202536 25:0.99033497 26:0.98773096 27:0.98773482 28:0.9929234 29:0.98076121 30:0.91463872 31:0.70215977 32:0.74941633 
1 1:0.99527508 2:0.99565 3:0.99695385 4:0.99866998 5:0.99798123 6:0.99799936 7:0.99819568 8:0.99657383 9:0.99433078 10:0.99382069 11:0.99236185 12:0.99250645 13:0.99287411 14:0.98827629 15:0.98863791 16:0.9832908 17:0.97385382 18:0.97644174 19:0.98340114 20:0.96912985 21:0.97989701 22:0.98587731 23:0.98184664 24:0.97406261 25:0.9409244 26:0.87647816 27:0.83827031 28:0.92314521 29:0.93569931 30:0.89741881 31:0.76691601 32:0.79190474 
-1 1:0.99166931 2:0.99651007 3:0.99978392 4:0.99992946 5:0.99990238 6:0.99991472 7:0.99991867 8:0.99988994 9:0.99978645 10:0.99975318 11:0.99980641 12:0.99967929 13:0.99962461 14:0.99984982 15:0.99979391 16:0.99976197 17:0.9997841 18:0.99888674 19:0.60928564 20:0.33473646 21:0.25347398 22:0.17176512 23:0.18891029 24:0.2287463 25:0.28690737 26:0.30689275 27:0.28726987 28:0.31404366 29:0.38851104 30:0.4718361 31:0.53717811 32:0.67009809 
0.38791937438474755 1:0.99168729 2:0.99651812 3:0.99978642 4:0.9999304 5:0.99991494 6:0.99991898 7:0.99992126 8:0.99989762 9:0.99981773 10:0.99976829 11:0.99981087 12:0.9996817 13:0.99962664 14:0.99986065 15:0.9998101 16:0.99978612 17:0.99982217 18:0.99968865 19:0.9998218 20:0.99981957 21:0.99975727 22:0.99970886 23:0.99822863 24:0.83136365 25:0.61516004 26:0.36358689 27:0.29066109 28:0.32055105 29:0.39508527 30:0.47752625 31:0.5421098 32:0.67857561 
1 1:1 2:1 3:1 4:1 5:1 6:1 7:1 8:1 9:1 10:1 11:1 12:1 13:1 14:1 15:1 16:1 17:1 18:1 19:1 20:1 21:1 22:1 23:1 24:1 25:1 26:1 27:1 28:1 29:1 30:1 31:1 32:1 
1 1:0.999477 2:0.99958392 3:0.99886569 4:0.99936804 5:0.99975035 6:0.99983447 7:0.99963525 8:0.99981544 9:0.99986345 10:0.99982879 11:0.99969672 12:0.99793257 13:0.9993831 14:0.99796939 15:0.99687231 16:0.99395504 17:0.99332154 18:0.99517707 19:0.99653134 20:0.99666918 21:0.99383545 22:0.99268436 23:0.99609423 24:0.99622161 25:0.99382285 26:0.99285558 27:0.99491094 28:0.99388561 29:0.96043391 30:0.86691405 31:0.72178445 32:0.73466846 
-1 1:0.98969958 2:0.9923631 3:0.97083041 4:0.96510444 5:0.97345651 6:0.98511426 7:0.98581091 8:0.99484365 9:0.99754735 10:0.99777156 11:0.99639787 12:0.98564924 13:0.99616344 14:0.99465663 15:0.99286555 16:0.97990268 17:0.98470671 18:0.98831354 19:0.98728844 20:0.98343028 21:0.98455806 22:0.9848509 23:0.98556078 24:0.98076009 25:0.97956383 26:0.9772052 27:0.97632952 28:0.96869229 29:0.95016569 30:0.93354051 31:0.87957782 32:0.86217458 
1 1:0.96326189 2:0.96574116 3:0.93393486 4:0.96028329 5:0.98588596 6:0.98989071 7:0.98349851 8:0.98996984 9:0.99070559 10:0.98861133 11:0.98511962 12:0.95940067 13:0.97802424 14:0.95709701 15:0.94806934 16:0.89241278 17:0.89261635 18:0.91249251 19:0.92688146 20:0.90834528 21:0.85098999 22:0.66931469 23:0.73077799 24:0.654362 25:0.59476051 26:0.67627491 27:0.63739189 28:0.37003812 29:0.52284444 30:0.41823102 31:0.34826008 32:0.42129062 
1 1:0.99309694 2:0.99383252 3:0.98442855 4:0.99060734 5:0.99714349 6:0.99774803 7:0.99562637 8:0.99779927 9:0.99839181 10:0.99841496 11:0.99829357 12:0.99366714 13:0.99616303 14:0.99263362 15:0.9901321 16:0.97828992 17:0.97569078 18:0.98091441 19:0.98526284 20:0.98995106 21:0.9865807 22:0.98208617 23:0.98703611 24:0.98494701 25:0.93801719 26:0.87152371 27:0.8287859 28:0.78603432 29:0.82712044 30:0.80164248 31:0.84170431 32:0.81755166 
1 1:0.99518618 2:0.99616334 3:0.99065674 4:0.99472401 5:0.99811024 6:0.99866971 7:0.99747992 8:0.9986534 9:0.99906026 10:0.99902788 11:0.99829117 12:0.98854984 13:0.99793929 14:0.99567248 15:0.99490355 16:0.98437147 17:0.98618775 18:0.98940525 19:0.99091752 20:0.99283011 21:0.98694635 22:0.98903971 23:0.99169502 24:0.99213959 25:0.98766331 26:0.92745625 27:0.81487235 28:0.77396517 29:0.8792382 30:0.90542653 31:0.95543733 32:0.95839946 
-1 1:0.96463246 2:0.98249489 3:0.9545761 4:0.97022346 5:0.9877646 6:0.99099623 7:0.97892572 8:0.98756642 9:0.99487116 10:0.99636445 11:0.99440348 12:0.98190458 13:0.99384065 14:0.98681542 15:0.9852362 16:0.96143156 17:0.96245255 18:0.97579203 19:0.97162918 20:0.98365101 21:0.97321691 22:0.97635168 23:0.98811048 24:0.98739978 25:0.97859985 26:0.97799501 27:0.97666673 28:0.9695303 29:0.86494145 30:0.79986139 31:0.61934845 32:0.62057954 
1 1:0.97948372 2:0.99292706 3:0.99233642 4:0.99166922 5:0.99251881 6:0.9954137 7:0.99529771 8:0.99777978 9:0.99886619 10:0.99966891 11:0.99795103 12:0.9921778 13:0.9964257 14:0.99723099 15:0.99342816 16:0.98466745 17:0.981506 18:0.98319789 19:0.97503448 20:0.96551789 21:0.96618917 22:0.97100819 23:0.96761373 24:0.47025639 25:0.28394595 26:0.22416758 27:0.1879533 28:0.21437311 29:0.24069068 30:0.27139727 31:0.3357061 32:0.44075004 
1 1:0.99718179 2:0.99924895 3:0.99870348 4:0.9990713 5:0.99919651 6:0.99943919 7:0.99966178 8:0.99924413 9:0.99851083 10:0.9989479 11:0.99887491 12:0.9983526 13:0.99650612 14:0.99731571 15:0.99813423 16:0.99848499 17:0.9961143 18:0.99743171 19:0.99858869 20:0.9970433 21:0.99313781 22:0.98528676 23:0.9780715 24:0.98206599 25:0.97739769 26:0.97480525 27:0.96964892 28:0.96846881 29:0.96413336 30:0.95813276 31:0.95903524 32:0.9659998 
-1 1:0.9418464 2:0.97015987 3:0.95465906 4:0.97399462 5:0.98263043 6:0.97862588 7:0.98271262 8:0.97144466 9:0.9308375 10:0.92399267 11:0.92382877 12:0.94077586 13:0.89997129 14:0.90474187 15:0.94653464 16:0.94844514 17:0.88258841 18:0.9193939 19:0.97082089 20:0.93879555 21:0.78460293 22:0.73713074 23:0.84219629 24:0.80856467 25:0.78536741 26:0.82282385 27:0.80345115 28:0.79149025 29:0.78259601 30:0.78258059 31:0.79454532 32:0.80374929 
1 1:0.99975837 2:0.99989832 3:0.99977364 4:0.99985855 5:0.99990845 6:0.99994759 7:0.99995528 8:0.99991994 9:0.99982319 10:0.99988298 11:0.99986244 12:0.99978833 13:0.99952883 14:0.99965552 15:0.99982682 16:0.99988052 17:0.99963446 18:0.99978286 19:0.99986377 20:0.99962661 21:0.99897412 22:0.99864061 23:0.99790941 24:0.9979426 25:0.99668183 26:0.99660174 27:0.99634708 28:0.9972393 29:0.99629257 30:0.99223335 31:0.99240829 32:0.99238772 
1 1:0.99103044 2:0.9948979 3:0.98905456 4:0.99651939 5:0.99710046 6:0.99818081 7:0.99889813 8:0.99834279 9:0.99473695 10:0.99652099 11:0.99606063 12:0.99310209 13:0.98525781 14:0.98831879 15:0.98964157 16:0.98930454 17:0.97347396 18:0.98129368 19:0.98424173 20:0.96897433 21:0.94225459 22:0.95553567 23:0.96426218 24:0.96178296 25:0.94440397 26:0.93871188 27:0.93507698 28:0.93953029 29:0.94252804 30:0.93450895 31:0.93726147 32:0.94506152 
1 1:0.99200401 2:0.99690818 3:0.9932906 4:0.99620608 5:0.99753521 6:0.99881098 7:0.99918155 8:0.99864225 9:0.99642423 10:0.99687479 11:0.99543074 12:0.99260141 13:0.98489714 14:0.9857631 15:0.98756061 16:0.99277951 17:0.97772795 18:0.98876168 19:0.99448781 20:0.98879719 21:0.98052652 22:0.98254052 23:0.9742703 24:0.97154662 25:0.96854643 26:0.96743772 27:0.95892637 28:0.95050031 29:0.94441933 30:0.93748294 31:0.9421196 32:0.95497714 
-1 1:0.99678135 2:0.9989058 3:0.99997901 4:0.99999619 5:0.99999888 6:0.99999947 7:0.99999981 8:0.99999962 9:0.99999909 10:0.99999888 11:0.99999893 12:0.99999898 13:0.99999848 14:0.99999867 15:0.99999921 16:0.99999863 17:0.99999211 18:0.99998055 19:0.97066013 20:0.83428826 21:0.56836629 22:0.50003144 23:0.55140148 24:0.65397907 25:0.77009143 26:0.87657468 27:0.93945725 28:0.96781258 29:0.98113432 30:0.98534269 31:0.98850675 32:0.9846871 
-1 1:0.99662744 2:0.99882101 3:0.99997848 4:0.99999604 5:0.9999989 6:0.99999946 7:0.9999998 8:0.99999963 9:0.99999906 10:0.9999989 11:0.99999902 12:0.99999908 13:0.99999868 14:0.99999874 15:0.99999933 16:0.99999889 17:0.99999481 18:0.99998957 19:0.99995605 20:0.99979444 21:0.99917155 22:0.99849014 23:0.99571321 24:0.97182515 25:0.92057997 26:0.90709741 27:0.94152899 28:0.96907239 29:0.981781 30:0.98391876 31:0.98934912 32:0.98793358 
1 1:0.99788897 2:0.99763399 3:0.99684151 4:0.99781676 5:0.99878167 6:0.99968443 7:0.99995836 8:0.99997063 9:0.99996437 10:0.99991136 11:0.99991733 12:0.9999376 13:0.99989069 14:0.99970497 15:0.99817662 16:0.9995354 17:0.99872521 18:0.99879333 19:0.99867635 20:0.99917937 21:0.99953285 22:0.99893492 23:0.99783189 24:0.99582894 25:0.99223805 26:0.99156689 27:0.98136662 28:0.98757918 29:0.97512806 30:0.75293687 31:0.48490017 32:0.59354296 
1 1:0.95828457 2:0.96942568 3:0.96032854 4:0.97303949 5:0.98953218 6:0.99756787 7:0.99975877 8:0.99985826 9:0.99985965 10:0.99962152 11:0.99959159 12:0.99967981 13:0.99969704 14:0.99833612 15:0.99700044 16:0.99758802 17:0.99674802 18:0.99659564 19:0.99583634 20:0.99681759 21:0.9976699 22:0.99872452 23:0.99841407 24:0.99710428 25:0.99618701 26:0.99557418 27:0.99194533 28:0.99304815 29:0.96188042 30:0.92198778 31:0.94800169 32:0.9721482 
0.63701691367127489 1:0.93743693 2:0.94844042 3:0.94963356 4:0.96772776 5:0.97581934 6:0.98333389 7:0.99662637 8:0.99615721 9:0.99699375 10:0.99323489 11:0.99471676 12:0.99548946 13:0.99419662 14:0.98781297 15:0.96696873 16:0.97882819 17:0.94804593 18:0.95393849 19:0.95046362 20:0.9754495 21:0.97401394 22:0.8703927 23:0.8629885 24:0.81619974 25:0.78682057 26:0.77995836 27:0.67016414 28:0.81904635 29:0.83033827 30:0.60930933 31:0.44335962 32:0.5421513 
1 1:0.99952065 2:0.99934627 3:0.99929533 4:0.999487 5:0.99963712 6:0.99988349 7:0.99998262 8:0.99998745 9:0.99998861 10:0.99997922 11:0.99997901 12:0.99998227 13:0.99997064 14:0.99994041 15:0.99985625 16:0.99993638 17:0.99988201 18:0.9998106 19:0.99978236 20:0.99986642 21:0.99990347 22:0.99981949 23:0.99974081 24:0.99948404 25:0.99922109 26:0.99926261 27:0.99862052 28:0.99823898 29:0.99832291 30:0.96719745 31:0.9468629 32:0.86770528 
1 1:0.97979627 2:0.97488389 3:0.97322251 4:0.98688867 5:0.99044692 6:0.9943936 7:0.99915452 8:0.99953809 9:0.99962978 10:0.99832167 11:0.99798464 12:0.99928476 13:0.99890579 14:0.99756871 15:0.99364764 16:0.99639477 17:0.9942085 18:0.99470881 19:0.99282053 20:0.99455857 21:0.99631564 22:0.99111656 23:0.98433606 24:0.97726811 25:0.86171027 26:0.73355649 27:0.75261978 28:0.8774356 29:0.89382467 30:0.68395712 31:0.50153403 32:0.61789868 
1 1:0.9839192 2:0.982028 3:0.98319199 4:0.98878195 5:0.99235257 6:0.99685395 7:0.99959251 8:0.99973043 9:0.99976402 10:0.99945522 11:0.99946481 12:0.9994984 13:0.99920226 14:0.99871554 15:0.99664584 16:0.99830179 17:0.99685484 18:0.99696367 19:0.99684733 20:0.99784781 21:0.99826499 22:0.99518211 23:0.99066285 24:0.98615575 25:0.97850336 26:0.94356056 27:0.84812805 28:0.92816168 29:0.96752482 30:0.89806518 31:0.87484399 32:0.83709035 
-1 1:0.97930693 2:0.98619453 3:0.99348951 4:0.99662679 5:0.99746212 6:0.99940678 7:0.99996024 8:0.99999373 9:0.99999824 10:0.99999382 11:0.99999425 12:0.99999872 13:0.99999862 14:0.9999958 15:0.99998679 16:0.9999956 17:0.99999664 18:0.99896551 19:0.79103672 20:0.76055505 21:0.69815647 22:0.42533688 23:0.19891731 24:0.20788424 25:0.24036869 26:0.2914852 27:0.35065969 28:0.35791727 29:0.43779274 30:0.51165301 31:0.46909155 32:0.56799974 
1 1:0.99930244 2:0.99909923 3:0.99883287 4:0.99975663 5:0.99997717 6:0.99999578 7:0.99998971 8:0.99998381 9:0.99997778 10:0.99994504 11:0.99996571 12:0.99994495 13:0.99990883 14:0.99976277 15:0.99957679 16:0.99921266 17:0.99914547 18:0.99908067 19:0.99763254 20:0.99916126 21:0.99930637 22:0.99886703 23:0.99782904 24:0.99481888 25:0.99467127 26:0.99192066 27:0.99689997 28:0.99681562 29:0.97759004 30:0.95596647 31:0.94356577 32:0.96909647 
-1 1:0.95832478 2:0.9678993 3:0.97129895 4:0.99488288 5:0.99936933 6:0.99983453 7:0.99939649 8:0.99935278 9:0.99863352 10:0.9969865 11:0.99849704 12:0.99773342 13:0.99602418 14:0.99020781 15:0.99054696 16:0.98026975 17:0.98075716 18:0.97768403 19:0.93966036 20:0.98967568 21:0.9921341 22:0.97147862 23:0.910335 24:0.87244191 25:0.86000394 26:0.85241662 27:0.86813843 28:0.81478926 29:0.78744485 30:0.80026615 31:0.87427787 32:0.94615757 
1 1:0.98897776 2:0.98811476 3:0.9883037 4:0.99831183 5:0.99983025 6:0.99994882 7:0.99988504 8:0.99988035 9:0.99976742 10:0.99939741 11:0.99957899 12:0.99950312 13:0.99917896 14:0.99849274 15:0.99809914 16:0.99647925 17:0.99634611 18:0.9949338 19:0.98903859 20:0.99754866 21:0.9979412 22:0.99472515 23:0.99098272 24:0.98112402 25:0.91436187 26:0.79543701 27:0.83978057 28:0.84192544 29:0.82284602 30:0.87113328 31:0.92393365 32:0.96930936 
1 1:0.99534425 2:0.99407437 3:0.99367427 4:0.99890026 5:0.99987666 6:0.99997912 7:0.99995408 8:0.99993606 9:0.99989808 10:0.99964213 11:0.99983032 12:0.99978044 13:0.99969304 14:0.99933437 15:0.99898037 16:0.99797813 17:0.99838386 18:0.99762861 19:0.99222401 20:0.9987429 21:0.99874451 22:0.99625366 23:0.99165787 24:0.97907799 25:0.96903414 26:0.96216187 27:0.94877933 28:0.92231637 29:0.88313757 30:0.90804674 31:0.94948147 32:0.98542818 
-1 1:0.99420404 2:0.98904289 3:0.97595317 4:0.99083555 5:0.99867916 6:0.9997969 7:0.99956207 8:0.99959407 9:0.99942175 10:0.9987517 11:0.99952846 12:0.99940476 13:0.99919203 14:0.99797745 15:0.99823373 16:0.9959239 17:0.99692417 18:0.99318672 19:0.98466769 20:0.99749196 21:0.99830662 22:0.99576665 23:0.98912243 24:0.98556455 25:0.98539073 26:0.97776591 27:0.98112763 28:0.97269214 29:0.9155549 30:0.84887704 31:0.89479036 32:0.95587121 
-1 1:0.98749842 2:0.99122434 3:0.99544673 4:0.99934877 5:0.99996357 6:0.99999852 7:0.99999786 8:0.99999293 9:0.99999274 10:0.99998886 11:0.99998617 12:0.99998857 13:0.99998831 14:0.99997846 15:0.99992651 16:0.99978123 17:0.99993315 18:0.99957459 19:0.55388123 20:0.85561986 21:0.75168354 22:0.72258365 23:0.81906669 24:0.80819768 25:0.77337126 26:0.75973127 27:0.77640141 28:0.83179998 29:0.81253588 30:0.80930709 31:0.88860243 32:0.96357171 
-1 1:0.98736407 2:0.99118252 3:0.99542404 4:0.99935799 5:0.9999646 6:0.99999861 7:0.99999791 8:0.99999339 9:0.99999399 10:0.99998996 11:0.99998816 12:0.99999386 13:0.99999005 14:0.99998431 15:0.99998696 16:0.99995895 17:0.99996543 18:0.99998191 19:0.99996775 20:0.9999746 21:0.99994323 22:0.99975708 23:0.99838887 24:0.85757006 25:0.78454787 26:0.77639456 27:0.7829682 28:0.83718066 29:0.81529886 30:0.81140597 31:0.89161674 32:0.96563617 
1 1:0.999694 2:0.99987304 3:0.99983917 4:0.99975764 5:0.9995166 6:0.99962334 7:0.99971011 8:0.99973137 9:0.99955082 10:0.99942981 11:0.99914831 12:0.9987079 13:0.99680108 14:0.99711766 15:0.99640306 16:0.99292234 17:0.99228032 18:0.99294971 19:0.99011645 20:0.99079727 21:0.9916064 22:0.9887078 23:0.98989198 24:0.98884069 25:0.99197683 26:0.98686986 27:0.98494496 28:0.98561773 29:0.93893637 30:0.72376736 31:0.41086067 32:0.49529045 
1 1:0.99776238 2:0.99912126 3:0.99907344 4:0.99835009 5:0.99694509 6:0.99751589 7:0.99799726 8:0.99847248 9:0.99825126 10:0.99761599 11:0.99823132 12:0.99800024 13:0.99657851 14:0.99775352 15:0.99732963 16:0.99553026 17:0.99426616 18:0.99482123 19:0.99224937 20:0.99291082 21:0.99249885 22:0.98645207 23:0.98184801 24:0.9824463 25:0.98272409 26:0.98300216 27:0.98206611 28:0.98486947 29:0.93628392 30:0.84348481 31:0.81607225 32:0.84925554 
1 1:0.99396692 2:0.99714463 3:0.99692015 4:0.99427268 5:0.98667218 6:0.98989396 7:0.99179724 8:0.99305506 9:0.98926929 10:0.98670674 11:0.9872611 12:0.98045977 13:0.96297243 14:0.97746706 15:0.97869092 16:0.96528044 17:0.96406379 18:0.96721741 19:0.95487002 20:0.94661218 21:0.95390575 22:0.95519447 23:0.96280135 24:0.95966353 25:0.92668017 26:0.84509958 27:0.82175575 28:0.87955697 29:0.92480391 30:0.7246149 31:0.53724515 32:0.57369984 
1 1:0.98066173 2:0.99129874 3:0.99068527 4:0.98699754 5:0.97781571 6:0.9788802 7:0.9850008 8:0.98590489 9:0.98081183 10:0.9820814 11:0.98568992 12:0.98030044 13:0.97474382 14:0.98610315 15:0.98334155 16:0.97971635 17:0.98101094 18:0.98321357 19:0.97551575 20:0.97498475 21:0.97310928 22:0.97620114 23:0.96975669 24:0.97578607 25:0.98022883 26:0.97753643 27:0.9692425 28:0.96570015 29:0.84745211 30:0.6439497 31:0.34502349 32:0.42602422 
1 1:0.99985878 2:0.9999511 3:0.99999789 4:0.9999986 5:0.99999883 6:0.99999883 7:0.99999885 8:0.99999823 9:0.99999858 10:0.9999985 11:0.99999803 12:0.99999684 13:0.99999593 14:0.99999677 15:0.99999613 16:0.99999476 17:0.99998911 18:0.99998855 19:0.99998881 20:0.9999859 21:0.99998588 22:0.99997969 23:0.9967672 24:0.74907481 25:0.65267603 26:0.33109291 27:0.19252485 28:0.19169917 29:0.22935885 30:0.28236421 31:0.27278044 32:0.41510913 
1 1:0.99897052 2:0.99931568 3:0.99922134 4:0.99915597 5:0.99925458 6:0.99931796 7:0.99953828 8:0.99959748 9:0.99954882 10:0.99943203 11:0.9994757 12:0.99894691 13:0.99879326 14:0.99888047 15:0.99872234 16:0.99826881 17:0.99878694 18:0.9973998 19:0.99740256 20:0.99704962 21:0.99473887 22:0.99426561 23:0.99379798 24:0.99075203 25:0.9926536 26:0.99098128 27:0.99475488 28:0.9943511 29:0.96575345 30:0.90867586 31:0.58902238 32:0.55488649 
1 1:0.9908789 2:0.99647567 3:0.99671144 4:0.9953164 5:0.99435202 6:0.9958329 7:0.99762494 8:0.99783334 9:0.997727 10:0.99732217 11:0.99827694 12:0.99729645 13:0.99721568 14:0.99740839 15:0.99820645 16:0.99812203 17:0.99856058 18:0.99814102 19:0.99833211 20:0.9983774 21:0.99607307 22:0.99694969 23:0.9965808 24:0.99638264 25:0.99636745 26:0.99612284 27:0.99789254 28:0.99767506 29:0.99196515 30:0.95746227 31:0.94827983 32:0.9735288 
1 1:0.97498931 2:0.98999186 3:0.99031495 4:0.98721303 5:0.98826404 6:0.99006124 7:0.99400453 8:0.99487091 9:0.99363151 10:0.99344561 11:0.99573462 12:0.9918628 13:0.99159288 14:0.99240299 15:0.99215922 16:0.99134482 17:0.99305837 18:0.98592297 19:0.98771254 20:0.9883321 21:0.97440749 22:0.98021448 23:0.96994784 24:0.96018385 25:0.92763461 26:0.81190727 27:0.79320895 28:0.83263011 29:0.94805016 30:0.87362545 31:0.74402523 32:0.73580353 
1 1:0.99116901 2:0.99543702 3:0.99546719 4:0.99348555 5:0.99316667 6:0.99471418 7:0.99676705 8:0.99678059 9:0.99539241 10:0.99642229 11:0.99737686 12:0.99500653 13:0.99586815 14:0.99550264 15:0.99402651 16:0.99374467 17:0.99645509 18:0.99212193 19:0.9912761 20:0.99296055 21:0.97958168 22:0.98427898 23:0.98210735 24:0.97567503 25:0.97582733 26:0.92639059 27:0.90198071 28:0.92679174 29:0.96829791 30:0.95967658 31:0.97722623 32:0.96574864 
1 1:0.94652172 2:0.9711016 3:0.96901683 4:0.95887353 5:0.95361425 6:0.96266364 7:0.98053157 8:0.98148767 9:0.98217254 10:0.98142875 11:0.98697284 12:0.98089036 13:0.9814278 14:0.98793706 15:0.98830532 16:0.98556511 17:0.98733304 18:0.98165691 19:0.98547824 20:0.98702354 21:0.97581996 22:0.98285861 23:0.98376941 24:0.98024795 25:0.98108971 26:0.97873451 27:0.98687344 28:0.98745664 29:0.92501434 30:0.88596221 31:0.50121141 32:0.4327224 
1 1:0.99161687 2:0.99734669 3:0.9998823 4:0.99997623 5:0.99998849 6:0.99999221 7:0.99999624 8:0.99999822 9:0.99999822 10:0.99999853 11:0.99999926 12:0.99999955 13:0.99999949 14:0.9999989 15:0.99999934 16:0.99999957 17:0.99999964 18:0.99999921 19:0.99999943 20:0.99999898 21:0.99999536 22:0.99999428 23:0.9847296 24:0.64272418 25:0.5336586 26:0.30963821 27:0.23067352 28:0.16631384 29:0.20407505 30:0.26203393 31:0.20025866 32:0.32332822 
1 1:0.99648899 2:0.99896617 3:0.9995497 4:0.99987504 5:0.99992064 6:0.9998372 7:0.99986666 8:0.99987391 9:0.99960273 10:0.99837528 11:0.99767609 12:0.99723627 13:0.9962303 14:0.99620853 15:0.99857312 16:0.99856382 17:0.99851214 18:0.99843231 19:0.99880413 20:0.99878511 21:0.99840709 22:0.99847614 23:0.99901139 24:0.99708957 25:0.99922144 26:0.99931332 27:0.99881728 28:0.99942315 29:0.95429317 30:0.76845204 31:0.40939376 32:0.34502702 
1 1:0.67231494 2:0.89000787 3:0.97105708 4:0.99069532 5:0.99688442 6:0.99853781 7:0.99814702 8:0.99855696 9:0.99777644 10:0.9974396 11:0.99640199 12:0.99637038 13:0.99669747 14:0.9950612 15:0.99774559 16:0.99698626 17:0.99783086 18:0.99789676 19:0.99719223 20:0.99805406 21:0.99886169 22:0.99876475 23:0.9992987 24:0.99830669 25:0.99854581 26:0.99868049 27:0.9982312 28:0.99697077 29:0.9899058 30:0.93539639 31:0.95727198 32:0.96100278 
1 1:0.94322402 2:0.97536032 3:0.97478403 4:0.98752126 5:0.99375972 6:0.99256572 7:0.98769054 8:0.99027264 9:0.98418708 10:0.97695864 11:0.96276994 12:0.95962136 13:0.95469832 14:0.94899285 15:0.98472121 16:0.98857223 17:0.98198456 18:0.98426533 19:0.98525251 20:0.98145707 21:0.94908711 22:0.73665072 23:0.73202208 24:0.75675385 25:0.86676108 26:0.86712268 27:0.59678192 28:0.62057367 29:0.66721661 30:0.44195343 31:0.1689293 32:0.18490844 
1 1:0.99840326 2:0.99957796 3:0.99963356 4:0.99987151 5:0.99995995 6:0.99993526 7:0.99994122 8:0.99991344 9:0.99972909 10:0.99955677 11:0.99947971 12:0.99961815 13:0.99953833 14:0.99933232 15:0.99984808 16:0.99981329 17:0.99973558 18:0.99978985 19:0.99987017 20:0.99982223 21:0.99980663 22:0.99981555 23:0.99990504 24:0.99984727 25:0.99987954 26:0.99988787 27:0.99985822 28:0.99989445 29:0.99979427 30:0.99756604 31:0.9863649 32:0.93099197 
1 1:0.96702116 2:0.98937107 3:0.99124821 4:0.99588023 5:0.99633948 6:0.99790742 7:0.99747087 8:0.99685946 9:0.99318854 10:0.98801407 11:0.98811072 12:0.98986367 13:0.98812105 14:0.9835097 15:0.99370319 16:0.99570525 17:0.99235968 18:0.99424863 19:0.9962337 20:0.99526473 21:0.99462779 22:0.99562793 23:0.99706386 24:0.99189861 25:0.94550763 26:0.80942539 27:0.72209377 28:0.82178053 29:0.8594254 30:0.76977247 31:0.59740123 32:0.50662028 
1 1:0.97177523 2:0.98971399 3:0.98619022 4:0.99464972 5:0.9973248 6:0.99839485 7:0.99723031 8:0.99724811 9:0.99573454 10:0.99153541 11:0.98623107 12:0.98762857 13:0.98524628 14:0.97755125 15:0.99440616 16:0.99611117 17:0.99437431 18:0.99550725 19:0.99629217 20:0.9962075 21:0.99664025 22:0.99736393 23:0.99789922 24:0.9962091 25:0.99564684 26:0.98383561 27:0.94479441 28:0.94679225 29:0.88000984 30:0.84100564 31:0.94381795 32:0.95669001 
1 1:0.91502302 2:0.97373113 3:0.98579561 4:0.99347226 5:0.99583844 6:0.99570295 7:0.99509923 8:0.99689225 9:0.99442763 10:0.99146001 11:0.99095813 12:0.98978624 13:0.99067136 14:0.98847407 15:0.99481087 16:0.99480282 17:0.99169201 18:0.99295875 19:0.99571277 20:0.99262691 21:0.99007315 22:0.99108288 23:0.99380472 24:0.99013003 25:0.99605034 26:0.99672676 27:0.99474853 28:0.99647013 29:0.87070642 30:0.72061003 31:0.32551902 32:0.26691215 
1 1:0.92185872 2:0.97824418 3:0.9925143 4:0.99648686 5:0.99841933 6:0.99904728 7:0.99883247 8:0.99856837 9:0.99916058 10:0.99860136 11:0.99807144 12:0.99722833 13:0.99729868 14:0.99667655 15:0.99919713 16:0.99955215 17:0.99962631 18:0.99935084 19:0.82354309 20:0.23215625 21:-0.15188844 22:0.0074956132 23:0.045140784 24:0.061008406 25:0.012365647 26:-0.0088838531 27:0.02303644 28:0.027068365 29:0.044425294 30:0.063746346 31:0.040076793 32:0.12984069 
1 1:0.92424679 2:0.97958891 3:0.99395467 4:0.99746572 5:0.99926068 6:0.99972474 7:0.99968691 8:0.99960547 9:0.99972866 10:0.99969664 11:0.99966156 12:0.99952407 13:0.99941353 14:0.99831729 15:0.99966793 16:0.99975966 17:0.99983586 18:0.9998254 19:0.99974067 20:0.99985183 21:0.9999586 22:0.9999696 23:0.99457863 24:0.64244379 25:0.066105408 26:0.00067550358 27:0.098116256 28:0.061563946 29:0.059923558 30:0.07033805 31:0.046402103 32:0.14217189 
1 1:0.9980315 2:0.99904666 3:0.99930127 4:0.99933801 5:0.99970699 6:0.9997115 7:0.99982444 8:0.99986695 9:0.99935466 10:0.99912657 11:0.99879253 12:0.99882108 13:0.99881237 14:0.99675812 15:0.99627077 16:0.99637118 17:0.99656601 18:0.9940146 19:0.99259252 20:0.99070124 21:0.98815927 22:0.99098851 23:0.99190017 24:0.99181642 25:0.9888844 26:0.98176681 27:0.99006638 28:0.98931334 29:0.98166402 30:0.7978124 31:0.55863187 32:0.58659487 
-1 1:0.86128208 2:0.90215424 3:0.94285546 4:0.95099303 5:0.9753481 6:0.98875866 7:0.99346284 8:0.99008185 9:0.95839213 10:0.97470779 11:0.97620197 12:0.96996037 13:0.96895121 14:0.95567408 15:0.97031813 16:0.98089943 17:0.9788134 18:0.97327692 19:0.97885791 20:0.97373003 21:0.95409379 22:0.96130596 23:0.9608541 24:0.86541066 25:0.72991964 26:0.56751766 27:0.30084659 28:0.22999682 29:0.25207247 30:0.34222397 31:0.34846186 32:0.43796742 
1 1:0.99007912 2:0.99385423 3:0.99650275 4:0.99546672 5:0.99851163 6:0.99946537 7:0.99964678 8:0.99945639 9:0.99705983 10:0.99789136 11:0.99751317 12:0.9977135 13:0.99700508 14:0.9901064 15:0.99352843 16:0.99564388 17:0.99637448 18:0.994413 19:0.99277678 20:0.98951013 21:0.98726488 22:0.99261967 23:0.98327162 24:0.97303005 25:0.97694148 26:0.96591494 27:0.98840526 28:0.9837759 29:0.98146573 30:0.74354199 31:0.63655999 32:0.68083149 
1 1:0.99334207 2:0.99540208 3:0.99729857 4:0.99665642 5:0.99712347 6:0.99817078 7:0.99929926 8:0.99915018 9:0.99522718 10:0.99602951 11:0.99438161 12:0.9939537 13:0.99394219 14:0.98971938 15:0.99209755 16:0.9955193 17:0.99405318 18:0.9905528 19:0.98985919 20:0.98605703 21:0.98421249 22:0.99179892 23:0.99178823 24:0.99090066 25:0.98991596 26:0.98642921 27:0.99456902 28:0.99365673 29:0.9742489 30:0.8149731 31:0.54055935 32:0.55514731 
-1 1:0.97344844 2:0.97792343 3:0.98757779 4:0.99318449 5:0.99664944 6:0.99750239 7:0.99868589 8:0.99870637 9:0.99476776 10:0.99580068 11:0.99387107 12:0.99338503 13:0.99391476 14:0.99067457 15:0.99359798 16:0.99439349 17:0.99483467 18:0.99454498 19:0.99324942 20:0.99028902 21:0.98438147 22:0.98717975 23:0.98857672 24:0.98798547 25:0.98505112 26:0.92701777 27:0.89134147 28:0.67160624 29:0.35051389 30:0.38781726 31:0.38539058 32:0.48438748 
1 1:0.98950014 2:0.99534779 3:0.9969974 4:0.99211919 5:0.99605428 6:0.99779951 7:0.99911685 8:0.99909689 9:0.9948984 10:0.99643135 11:0.99671056 12:0.99736808 13:0.99795432 14:0.99613015 15:0.99726792 16:0.99756779 17:0.99787599 18:0.99588771 19:0.99604338 20:0.99522254 21:0.99430993 22:0.99631224 23:0.99465337 24:0.99282107 25:0.9930042 26:0.98825984 27:0.9924658 28:0.9827498 29:0.96219533 30:0.92417216 31:0.75747305 32:0.8029197 
-1 1:0.9965434 2:0.99794661 3:0.99792292 4:0.99943565 5:0.99961391 6:0.99936759 7:0.99927402 8:0.99916261 9:0.99928915 10:0.99858093 11:0.9983422 12:0.99791514 13:0.99598919 14:0.99560438 15:0.9960884 16:0.9931713 17:0.98939622 18:0.9940418 19:0.99294267 20:0.98695018 21:0.99524609 22:0.99349751 23:0.98681696 24:0.98401087 25:0.98113669 26:0.98259454 27:0.98199435 28:0.94962905 29:0.9270138 30:0.81731351 31:0.66332565 32:0.68659884 
-1 1:0.83505275 2:0.89336414 3:0.93690829 4:0.98336134 5:0.98532957 6:0.98104309 7:0.98470659 8:0.98599567 9:0.98803033 10:0.97911448 11:0.97938347 12:0.97291523 13:0.97008099 14:0.9777019 15:0.98751592 16:0.97894775 17:0.97959211 18:0.98826583 19:0.98518278 20:0.97259971 21:0.99070781 22:0.98121631 23:0.95798795 24:0.75238639 25:0.41550984 26:0.35049245 27:0.21941061 28:0.15669079 29:0.19218752 30:0.27444362 31:0.38823759 32:0.55013094 
-1 1:0.9397562 2:0.97552324 3:0.9922426 4:0.99857003 5:0.99933823 6:0.99895135 7:0.99830447 8:0.9982215 9:0.99848951 10:0.99752068 11:0.99740901 12:0.99559064 13:0.99131314 14:0.99028252 15:0.99351922 16:0.9911995 17:0.98912267 18:0.99400314 19:0.99329843 20:0.98741313 21:0.99662071 22:0.99531657 23:0.98118446 24:0.97559383 25:0.9735697 26:0.97864542 27:0.97719649 28:0.97153901 29:0.9684528 30:0.8895399 31:0.83590105 32:0.75963284 
-1 1:0.96181554 2:0.97551826 3:0.98651134 4:0.99633854 5:0.99691114 6:0.99499522 7:0.99473708 8:0.99626995 9:0.99672439 10:0.99474281 11:0.99483494 12:0.99266306 13:0.99115585 14:0.99324516 15:0.99598454 16:0.99496031 17:0.99390258 18:0.9964933 19:0.99565818 20:0.99256276 21:0.99744102 22:0.99603775 23:0.98935382 24:0.98705653 25:0.98383496 26:0.93987866 27:0.71232722 28:0.44762367 29:0.29503233 30:0.31215322 31:0.42665574 32:0.61550698 
-1 1:0.79989076 2:0.88510802 3:0.95935102 4:0.98890561 5:0.99355421 6:0.98521295 7:0.97155929 8:0.97964276 9:0.97966183 10:0.97336975 11:0.96804096 12:0.97011168 13:0.97002887 14:0.97695899 15:0.97937608 16:0.97367186 17:0.96808551 18:0.96860065 19:0.97381962 20:0.96598591 21:0.96372563 22:0.9579843 23:0.96182231 24:0.83553097 25:0.050835596 26:-0.098271136 27:0.15721989 28:0.15226734 29:0.16659755 30:0.18075624 31:0.14343721 32:0.23010151 
-1 1:0.9709568 2:0.99202022 3:0.99840486 4:0.99965461 5:0.99980314 6:0.9994231 7:0.99915189 8:0.99944283 9:0.99940484 10:0.99881796 11:0.99760938 12:0.99636298 13:0.99535594 14:0.99470008 15:0.9933193 16:0.99145779 17:0.99072437 18:0.99041651 19:0.99006364 20:0.98728578 21:0.98300471 22:0.97980455 23:0.97002372 24:0.95888753 25:0.96554363 26:0.97298805 27:0.97689398 28:0.98008424 29:0.97795839 30:0.83433831 31:0.84527714 32:0.82596865 
-1 1:0.99318663 2:0.99547473 3:0.99783778 4:0.99937726 5:0.99966073 6:0.99928579 7:0.998658 8:0.99875482 9:0.99844878 10:0.99758565 11:0.99599551 12:0.99446491 13:0.99448896 14:0.9942747 15:0.99547333 16:0.99330367 17:0.99035589 18:0.99158552 19:0.98939678 20:0.98823646 21:0.98535854 22:0.9814043 23:0.96578801 24:0.95098394 25:0.97450469 26:0.97877524 27:0.9825645 28:0.9840129 29:0.87682995 30:0.81186024 31:0.57831411 32:0.53037773 
-1 1:0.9204076 2:0.9629788 3:0.98681687 4:0.99690656 5:0.99789281 6:0.99564053 7:0.99351969 8:0.99474719 9:0.9942162 10:0.99124549 11:0.98936945 12:0.99073113 13:0.99160291 14:0.99334108 15:0.99353751 16:0.99076908 17:0.99015111 18:0.99055019 19:0.99085495 20:0.98905822 21:0.98794971 22:0.98590809 23:0.98530726 24:0.98559018 25:0.98897035 26:0.88873493 27:0.66362237 28:0.5355455 29:0.34056001 30:0.25276769 31:0.18279949 32:0.27680743 
-1 1:0.64081081 2:0.72968968 3:0.82005524 4:0.94826899 5:0.98181547 6:0.99157278 7:0.99240841 8:0.98941892 9:0.96144941 10:0.93063841 11:0.92078156 12:0.93948368 13:0.9538666 14:0.96671352 15:0.96065039 16:0.96575368 17:0.97020834 18:0.97900934 19:0.98658031 20:0.98679045 21:0.97550039 22:0.96152148 23:0.96960859 24:0.85537479 25:0.53746995 26:0.38032125 27:0.32513642 28:0.26344933 29:0.26188836 30:0.26539625 31:0.28194326 32:0.39096968 
-1 1:0.90935462 2:0.92562746 3:0.94754342 4:0.98853612 5:0.99599094 6:0.99753875 7:0.99777148 8:0.99795889 9:0.99302489 10:0.98969812 11:0.98781745 12:0.98473352 13:0.98893062 14:0.99202848 15:0.99105983 16:0.99139115 17:0.99099979 18:0.99376326 19:0.99580428 20:0.99522582 21:0.99200617 22:0.98991491 23:0.99306995 24:0.99067878 25:0.99057549 26:0.9831305 27:0.8828283 28:0.63457945 29:0.37750725 30:0.28930553 31:0.30246809 32:0.43009793 
-1 1:0.97267431 2:0.98618784 3:0.99348587 4:0.99885641 5:0.9988086 6:0.9986194 7:0.99876684 8:0.99902314 9:0.99747519 10:0.99711609 11:0.9958871 12:0.99587134 13:0.99634824 14:0.99689354 15:0.99577863 16:0.99492998 17:0.99549743 18:0.99513085 19:0.99639453 20:0.99695881 21:0.99472799 22:0.9950958 23:0.996707 24:0.99598613 25:0.99690248 26:0.99728528 27:0.994311 28:0.96768446 29:0.93585495 30:0.91542691 31:0.90328804 32:0.93154732 
-1 1:0.96872172 2:0.98338689 3:0.97130278 4:0.97216327 5:0.97881855 6:0.97449145 7:0.93953681 8:0.94267604 9:0.94138213 10:0.92426882 11:0.93855675 12:0.95682102 13:0.96648456 14:0.97253623 15:0.95940803 16:0.95111403 17:0.96741561 18:0.97116589 19:0.94676159 20:0.95289136 21:0.94700734 22:0.94047272 23:0.94550917 24:0.85429665 25:0.61482507 26:0.46625439 27:0.26004952 28:0.14765317 29:0.11285389 30:0.083173566 31:0.059218533 32:0.12673597 
1 1:0.99659945 2:0.99831552 3:0.99758083 4:0.99766193 5:0.99825203 6:0.99652307 7:0.9904175 8:0.99195962 9:0.99312914 10:0.98944911 11:0.98883027 12:0.98850594 13:0.98941054 14:0.99198654 15:0.98955152 16:0.98925076 17:0.98971692 18:0.99120237 19:0.97959452 20:0.97253184 21:0.98106976 22:0.98092255 23:0.98564513 24:0.98374875 25:0.98400632 26:0.98805586 27:0.98660186 28:0.9842941 29:0.47843585 30:0.53431377 31:0.39390471 32:0.3858284 
-1 1:0.99130702 2:0.99597898 3:0.99262355 4:0.99405851 5:0.99513495 6:0.99366485 7:0.98546022 8:0.98461418 9:0.98655287 10:0.98119028 11:0.98069 12:0.98416199 13:0.98641171 14:0.9890235 15:0.98596926 16:0.9825213 17:0.99003375 18:0.99070081 19:0.98162647 20:0.98375424 21:0.98293148 22:0.98118164 23:0.97775356 24:0.98130524 25:0.97871292 26:0.90539064 27:0.65181647 28:0.4686744 29:0.25386089 30:0.11177942 31:0.075909021 32:0.16072376 
-1 1:0.9946351 2:0.99773218 3:0.99487013 4:0.9962113 5:0.9978172 6:0.99720541 7:0.99176063 8:0.99551847 9:0.99415155 10:0.99290992 11:0.99431345 12:0.99331432 13:0.99237705 14:0.99444491 15:0.99379626 16:0.99334368 17:0.99523276 18:0.99560018 19:0.99272757 20:0.99362934 21:0.99323644 22:0.9923552 23:0.99387751 24:0.99432151 25:0.99416237 26:0.99478364 27:0.99099651 28:0.98161184 29:0.87484443 30:0.73904836 31:0.87342245 32:0.95745573 
-1 1:0.99954349 2:0.9996983 3:0.99973396 4:0.9993598 5:0.99959565 6:0.99976817 7:0.99948333 8:0.99953025 9:0.9998388 10:0.99984522 11:0.99989998 12:0.99940513 13:0.99775314 14:0.99850474 15:0.99803273 16:0.99794629 17:0.99867678 18:0.99453996 19:0.99454416 20:0.99782694 21:0.99819813 22:0.9965305 23:0.99446963 24:0.9965332 25:0.99702523 26:0.99623517 27:0.99550125 28:0.98323098 29:0.98705172 30:0.97739116 31:0.99089297 32:0.9970833 
-1 1:0.9553733 2:0.97934187 3:0.99216454 4:0.98580197 5:0.98206376 6:0.98510293 7:0.98492875 8:0.98850131 9:0.9955165 10:0.99561206 11:0.99776385 12:0.99014174 13:0.9769811 14:0.99125591 15:0.99502707 16:0.98550649 17:0.99189594 18:0.96879522 19:0.9677744 20:0.9844059 21:0.97628081 22:0.95618828 23:0.93588849 24:0.94129255 25:0.89494989 26:0.84411605 27:0.82757279 28:0.84535509 29:0.84107675 30:0.83127784 31:0.86192385 32:0.89740166 
-1 1:0.99270196 2:0.99502746 3:0.99672269 4:0.99622762 5:0.99859237 6:0.99810116 7:0.99637944 8:0.99831068 9:0.99932428 10:0.99964959 11:0.99977909 12:0.99843361 13:0.99580856 14:0.99699454 15:0.9978356 16:0.99269709 17:0.99686545 18:0.99294206 19:0.99344985 20:0.99732974 21:0.99624944 22:0.99261242 23:0.98762001 24:0.98892548 25:0.98785031 26:0.98521823 27:0.98263424 28:0.97909621 29:0.97991258 30:0.97769829 31:0.97750603 32:0.98416315 
-1 1:0.99244441 2:0.99709509 3:0.99861365 4:0.99700664 5:0.99849885 6:0.99883157 7:0.99702728 8:0.99748328 9:0.99867734 10:0.99877076 11:0.99956573 12:0.99818229 13:0.99621937 14:0.99782597 15:0.99882866 16:0.9974052 17:0.9986493 18:0.99411854 19:0.99309876 20:0.99763889 21:0.99687293 22:0.99363343 23:0.98832687 24:0.9900631 25:0.98796061 26:0.96650757 27:0.95646196 28:0.93964916 29:0.9167445 30:0.92193831 31:0.96041355 32:0.97808321 
-1 1:0.90421836 2:0.98319555 3:0.97806676 4:0.94902813 5:0.95277769 6:0.96402832 7:0.97487637 8:0.97525589 9:0.96047309 10:0.96895516 11:0.95573167 12:0.94860448 13:0.94935372 14:0.96547008 15:0.97089849 16:0.96649054 17:0.96230878 18:0.96535819 19:0.96348879 20:0.96279198 21:0.9745875 22:0.95982058 23:0.9326528 24:0.83271187 25:0.71872569 26:0.53899635 27:0.35569201 28:0.34181853 29:0.39890926 30:0.45087378 31:0.46707983 32:0.56636311 
-1 1:0.97656734 2:0.99479621 3:0.99422586 4:0.99066647 5:0.99023628 6:0.99092938 7:0.99589844 8:0.9958139 9:0.99345602 10:0.9944223 11:0.99063619 12:0.99099807 13:0.9888049 14:0.99093004 15:0.99037962 16:0.99002504 17:0.99052749 18:0.9931143 19:0.99187408 20:0.9907001 21:0.99190308 22:0.99069595 23:0.98668401 24:0.98980354 25:0.98519987 26:0.91726409 27:0.69866656 28:0.59088901 29:0.54712932 30:0.51388223 31:0.53203168 32:0.65674271 
1 1:0.99158906 2:0.99841946 3:0.9969438 4:0.9945562 5:0.99553491 6:0.99473475 7:0.99638445 8:0.99752747 9:0.99760826 10:0.99736379 11:0.99607317 12:0.99716568 13:0.99514558 14:0.99506849 15:0.99619874 16:0.99615981 17:0.99632156 18:0.99623294 19:0.99461368 20:0.993581 21:0.99533531 22:0.99394865 23:0.98942125 24:0.99116551 25:0.98908688 26:0.99141049 27:0.98648895 28:0.94724278 29:0.92388634 30:0.87258573 31:0.88035648 32:0.9103465 
-1 1:0.99915151 2:0.99981358 3:0.99931996 4:0.99945731 5:0.99939692 6:0.99916576 7:0.99946464 8:0.99977621 9:0.99953876 10:0.99876418 11:0.99852383 12:0.99888232 13:0.99788775 14:0.99478315 15:0.99375837 16:0.98971324 17:0.99420837 18:0.99387217 19:0.98839968 20:0.98965745 21:0.98906807 22:0.98572222 23:0.98240948 24:0.98495245 25:0.98050858 26:0.98207582 27:0.97178643 28:0.94993589 29:0.8391772 30:0.79540658 31:0.63158416 32:0.57140417 
-1 1:0.9825692 2:0.99123915 3:0.96970855 4:0.987558 5:0.98742154 6:0.96983455 7:0.97840883 8:0.9845444 9:0.97363437 10:0.95650721 11:0.95938988 12:0.95931962 13:0.94828266 14:0.95574768 15:0.9588511 16:0.94769845 17:0.96134367 18:0.96075298 19:0.95323449 20:0.94835754 21:0.93438905 22:0.91477975 23:0.93299571 24:0.64826433 25:0.22432577 26:0.25058133 27:0.1434326 28:0.1002615 29:0.12706369 30:0.1572592 31:0.18246975 32:0.33905684 
-1 1:0.99255989 2:0.99831109 3:0.99867352 4:0.99935355 5:0.99910469 6:0.99793579 7:0.99844873 8:0.9992841 9:0.99847699 10:0.99697558 11:0.99782153 12:0.99758485 13:0.99530928 14:0.99244323 15:0.99367699 16:0.99225678 17:0.99480209 18:0.99329437 19:0.99069193 20:0.99320659 21:0.99295482 22:0.99104541 23:0.98733706 24:0.98699114 25:0.98591992 26:0.98645679 27:0.98659909 28:0.98134277 29:0.9779877 30:0.81710914 31:0.8069266 32:0.69625773 
1 1:0.9996134 2:0.99987858 3:0.99961882 4:0.99978768 5:0.99968279 6:0.99945931 7:0.99959466 8:0.99969703 9:0.99907324 10:0.99846587 11:0.99885229 12:0.99904804 13:0.99843993 14:0.99753113 15:0.99816595 16:0.99789411 17:0.99829912 18:0.99778016 19:0.99278749 20:0.99323313 21:0.9920168 22:0.99035486 23:0.99287865 24:0.99382181 25:0.99064421 26:0.99176601 27:0.99136086 28:0.99073391 29:0.63114519 30:0.76074616 31:0.56732967 32:0.50902591 
-0.060000000000002274 1:0.99700731 2:0.99885713 3:0.9959266 4:0.99779836 5:0.99749257 6:0.99487834 7:0.99628947 8:0.99750419 9:0.99567494 10:0.99085178 11:0.992453 12:0.99444768 13:0.99240477 14:0.9913809 15:0.99344417 16:0.99206502 17:0.9932124 18:0.99341594 19:0.9889925 20:0.99267915 21:0.99080617 22:0.98377591 23:0.98645458 24:0.98801573 25:0.98331811 26:0.84669634 27:0.16113764 28:0.064870151 29:0.19666664 30:0.18461273 31:0.20533741 32:0.37261996 
1 1:0.99414674 2:0.99868875 3:0.9969729 4:0.99834112 5:0.99754726 6:0.99495411 7:0.99607113 8:0.99812863 9:0.99620408 10:0.99418477 11:0.99695642 12:0.99803046 13:0.99752973 14:0.9973944 15:0.9976767 16:0.99722183 17:0.99775258 18:0.99707891 19:0.99536925 20:0.99657538 21:0.99680268 22:0.99570717 23:0.996152 24:0.99526779 25:0.99467543 26:0.99455894 27:0.99442131 28:0.99260817 29:0.97093568 30:0.89170159 31:0.97236284 32:0.97068713 
-1 1:0.99919427 2:0.99970605 3:0.99945858 4:0.99922691 5:0.99925232 6:0.99925395 7:0.99907557 8:0.9987138 9:0.99859917 10:0.99914247 11:0.99905717 12:0.99885582 13:0.99837903 14:0.99633789 15:0.98880254 16:0.98730052 17:0.98789061 18:0.98961399 19:0.98840791 20:0.98646711 21:0.99154576 22:0.99500912 23:0.98847057 24:0.98831938 25:0.98986663 26:0.98287277 27:0.98679578 28:0.9959472 29:0.98768304 30:0.94339781 31:0.81720035 32:0.74280308 
-1 1:0.974688 2:0.9824392 3:0.97086227 4:0.97581591 5:0.97052924 6:0.98196803 7:0.96766852 8:0.95366025 9:0.96185902 10:0.9844321 11:0.98640355 12:0.98964742 13:0.9919574 14:0.98917318 15:0.96793649 16:0.97530129 17:0.97934422 18:0.98199852 19:0.97915029 20:0.96999652 21:0.97644329 22:0.99005003 23:0.98210256 24:0.84143497 25:0.5986494 26:0.3770531 27:0.22087237 28:0.19370276 29:0.2190005 30:0.26848458 31:0.2915383 32:0.41319268 
-1 1:0.98981779 2:0.99613976 3:0.99863554 4:0.99911678 5:0.99868823 6:0.9980342 7:0.99721992 8:0.9974486 9:0.99748836 10:0.99827824 11:0.99807686 12:0.99826284 13:0.99726837 14:0.9934983 15:0.97916326 16:0.98044095 17:0.98678895 18:0.99002906 19:0.98946115 20:0.98316402 21:0.99014019 22:0.99509264 23:0.99014084 24:0.9901086 25:0.99057612 26:0.98198395 27:0.98660647 28:0.99340231 29:0.98604246 30:0.93228474 31:0.88212854 32:0.83278466 
1 1:0.99821191 2:0.99912242 3:0.99876023 4:0.99836129 5:0.99805809 6:0.99740097 7:0.99591849 8:0.99193684 9:0.99408839 10:0.99696184 11:0.99747188 12:0.9986526 13:0.99849733 14:0.99729695 15:0.98950743 16:0.98715342 17:0.9913075 18:0.99332236 19:0.99260093 20:0.98902544 21:0.99216162 22:0.99562686 23:0.98944078 24:0.99274096 25:0.99222832 26:0.98750588 27:0.99096567 28:0.99635619 29:0.9498667 30:0.91435697 31:0.71448537 32:0.61940291 
-1 1:0.99063774 2:0.99421954 3:0.99167473 4:0.99398523 5:0.99282737 6:0.99245256 7:0.98968984 8:0.98469902 9:0.98375699 10:0.99288493 11:0.99526082 12:0.99571448 13:0.99658637 14:0.99528008 15:0.98796134 16:0.98912921 17:0.98978152 18:0.9921933 19:0.98898722 20:0.98519243 21:0.98916678 22:0.99652014 23:0.99312328 24:0.99141426 25:0.99067911 26:0.87760774 27:0.8034352 28:0.68672042 29:0.49768955 30:0.34293739 31:0.3445421 32:0.48502014 
-1 1:0.99313837 2:0.99780555 3:0.99808376 4:0.99764647 5:0.99610786 6:0.99523229 7:0.99338649 8:0.99470425 9:0.99412539 10:0.99709972 11:0.9974503 12:0.99792769 13:0.99851025 14:0.9967617 15:0.98745149 16:0.98841737 17:0.99109528 18:0.99346439 19:0.99222581 20:0.99074947 21:0.99494572 22:0.99710916 23:0.99364583 24:0.99576963 25:0.99504731 26:0.9919466 27:0.99055528 28:0.98042589 29:0.94210404 30:0.72301872 31:0.76159557 32:0.88830996 
-1 1:0.99858016 2:0.99963889 3:0.99947151 4:0.99928917 5:0.99930937 6:0.99925964 7:0.99884302 8:0.9983812 9:0.99470765 10:0.99475571 11:0.99776342 12:0.99636897 13:0.99876264 14:0.9981834 15:0.99739829 16:0.99755441 17:0.99728314 18:0.99797747 19:0.99788735 20:0.99747905 21:0.99744648 22:0.99641028 23:0.99235502 24:0.99601275 25:0.99414776 26:0.98095949 27:0.98890132 28:0.99143839 29:0.97108466 30:0.79341222 31:0.62273538 32:0.5958816 
-1 1:0.89950526 2:0.97362155 3:0.98288381 4:0.97300538 5:0.97953612 6:0.97095594 7:0.96833797 8:0.96367623 9:0.94271963 10:0.91700907 11:0.88606135 12:0.94862044 13:0.98131896 14:0.98175953 15:0.96840378 16:0.9712759 17:0.97013119 18:0.97340392 19:0.9796658 20:0.9831683 21:0.98510307 22:0.98158819 23:0.96706143 24:0.89286194 25:0.61043605 26:0.45125403 27:0.31033534 28:0.2401929 29:0.26284113 30:0.30126167 31:0.27540503 32:0.33290915 
-1 1:0.98585815 2:0.99682435 3:0.9965889 4:0.9940836 5:0.99809753 6:0.99746088 7:0.99830763 8:0.99622711 9:0.99234895 10:0.98969109 11:0.991256 12:0.99385409 13:0.99719267 14:0.9949628 15:0.99350682 16:0.99455908 17:0.99541693 18:0.99540692 19:0.99531321 20:0.99531719 21:0.99664354 22:0.9968632 23:0.99354788 24:0.99166886 25:0.99307449 26:0.98875499 27:0.9863454 28:0.98803869 29:0.98684306 30:0.79900165 31:0.73677418 32:0.6890082 
1 1:0.99929964 2:0.99971729 3:0.99930026 4:0.99933916 5:0.99932165 6:0.99934309 7:0.99921409 8:0.99923741 9:0.99811755 10:0.99366079 11:0.99518016 12:0.99529922 13:0.99907963 14:0.99831921 15:0.99738502 16:0.99779574 17:0.99826525 18:0.9971214 19:0.99704832 20:0.99755313 21:0.99790363 22:0.99697177 23:0.98992507 24:0.99697185 25:0.99727402 26:0.99629055 27:0.99723562 28:0.99692821 29:0.92137272 30:0.78329785 31:0.51753608 32:0.48225818 
-1 1:0.95941849 2:0.99204827 3:0.99619721 4:0.99391632 5:0.99397396 6:0.99295153 7:0.98965762 8:0.98832651 9:0.98603462 10:0.97460162 11:0.97553057 12:0.98235409 13:0.9954645 14:0.99613289 15:0.993866 16:0.99417454 17:0.991994 18:0.99404245 19:0.99353438 20:0.99337181 21:0.99640895 22:0.99501146 23:0.99147636 24:0.98905175 25:0.98863033 26:0.95408668 27:0.68425975 28:0.51979093 29:0.37086968 30:0.33436874 31:0.28656178 32:0.34584054 
-1 1:0.9654083 2:0.96422457 3:0.96511369 4:0.96550741 5:0.95508879 6:0.95740924 7:0.94883597 8:0.94093611 9:0.93000238 10:0.94513857 11:0.93422918 12:0.94848648 13:0.96546401 14:0.97025797 15:0.95636306 16:0.96710628 17:0.97476092 18:0.97863082 19:0.9698515 20:0.96530863 21:0.9628302 22:0.9526433 23:0.96689391 24:0.85214718 25:0.65571881 26:0.60371148 27:0.33679357 28:0.12442335 29:0.11717704 30:0.10922026 31:0.019297624 32:0.0018173831 
-1 1:0.99719832 2:0.99572693 3:0.99451376 4:0.99553397 5:0.99596979 6:0.99590069 7:0.99379547 8:0.98966534 9:0.98227044 10:0.97767282 11:0.96890157 12:0.97963952 13:0.98662906 14:0.99063895 15:0.98942103 16:0.99147633 17:0.99159277 18:0.9912978 19:0.9887965 20:0.98605375 21:0.98294225 22:0.95808462 23:0.97710657 24:0.95979135 25:0.92346584 26:0.93214221 27:0.93631988 28:0.92891118 29:0.74102381 30:0.46042731 31:0.37639748 32:0.38190899 
1 1:0.99277948 2:0.990885 3:0.98989771 4:0.98866348 5:0.986841 6:0.98218194 7:0.98114394 8:0.98112532 9:0.98384069 10:0.9812185 11:0.97508528 12:0.97403193 13:0.97513601 14:0.98059609 15:0.98298579 16:0.98317993 17:0.9771323 18:0.97767175 19:0.97798739 20:0.97828353 21:0.97727191 22:0.97748298 23:0.98320593 24:0.9838699 25:0.98015259 26:0.97038009 27:0.96178348 28:0.84130718 29:0.82752751 30:0.78548273 31:0.76377703 32:0.7716289 
-1 1:0.99952955 2:0.99989186 3:0.99773822 4:0.99963731 5:0.99976075 6:0.99955417 7:0.99963146 8:0.99970481 9:0.99936944 10:0.99866296 11:0.99923771 12:0.99940578 13:0.99860712 14:0.99705522 15:0.9956381 16:0.99640167 17:0.9984551 18:0.99556885 19:0.99051586 20:0.99132078 21:0.99601087 22:0.99694343 23:0.99094211 24:0.99555364 25:0.9968747 26:0.99224435 27:0.98892279 28:0.98311289 29:0.97087899 30:0.92149514 31:0.80350903 32:0.83436913 
-1 1:0.98098155 2:0.99475156 3:0.93184787 4:0.99017736 5:0.99149269 6:0.98440135 7:0.98527038 8:0.9845055 9:0.9767841 10:0.96961029 11:0.98804943 12:0.98911463 13:0.97882242 14:0.98231825 15:0.98293312 16:0.98432347 17:0.99247159 18:0.98874655 19:0.95913729 20:0.96095001 21:0.98018404 22:0.98065527 23:0.96229289 24:0.95338297 25:0.833407 26:0.46304422 27:0.3599048 28:0.3582694 29:0.41880241 30:0.52903522 31:0.63076246 32:0.72749951 
-1 1:0.99781303 2:0.99959804 3:0.9964367 4:0.99970578 5:0.99983582 6:0.99953906 7:0.99928112 8:0.99924845 9:0.99877093 10:0.99792622 11:0.99903991 12:0.99887819 13:0.99594559 14:0.99390433 15:0.99445278 16:0.99657645 17:0.99840966 18:0.99733712 19:0.99155433 20:0.99485677 21:0.99776748 22:0.99766038 23:0.99569137 24:0.9973188 25:0.99666885 26:0.99160346 27:0.98930448 28:0.99050254 29:0.9894965 30:0.9204887 31:0.81892495 32:0.85097237 
-1 1:0.99735427 2:0.99925988 3:0.98467972 4:0.99805062 5:0.99881121 6:0.99507396 7:0.99646047 8:0.99689707 9:0.99511677 10:0.99233722 11:0.99728637 12:0.99788934 13:0.99538372 14:0.9939817 15:0.99651636 16:0.99646512 17:0.99767384 18:0.99744981 19:0.99195615 20:0.993444 21:0.9967855 22:0.99615868 23:0.99101476 24:0.99653691 25:0.99377587 26:0.89968846 27:0.68836675 28:0.49805125 29:0.49618149 30:0.59171659 31:0.69538705 32:0.79566734 
-1 1:0.99640709 2:0.9994145 3:0.99618267 4:0.99907215 5:0.99928507 6:0.99849382 7:0.99777463 8:0.99852971 9:0.99734557 10:0.99603046 11:0.99891067 12:0.99916028 13:0.99834409 14:0.99799735 15:0.99803517 16:0.99791202 17:0.99887944 18:0.99867515 19:0.99611036 20:0.99739559 21:0.99883634 22:0.99819371 23:0.99622635 24:0.99828792 25:0.99775917 26:0.99434909 27:0.9906724 28:0.99039329 29:0.98360045 30:0.96506271 31:0.80479069 32:0.74682049 
-1 1:0.97197772 2:0.95762176 3:0.86622775 4:0.84877017 5:0.86470493 6:0.88552381 7:0.88757259 8:0.89393218 9:0.90866665 10:0.94090321 11:0.95700407 12:0.96729019 13:0.97645842 14:0.99469812 15:0.99774577 16:0.99713977 17:0.99752662 18:0.99838352 19:0.99242059 20:0.98198099 21:0.97616115 22:0.98064426 23:0.96576107 24:0.88292244 25:0.8144691 26:0.74650317 27:0.71060672 28:0.70293831 29:0.68551931 30:0.68621655 31:0.69421849 32:0.750839 
-1 1:0.99502941 2:0.99160865 3:0.97424865 4:0.96754225 5:0.96880309 6:0.9723997 7:0.9726476 8:0.97654805 9:0.98050783 10:0.98462425 11:0.98964459 12:0.99207058 13:0.9941754 14:0.99839174 15:0.99972545 16:0.99974701 17:0.99950215 18:0.99962792 19:0.998764 20:0.9955878 21:0.99344771 22:0.99521242 23:0.99410725 24:0.9903536 25:0.98806295 26:0.94208826 27:0.88050276 28:0.82346314 29:0.75473526 30:0.74621402 31:0.76207468 32:0.82168602 
-1 1:0.99717363 2:0.9993019 3:0.9995657 4:0.9995451 5:0.9989332 6:0.99949412 7:0.99963238 8:0.99963409 9:0.99949291 10:0.99822455 11:0.99847481 12:0.99815129 13:0.99457262 14:0.99758117 15:0.99838484 16:0.99701194 17:0.99582987 18:0.99269211 19:0.99446836 20:0.9926592 21:0.99551501 22:0.99560918 23:0.99434446 24:0.98985373 25:0.98334395 26:0.991602 27:0.99367771 28:0.98771407 29:0.97598892 30:0.92415519 31:0.88298683 32:0.90344294 
-1 1:0.75773687 2:0.9004485 3:0.96440471 4:0.9729253 5:0.9502672 6:0.97840757 7:0.98288966 8:0.98669167 9:0.98770978 10:0.97797952 11:0.97782657 12:0.9662622 13:0.93853906 14:0.98276522 15:0.98991075 16:0.98416902 17:0.97679376 18:0.96863681 19:0.97447909 20:0.96899806 21:0.98002945 22:0.98451075 23:0.96904722 24:0.80778746 25:0.69587852 26:0.5468228 27:0.40214058 28:0.44652782 29:0.55933514 30:0.58204555 31:0.62568246 32:0.70434332 
-1 1:0.93379777 2:0.98403956 3:0.99818202 4:0.99914954 5:0.99826214 6:0.99870108 7:0.99901217 8:0.99893938 9:0.99852054 10:0.99665006 11:0.99589377 12:0.99090925 13:0.96934576 14:0.98974987 15:0.99239923 16:0.98963197 17:0.98734384 18:0.98038162 19:0.98113626 20:0.97687358 21:0.98925821 22:0.99343433 23:0.9883154 24:0.95813685 25:0.96029734 26:0.98151878 27:0.97792528 28:0.97123373 29:0.948883 30:0.8855923 31:0.84469155 32:0.86684134 
-1 1:0.92052137 2:0.97590213 3:0.99090584 4:0.9952564 5:0.987543 6:0.99417221 7:0.99693428 8:0.99709887 9:0.99677244 10:0.99446362 11:0.99439937 12:0.99327072 13:0.98763026 14:0.99664097 15:0.9974388 16:0.99538865 17:0.99398956 18:0.99117749 19:0.99265621 20:0.99157486 21:0.99604548 22:0.99607992 23:0.99261282 24:0.98787138 25:0.98200316 26:0.97178652 27:0.92004484 28:0.81781446 29:0.7351786 30:0.7153924 31:0.76460185 32:0.84591847 
-1 1:0.96896856 2:0.99340498 3:0.99864953 4:0.99892171 5:0.99675521 6:0.99890364 7:0.99908079 8:0.99901761 9:0.99804797 10:0.99393988 11:0.9941372 12:0.99407647 13:0.9871875 14:0.99651005 15:0.99766707 16:0.99591363 17:0.99467874 18:0.99027249 19:0.99230651 20:0.99283453 21:0.99698727 22:0.99711556 23:0.99591971 24:0.99105509 25:0.98824393 26:0.99309269 27:0.99214237 28:0.98421064 29:0.96432068 30:0.9265625 31:0.91045577 32:0.90764415 
-1 1:0.99902933 2:0.99966864 3:0.99937614 4:0.99891144 5:0.9993568 6:0.99941651 7:0.99938178 8:0.99958851 9:0.99938304 10:0.99840908 11:0.99753447 12:0.99697182 13:0.9918699 14:0.99146511 15:0.99103342 16:0.99299789 17:0.98963495 18:0.99229418 19:0.99382517 20:0.99081889 21:0.99584352 22:0.99408955 23:0.99083252 24:0.98979688 25:0.98783293 26:0.99224585 27:0.98372588 28:0.95036025 29:0.92479372 30:0.88648091 31:0.78447777 32:0.78022753 
-1 1:0.97077297 2:0.98234415 3:0.96852269 4:0.97028243 5:0.97170689 6:0.98251525 7:0.98778682 8:0.99167271 9:0.98977887 10:0.97994036 11:0.96901905 12:0.96255326 13:0.96289434 14:0.96932833 15:0.96692823 16:0.97793602 17:0.97392696 18:0.98360537 19:0.98782698 20:0.96681381 21:0.98306168 22:0.97712582 23:0.96082829 24:0.81357577 25:0.45017028 26:0.39747271 27:0.35961934 28:0.27885441 29:0.32896397 30:0.3705075 31:0.40129564 32:0.55426422 
-1 1:0.99264882 2:0.99601452 3:0.99360825 4:0.99311214 5:0.99462286 6:0.99698841 7:0.99700472 8:0.99779542 9:0.99775576 10:0.99450376 11:0.98889965 12:0.99258582 13:0.98960194 14:0.99068807 15:0.99087473 16:0.99449437 17:0.99223951 18:0.9964565 19:0.99627782 20:0.9925667 21:0.99624498 22:0.99448234 23:0.99094235 24:0.99015731 25:0.98721072 26:0.97105135 27:0.74524883 28:0.52958503 29:0.46078074 30:0.43558767 31:0.46708058 32:0.64055715 
-1 1:0.91780873 2:0.97849139 3:0.98308869 4:0.98216208 5:0.97948436 6:0.97638162 7:0.98718626 8:0.98246333 9:0.96332341 10:0.90174251 11:0.88255083 12:0.96066234 13:0.96672406 14:0.96723717 15:0.97091735 16:0.96869031 17:0.96651733 18:0.96583815 19:0.96923324 20:0.97698383 21:0.97156653 22:0.97276755 23:0.95910463 24:0.86115292 25:0.3211852 26:0.06255265 27:0.080639998 28:0.19123286 29:0.30526869 30:0.35405162 31:0.42616272 32:0.53246339 
-1 1:0.99374754 2:0.99860883 3:0.99884109 4:0.99929359 5:0.99845157 6:0.99724944 7:0.99911448 8:0.99963992 9:0.99927397 10:0.9965466 11:0.99525613 12:0.9958962 13:0.99558371 14:0.99589416 15:0.99529201 16:0.99248863 17:0.99181878 18:0.98954979 19:0.98622165 20:0.99019294 21:0.9926728 22:0.99266924 23:0.99282454 24:0.98412984 25:0.98067793 26:0.98501571 27:0.98624725 28:0.9862996 29:0.98580949 30:0.92001365 31:0.86026617 32:0.78758488 
-1 1:0.99210822 2:0.99673665 3:0.9952598 4:0.99623162 5:0.99601628 6:0.99401317 7:0.99796983 8:0.99808615 9:0.99572043 10:0.99004283 11:0.98461456 12:0.99467724 13:0.99553556 14:0.99472822 15:0.9941296 16:0.99393547 17:0.9942087 18:0.99228732 19:0.99131472 20:0.99521978 21:0.99483162 22:0.99417336 23:0.99268332 24:0.98686578 25:0.98822442 26:0.93405843 27:0.82531012 28:0.7123303 29:0.48520925 30:0.39667425 31:0.47304432 32:0.5977986 
1 1:0.99051914 2:0.99785417 3:0.99801787 4:0.99691249 5:0.99500875 6:0.99477419 7:0.99812011 8:0.99906947 9:0.99818195 10:0.99515204 11:0.99164175 12:0.99750022 13:0.99775071 14:0.99765451 15:0.99813598 16:0.9981247 17:0.99851574 18:0.99798186 19:0.99814187 20:0.9990351 21:0.99934092 22:0.99892746 23:0.99469456 24:0.99142281 25:0.99316632 26:0.99480512 27:0.99326315 28:0.99530981 29:0.99141073 30:0.96738645 31:0.94612228 32:0.92074959 
-1 1:0.9982583 2:0.99913325 3:0.99903623 4:0.99941163 5:0.99954908 6:0.99951587 7:0.99955656 8:0.99978244 9:0.99977318 10:0.99960352 11:0.99921847 12:0.99889289 13:0.99812837 14:0.99807489 15:0.99718823 16:0.99401104 17:0.98813177 18:0.99104212 19:0.99528842 20:0.99603359 21:0.99674946 22:0.99064228 23:0.99274114 24:0.99053752 25:0.99256013 26:0.99198397 27:0.99363085 28:0.99560071 29:0.9966474 30:0.95585521 31:0.85146438 32:0.80136494 
-1 1:0.92792517 2:0.95844063 3:0.95498896 4:0.97667334 5:0.98280235 6:0.98030742 7:0.98721954 8:0.98805746 9:0.98303496 10:0.96047027 11:0.94669913 12:0.95652676 13:0.96078841 14:0.97096581 15:0.97340155 16:0.965299 17:0.96450381 18:0.97231125 19:0.96312844 20:0.97887573 21:0.97379931 22:0.93579872 23:0.95463919 24:0.68858461 25:0.12968292 26:0.069176413 27:0.048134138 28:0.036836252 29:0.074092078 30:0.078843396 31:0.078912427 32:0.19076137 
-1 1:0.99037126 2:0.99628774 3:0.99595596 4:0.99804505 5:0.99873223 6:0.99834201 7:0.99875143 8:0.99963963 9:0.99958819 10:0.99900968 11:0.99748572 12:0.99663341 13:0.99398167 14:0.99543935 15:0.99393352 16:0.99270875 17:0.98863122 18:0.99536728 19:0.99525471 20:0.99644895 21:0.9957915 22:0.99144519 23:0.98750482 24:0.98333512 25:0.98734396 26:0.98144254 27:0.98163422 28:0.98124161 29:0.98052334 30:0.94338818 31:0.94299309 32:0.91755141 
-1 1:0.98821111 2:0.99402159 3:0.99201555 4:0.99465721 5:0.99498448 6:0.99625031 7:0.99792352 8:0.99858576 9:0.99815708 10:0.99643266 11:0.9910765 12:0.9889346 13:0.99052882 14:0.99328172 15:0.99283362 16:0.99214652 17:0.98725473 18:0.99291016 19:0.99349666 20:0.99555919 21:0.99454136 22:0.97928855 23:0.98598998 24:0.98221427 25:0.98818376 26:0.98579373 27:0.98047365 28:0.98671563 29:0.98303079 30:0.95338826 31:0.79265188 32:0.72698582 
1 1:0.98687588 2:0.99434641 3:0.99235551 4:0.99578152 5:0.99762577 6:0.99756522 7:0.99840191 8:0.99923654 9:0.99885714 10:0.99814063 11:0.99700513 12:0.99632513 13:0.99515084 14:0.9975073 15:0.99643755 16:0.99622214 17:0.99450652 18:0.99718422 19:0.99777532 20:0.99812277 21:0.99819822 22:0.99562008 23:0.99572486 24:0.9934392 25:0.9965571 26:0.9956319 27:0.91183442 28:0.88821532 29:0.87696196 30:0.77994211 31:0.86300396 32:0.88848021 
-1 1:0.99908246 2:0.99924902 3:0.99856615 4:0.9988453 5:0.99884043 6:0.99786659 7:0.99860393 8:0.99876041 9:0.99861879 10:0.99772748 11:0.99777953 12:0.99748046 13:0.99652649 14:0.99578409 15:0.98899328 16:0.98320057 17:0.99351596 18:0.99431961 19:0.98704321 20:0.98031212 21:0.98362705 22:0.98749762 23:0.98513743 24:0.98977973 25:0.98613409 26:0.97711985 27:0.98816564 28:0.99418841 29:0.97380496 30:0.8102947 31:0.65421373 32:0.69722889 
-1 1:0.96962679 2:0.97389379 3:0.94787143 4:0.96320348 5:0.95590834 6:0.9258568 7:0.93534216 8:0.96247565 9:0.97567025 10:0.9650969 11:0.96218472 12:0.97273738 13:0.98282061 14:0.98437088 15:0.96017475 16:0.94355919 17:0.97650078 18:0.98081986 19:0.9654723 20:0.95092559 21:0.96354962 22:0.96748188 23:0.94802952 24:0.9345429 25:0.67475659 26:0.48517194 27:0.3175725 28:0.25531761 29:0.35090211 30:0.4609276 31:0.39955096 32:0.45668929 
-1 1:0.99436775 2:0.99752088 3:0.99696978 4:0.99804034 5:0.99773599 6:0.99520326 7:0.99641247 8:0.99751338 9:0.99802022 10:0.99705982 11:0.99641135 12:0.99590931 13:0.99479898 14:0.99266938 15:0.9825647 16:0.9733293 17:0.99064129 18:0.9929136 19:0.98515785 20:0.97983821 21:0.98406434 22:0.98390493 23:0.96841927 24:0.97874427 25:0.97906364 26:0.96455946 27:0.97057065 28:0.97260027 29:0.93724573 30:0.62651088 31:0.70727905 32:0.82360782 
-1 1:0.99088149 2:0.99092221 3:0.9838361 4:0.98944698 5:0.98682629 6:0.97850991 7:0.98226701 8:0.98814473 9:0.99082369 10:0.98844013 11:0.98774877 12:0.99197379 13:0.9927253 14:0.99410334 15:0.98894289 16:0.98338619 17:0.99332443 18:0.99436261 19:0.98728315 20:0.97958715 21:0.98296599 22:0.99081832 23:0.98575138 24:0.99165753 25:0.98968299 26:0.91712837 27:0.85641186 28:0.7016813 29:0.58948297 30:0.57749324 31:0.52534407 32:0.60232116 
1 1:0.99541268 2:0.99678269 3:0.99555491 4:0.9971094 5:0.9963859 6:0.99266074 7:0.99393613 8:0.99621284 9:0.99608789 10:0.99526838 11:0.99630739 12:0.99674313 13:0.99723626 14:0.9972177 15:0.99283975 16:0.99047262 17:0.99623141 18:0.99726529 19:0.99317798 20:0.99133529 21:0.99240958 22:0.99344667 23:0.99078719 24:0.99407033 25:0.99384241 26:0.98972938 27:0.98808861 28:0.97392147 29:0.78062159 30:0.43249383 31:0.709344 32:0.82354256 
-1 1:0.96601495 2:0.97773395 3:0.96074047 4:0.95334801 5:0.96423619 6:0.96586642 7:0.96186989 8:0.96725687 9:0.97394647 10:0.97322883 11:0.95917775 12:0.95855997 13:0.96637925 14:0.96740667 15:0.96383816 16:0.95703463 17:0.96144493 18:0.96883956 19:0.97271169 20:0.95945336 21:0.95166868 22:0.94006033 23:0.93302335 24:0.79567307 25:0.35475812 26:0.21885298 27:0.19639966 28:0.13457864 29:0.14086382 30:0.14661839 31:0.12442355 32:0.17486279 
-1 1:0.99324403 2:0.99794111 3:0.99692143 4:0.99630178 5:0.99762658 6:0.9975681 7:0.99793114 8:0.99832549 9:0.99857974 10:0.9975106 11:0.99632046 12:0.99476595 13:0.99262476 14:0.98953066 15:0.98420117 16:0.98183412 17:0.98673989 18:0.98922744 19:0.98917998 20:0.98593048 21:0.9851514 22:0.97869483 23:0.96422579 24:0.96616625 25:0.96785033 26:0.96810002 27:0.96373363 28:0.96844983 29:0.97655388 30:0.89407567 31:0.86848057 32:0.70932681 
1 1:0.99306595 2:0.99725891 3:0.99534498 4:0.99505851 5:0.99487342 6:0.9944693 7:0.9944842 8:0.9955952 9:0.99670925 10:0.99611045 11:0.99521885 12:0.9942394 13:0.99528584 14:0.99556464 15:0.99406116 16:0.99293704 17:0.99453883 18:0.99474455 19:0.99469435 20:0.99402778 21:0.99370971 22:0.99153656 23:0.99078842 24:0.99149303 25:0.99305853 26:0.99315743 27:0.98210726 28:0.94845046 29:0.95192566 30:0.91922673 31:0.85458655 32:0.8810127 
-1 1:0.87106048 2:0.91659815 3:0.90495854 4:0.88857776 5:0.8937953 6:0.94518127 7:0.96017442 8:0.97414589 9:0.97985247 10:0.98309613 11:0.9753532 12:0.96872048 13:0.96759441 14:0.97553655 15:0.98166111 16:0.98062884 17:0.97681204 18:0.97433799 19:0.9819222 20:0.98204423 21:0.97542169 22:0.95858128 23:0.94107536 24:0.89849979 25:0.7560806 26:0.4116306 27:0.19345636 28:0.26130691 29:0.37372756 30:0.41413414 31:0.37511763 32:0.44482452 
-1 1:0.95177493 2:0.98468522 3:0.98409028 4:0.97551495 5:0.97734699 6:0.99253815 7:0.99699948 8:0.99776929 9:0.99784719 10:0.9979152 11:0.99681161 12:0.99369442 13:0.98950268 14:0.98593216 15:0.98602817 16:0.98543802 17:0.98605819 18:0.98574826 19:0.98963318 20:0.99280973 21:0.9909307 22:0.98376811 23:0.96599464 24:0.97960574 25:0.97916454 26:0.959703 27:0.93749737 28:0.90576672 29:0.88200213 30:0.80478603 31:0.74232387 32:0.76515385 
-1 1:0.96177088 2:0.97565494 3:0.97273416 4:0.96339455 5:0.96244849 6:0.9849394 7:0.99138791 8:0.99296504 9:0.99292266 10:0.99391919 11:0.99269697 12:0.99035401 13:0.98967147 14:0.99065228 15:0.99362189 16:0.99359989 17:0.99168124 18:0.98899273 19:0.99308432 20:0.99445799 21:0.99322345 22:0.98988356 23:0.98253966 24:0.98889615 25:0.98842093 26:0.95022894 27:0.8139967 28:0.63683921 29:0.52967434 30:0.45185107 31:0.41577211 32:0.50667515 
-1 1:0.98430319 2:0.97734872 3:0.95269894 4:0.93067502 5:0.9380736 6:0.92808747 7:0.90538258 8:0.90859438 9:0.92947203 10:0.93960942 11:0.92344648 12:0.92160117 13:0.92592626 14:0.91886282 15:0.90154203 16:0.90801946 17:0.92217412 18:0.9258016 19:0.9220957 20:0.92671288 21:0.90506018 22:0.88686994 23:0.92787415 24:0.80757568 25:0.33993242 26:0.18541311 27:0.14944846 28:0.053320627 29:0.03241403 30:0.064825198 31:0.025659417 32:0.064045913 
1 1:0.99935527 2:0.99929234 3:0.9987499 4:0.99776009 5:0.99733185 6:0.99762997 7:0.99756653 8:0.99687384 9:0.99663162 10:0.99745389 11:0.99568968 12:0.99278909 13:0.99151061 14:0.97914118 15:0.97458977 16:0.97749787 17:0.98511452 18:0.98328627 19:0.98186562 20:0.98567504 21:0.98521301 22:0.97970656 23:0.98027521 24:0.97491486 25:0.97481552 26:0.980085 27:0.96608488 28:0.97050603 29:0.97863825 30:0.78997171 31:0.78215967 32:0.7347271 
-1 1:0.99829846 2:0.99946125 3:0.99937699 4:0.99918157 5:0.99890604 6:0.99790071 7:0.99919674 8:0.99949182 9:0.99954718 10:0.9995936 11:0.99939872 12:0.99877764 13:0.99789335 14:0.99727924 15:0.99703387 16:0.99448441 17:0.99158877 18:0.98979695 19:0.9914301 20:0.99070921 21:0.99145878 22:0.98816612 23:0.9887136 24:0.98370209 25:0.98497641 26:0.98651351 27:0.98579343 28:0.98115333 29:0.98064025 30:0.90168968 31:0.75113085 32:0.74718014 
-1 1:0.94022044 2:0.97704866 3:0.96432184 4:0.964017 5:0.98906241 6:0.9812855 7:0.96693284 8:0.96824735 9:0.95722961 10:0.9765617 11:0.97642599 12:0.96042139 13:0.95791218 14:0.96445669 15:0.97077023 16:0.94978371 17:0.92952006 18:0.92790045 19:0.9175072 20:0.89689595 21:0.90431309 22:0.90063153 23:0.90626533 24:0.74986011 25:0.25059038 26:0.14591449 27:0.25031091 28:0.27120669 29:0.27858592 30:0.30300396 31:0.27311691 32:0.3465462 
-1 1:0.97824979 2:0.99296866 3:0.99466634 4:0.9946179 5:0.99733418 6:0.99815178 7:0.99697283 8:0.99844341 9:0.99895003 10:0.9991413 11:0.99844451 12:0.99751334 13:0.99476096 14:0.99504873 15:0.99517285 16:0.9910498 17:0.98838223 18:0.98436347 19:0.98499821 20:0.98240906 21:0.98466084 22:0.98021742 23:0.96126183 24:0.96318705 25:0.97777665 26:0.98275658 27:0.97893186 28:0.98176743 29:0.98736941 30:0.89805001 31:0.85817137 32:0.84405504 
-1 1:0.99128837 2:0.99708398 3:0.99544308 4:0.99518464 5:0.9967039 6:0.99579429 7:0.99627515 8:0.99639577 9:0.99688046 10:0.996469 11:0.996642 12:0.99576069 13:0.99397237 14:0.99461116 15:0.99424556 16:0.99095833 17:0.98994987 18:0.98702117 19:0.98442284 20:0.98221618 21:0.98065592 22:0.984734 23:0.98376444 24:0.97839618 25:0.97721465 26:0.87769055 27:0.50231633 28:0.39815783 29:0.36554691 30:0.38154054 31:0.32126662 32:0.41204191 
-1 1:0.98327544 2:0.98670106 3:0.99188061 4:0.97578889 5:0.87541334 6:0.8578207 7:0.87560742 8:0.87819709 9:0.90795428 10:0.90631521 11:0.93005209 12:0.94846448 13:0.93510209 14:0.93213722 15:0.91962394 16:0.98001891 17:0.9834473 18:0.95074922 19:0.95397853 20:0.97205546 21:0.97841095 22:0.97137035 23:0.95592087 24:0.90828467 25:0.68032691 26:0.49932712 27:0.35053764 28:0.30387056 29:0.30471993 30:0.32955093 31:0.27886894 32:0.36730403 
-1 1:0.99416172 2:0.99446649 3:0.99717121 4:0.99438353 5:0.97048152 6:0.94763068 7:0.95064297 8:0.96641321 9:0.98180521 10:0.98213901 11:0.98089614 12:0.98306319 13:0.97196041 14:0.98369447 15:0.98531665 16:0.99269159 17:0.99029698 18:0.97812948 19:0.98065191 20:0.98892536 21:0.99254985 22:0.99259253 23:0.98495734 24:0.98867324 25:0.98148228 26:0.85007764 27:0.84418827 28:0.68534463 29:0.40730442 30:0.36783312 31:0.33181861 32:0.46058626 
-1 1:0.99541031 2:0.99733082 3:0.99803206 4:0.99377571 5:0.98130158 6:0.98051372 7:0.98747089 8:0.99169172 9:0.99139555 10:0.99426147 11:0.99488388 12:0.99283332 13:0.98661212 14:0.98857906 15:0.98530153 16:0.99068685 17:0.99084036 18:0.98273191 19:0.97929615 20:0.99158415 21:0.99524179 22:0.99477156 23:0.98990664 24:0.98969232 25:0.98241862 26:0.96724666 27:0.97947303 28:0.96882562 29:0.95974504 30:0.91821091 31:0.91160199 32:0.9136856 
-1 1:0.9432352 2:0.95317635 3:0.95207103 4:0.95630406 5:0.96333868 6:0.96423961 7:0.95954201 8:0.97308429 9:0.97783554 10:0.97306255 11:0.9590982 12:0.95895155 13:0.96430376 14:0.96283251 15:0.94065865 16:0.9572819 17:0.9668068 18:0.97261863 19:0.95989662 20:0.93015875 21:0.94877831 22:0.95336372 23:0.94458938 24:0.31807776 25:-0.011244899 26:0.20925531 27:0.29576564 28:0.14314334 29:0.12549939 30:0.092284982 31:-0.037633908 32:-0.027778137 
-1 1:0.99189715 2:0.99611708 3:0.99645951 4:0.99756745 5:0.99773463 6:0.99717696 7:0.99694293 8:0.99806946 9:0.99830328 10:0.99768885 11:0.99519837 12:0.99396264 13:0.98916013 14:0.982711 15:0.96140994 16:0.9710725 17:0.97359986 18:0.97368743 19:0.96863141 20:0.94952656 21:0.96897372 22:0.970774 23:0.9454733 24:0.92764518 25:0.9544125 26:0.96955168 27:0.98141061 28:0.98538498 29:0.97826019 30:0.89189513 31:0.88252261 32:0.83213089 
-1 1:0.99116441 2:0.994148 3:0.99355388 4:0.99435933 5:0.9955356 6:0.9930121 7:0.9905398 8:0.99441638 9:0.99454233 10:0.99412876 11:0.99127363 12:0.98919993 13:0.98875771 14:0.98700121 15:0.9767772 16:0.98527976 17:0.98574908 18:0.9885716 19:0.98261683 20:0.96458278 21:0.97329237 22:0.97882042 23:0.97708305 24:0.9635588 25:0.97099852 26:0.98059988 27:0.99110403 28:0.99260419 29:0.88816307 30:0.89799248 31:0.62617098 32:0.50567808 
-1 1:0.98169284 2:0.98515936 3:0.98310158 4:0.98441467 5:0.98773642 6:0.98538477 7:0.98575064 8:0.98914748 9:0.99138831 10:0.99084496 11:0.98422555 12:0.98554832 13:0.98496438 14:0.9857514 15:0.97833646 16:0.98367226 17:0.98468076 18:0.9893437 19:0.98496744 20:0.96925436 21:0.9791243 22:0.98405271 23:0.98083489 24:0.96851702 25:0.97087327 26:0.86582957 27:0.6262222 28:0.53247174 29:0.43592643 30:0.19255563 31:0.01060345 32:0.019351756 
-1 1:0.99502053 2:0.99880663 3:0.99924017 4:0.99894737 5:0.99918354 6:0.99967274 7:0.99949803 8:0.99878493 9:0.99896757 10:0.99899761 11:0.99813872 12:0.99485902 13:0.99661925 14:0.99451478 15:0.99153862 16:0.99387397 17:0.9895421 18:0.99374505 19:0.99546245 20:0.97316304 21:0.99074506 22:0.99600462 23:0.99543524 24:0.99007988 25:0.99483102 26:0.9973592 27:0.99707626 28:0.99748869 29:0.97943094 30:0.98011783 31:0.90404906 32:0.88469467 
-1 1:0.78515945 2:0.94707848 3:0.98904208 4:0.98919369 5:0.9922729 6:0.99749773 7:0.99603924 8:0.97197418 9:0.98362543 10:0.98279146 11:0.964718 12:0.96067787 13:0.978085 14:0.98050953 15:0.98239798 16:0.96996544 17:0.95473012 18:0.97422545 19:0.97974845 20:0.94180898 21:0.94408486 22:0.96926504 23:0.97561721 24:0.78385956 25:-0.68051638 26:-0.51134218 27:0.012160227 28:0.11078027 29:0.34978134 30:0.29442575 31:0.47337551 32:0.74200772 
-1 1:0.94431757 2:0.99525736 3:0.99840458 4:0.99807062 5:0.99885035 6:0.99957831 7:0.99936707 8:0.99712408 9:0.99740813 10:0.99716766 11:0.99576373 12:0.99226169 13:0.99671089 14:0.99081019 15:0.98732003 16:0.98998068 17:0.98339661 18:0.98887857 19:0.99067033 20:0.96503431 21:0.98488085 22:0.99218232 23:0.99029277 24:0.98248396 25:0.99160097 26:0.99400535 27:0.99096058 28:0.9889135 29:0.97011166 30:0.96547204 31:0.95433558 32:0.96213719 
-1 1:0.95979519 2:0.98933377 3:0.99607594 4:0.99691837 5:0.99777936 6:0.99933494 7:0.99889036 8:0.99360395 9:0.99239454 10:0.98491002 11:0.98525906 12:0.99211737 13:0.99681539 14:0.99716067 15:0.9929134 16:0.99429584 17:0.99066547 18:0.99568266 19:0.99534923 20:0.98332593 21:0.98920169 22:0.99463797 23:0.99494602 24:0.99080846 25:0.99674892 26:0.99108193 27:0.90380615 28:0.90054034 29:0.61800559 30:0.34946987 31:0.50327954 32:0.78945729 
-1 1:0.92951899 2:0.92692412 3:0.91089849 4:0.97208891 5:0.95260027 6:0.9702326 7:0.97053367 8:0.91659605 9:0.93140822 10:0.95773238 11:0.97001261 12:0.95352013 13:0.94471909 14:0.95451656 15:0.94316485 16:0.91576519 17:0.90011778 18:0.90280782 19:0.89501874 20:0.88445059 21:0.85798893 22:0.80880702 23:0.82752591 24:0.63962805 25:0.41096011 26:0.36227595 27:0.27735312 28:0.23023544 29:0.24321063 30:0.22960211 31:0.083664683 32:0.1320445 
1 1:0.98343703 2:0.99068607 3:0.98877413 4:0.99644118 5:0.99696368 6:0.99916688 7:0.99921306 8:0.99859443 9:0.99851228 10:0.99903924 11:0.99891696 12:0.9979857 13:0.99652833 14:0.99590205 15:0.9938877 16:0.98938554 17:0.98570315 18:0.98776084 19:0.98479523 20:0.97652979 21:0.97504596 22:0.9627086 23:0.9552394 24:0.94764134 25:0.95541139 26:0.95194527 27:0.96295685 28:0.95300217 29:0.86488688 30:0.072932864 31:0.51610014 32:0.57533631 
1 1:0.99751621 2:0.9975684 3:0.99744261 4:0.99867846 5:0.99732019 6:0.99817047 7:0.99829104 8:0.99634459 9:0.99403566 10:0.99464666 11:0.99714158 12:0.99547347 13:0.99375448 14:0.99434551 15:0.98891718 16:0.98612066 17:0.98449104 18:0.98396542 19:0.98178819 20:0.97470797 21:0.96565256 22:0.95539434 23:0.96491609 24:0.96593093 25:0.96783983 26:0.96885259 27:0.97358863 28:0.94887929 29:0.32468881 30:0.051973922 31:0.20293878 32:0.26307493 
1 1:0.979599 2:0.98537078 3:0.98601585 4:0.99437486 5:0.99376554 6:0.9963463 7:0.99537065 8:0.9927488 9:0.99643529 10:0.99767045 11:0.99829584 12:0.99719755 13:0.99456949 14:0.99383576 15:0.98978749 16:0.98341829 17:0.98026819 18:0.98121209 19:0.97964509 20:0.97679852 21:0.97292785 22:0.97214531 23:0.97032183 24:0.96669004 25:0.96887551 26:0.97330852 27:0.97059069 28:0.95282271 29:0.88385611 30:0.87176154 31:0.96939788 32:0.97531154 
-1 1:0.94291523 2:0.95702147 3:0.97841946 4:0.98814664 5:0.9689582 6:0.90202003 7:0.94571323 8:0.96205273 9:0.89509524 10:0.8690471 11:0.92955619 12:0.95053181 13:0.94736136 14:0.94345995 15:0.91520966 16:0.94154772 17:0.94772534 18:0.94295684 19:0.9328196 20:0.93496508 21:0.94941717 22:0.96007212 23:0.95848041 24:0.91270503 25:0.864886 26:0.68012998 27:0.34617998 28:0.31400664 29:0.3409273 30:0.37725887 31:0.40644709 32:0.52924455 
-1 1:0.99257041 2:0.9967047 3:0.99874708 4:0.9992326 5:0.99812317 6:0.99384751 7:0.99727971 8:0.99901237 9:0.99720133 10:0.99522394 11:0.99554997 12:0.99517559 13:0.98891505 14:0.97931843 15:0.96171935 16:0.97170609 17:0.97043383 18:0.97084033 19:0.97113876 20:0.97603628 21:0.98520056 22:0.98764236 23:0.9833648 24:0.9825003 25:0.99032435 26:0.98402451 27:0.98166587 28:0.98819442 29:0.98898886 30:0.95900261 31:0.91006105 32:0.90867218 
-1 1:0.99271051 2:0.99636503 3:0.99821294 4:0.99886756 5:0.99749378 6:0.9910199 7:0.99471702 8:0.9962722 9:0.98951432 10:0.98494344 11:0.99036157 12:0.99304537 13:0.99101209 14:0.98325148 15:0.97857185 16:0.98514152 17:0.97733313 18:0.97747086 19:0.97662582 20:0.97910883 21:0.98433307 22:0.98585801 23:0.98483481 24:0.98462031 25:0.99241004 26:0.98890826 27:0.98247597 28:0.98908548 29:0.97926728 30:0.95298427 31:0.79392124 32:0.78152196 
-1 1:0.98603302 2:0.9899469 3:0.99523352 4:0.99756879 5:0.99433673 6:0.97901425 7:0.98856857 8:0.99255664 9:0.98159602 10:0.97576652 11:0.98445936 12:0.98563087 13:0.98568298 14:0.98509494 15:0.9791138 16:0.98545729 17:0.98425319 18:0.98339412 19:0.98057979 20:0.9823789 21:0.981668 22:0.98789462 23:0.98868709 24:0.98773463 25:0.99283144 26:0.93391436 27:0.6631239 28:0.5902231 29:0.51419761 30:0.45913722 31:0.46766273 32:0.59963352 
1 1:0.99126422 2:0.99464987 3:0.9971826 4:0.99815035 5:0.99671037 6:0.98740703 7:0.99414418 8:0.99637889 9:0.99059233 10:0.98824278 11:0.99357176 12:0.99518773 13:0.99289539 14:0.99152893 15:0.98398834 16:0.987384 17:0.98682556 18:0.98469814 19:0.98270619 20:0.987756 21:0.99339007 22:0.99418868 23:0.99307665 24:0.99426766 25:0.99636248 26:0.99343724 27:0.989625 28:0.9875498 29:0.98635637 30:0.97435669 31:0.96383412 32:0.9560583 
-1 1:0.99413767 2:0.99802938 3:0.99922709 4:0.99913204 5:0.99884372 6:0.9990936 7:0.99931364 8:0.99947615 9:0.99934851 10:0.99926971 11:0.99866092 12:0.99739202 13:0.99766795 14:0.99665578 15:0.9975797 16:0.99634771 17:0.99469626 18:0.9935751 19:0.99214259 20:0.99635001 21:0.99668479 22:0.99494681 23:0.99740903 24:0.99793172 25:0.99640962 26:0.99685502 27:0.99891737 28:0.9953013 29:0.98635462 30:0.93495767 31:0.90491708 32:0.93806471 
-1 1:0.84281078 2:0.9317848 3:0.9752845 4:0.97537685 5:0.96574365 6:0.97559245 7:0.98594562 8:0.98600789 9:0.98396087 10:0.9852285 11:0.96563767 12:0.96150863 13:0.98329723 14:0.98866294 15:0.99307268 16:0.98796721 17:0.98087273 18:0.9785806 19:0.9786865 20:0.98625802 21:0.98482662 22:0.98551964 23:0.99313305 24:0.81537335 25:-0.031794362 26:0.020201479 27:0.23485583 28:0.33129318 29:0.46538773 30:0.59056562 31:0.69192649 32:0.78800894 
-1 1:0.98343452 2:0.99415328 3:0.99688597 4:0.9959433 5:0.99257986 6:0.99687269 7:0.99800692 8:0.99872141 9:0.99855149 10:0.99859674 11:0.99739757 12:0.99614242 13:0.99617525 14:0.99490073 15:0.99675414 16:0.99448641 17:0.99411959 18:0.99396509 19:0.99228748 20:0.99359229 21:0.99432611 22:0.99598383 23:0.99513403 24:0.99497287 25:0.98642265 26:0.99180517 27:0.99571559 28:0.98971092 29:0.98953142 30:0.95745843 31:0.93184174 32:0.94584371 
-1 1:0.98013809 2:0.9916473 3:0.99676199 4:0.99615241 5:0.99573225 6:0.99739942 7:0.99820158 8:0.99860771 9:0.99811219 10:0.99800265 11:0.99438877 12:0.99592656 13:0.99762983 14:0.99747427 15:0.99853482 16:0.99707728 17:0.9963131 18:0.99448478 19:0.99491531 20:0.99801383 21:0.99742279 22:0.99694542 23:0.9973886 24:0.99840741 25:0.99749296 26:0.99757323 27:0.99819087 28:0.99253897 29:0.98158669 30:0.93353382 31:0.89503077 32:0.92345601 
-1 1:0.9516704 2:0.98343609 3:0.99454868 4:0.99338614 5:0.99251429 6:0.99423672 7:0.99658221 8:0.99660426 9:0.99594771 10:0.99646622 11:0.99195246 12:0.99048668 13:0.99626746 14:0.99519755 15:0.99781938 16:0.99574849 17:0.99507217 18:0.99425529 19:0.99458472 20:0.99777022 21:0.99716726 22:0.99755058 23:0.99758078 24:0.99853812 25:0.99633293 26:0.99496584 27:0.9101679 28:0.67017048 29:0.6172472 30:0.68212511 31:0.79693613 32:0.90295171 
-1 1:0.99952792 2:0.99991328 3:0.9999369 4:0.99993975 5:0.99951201 6:0.99981499 7:0.99949712 8:0.99954514 9:0.99949932 10:0.99904356 11:0.99913705 12:0.99869048 13:0.99608444 14:0.99590113 15:0.99568313 16:0.99505883 17:0.99165902 18:0.99572489 19:0.99601793 20:0.99659824 21:0.99828828 22:0.99699468 23:0.99604342 24:0.9948686 25:0.99187585 26:0.98694223 27:0.98079772 28:0.9821175 29:0.96453479 30:0.93436609 31:0.94106303 32:0.94514704 
-1 1:0.99152935 2:0.99564059 3:0.9939476 4:0.9967673 5:0.98728189 6:0.98246044 7:0.9522154 8:0.95519601 9:0.9687731 10:0.95510999 11:0.96459739 12:0.94879419 13:0.9498726 14:0.95227961 15:0.95791013 16:0.96100717 17:0.94243104 18:0.93386242 19:0.93080255 20:0.93752417 21:0.93573998 22:0.9167125 23:0.9026307 24:0.86690159 25:0.79374553 26:0.70387163 27:0.69355978 28:0.70183607 29:0.71125893 30:0.7060936 31:0.74397017 32:0.78883909 
-1 1:0.99704829 2:0.99940659 3:0.99963937 4:0.99986292 5:0.99906354 6:0.99919786 7:0.99780659 8:0.99786595 9:0.9984861 10:0.99743319 11:0.99789814 12:0.99566258 13:0.99249199 14:0.99218185 15:0.99155719 16:0.99214065 17:0.98885563 18:0.99222245 19:0.99210988 20:0.99283041 21:0.99457883 22:0.99109131 23:0.9843609 24:0.98227749 25:0.97906198 26:0.97312278 27:0.97316499 28:0.9696876 29:0.96496176 30:0.9466415 31:0.94886962 32:0.94555432 
-1 1:0.99807564 2:0.99921598 3:0.99903952 4:0.99931982 5:0.99568643 6:0.99823243 7:0.9947362 8:0.99381262 9:0.99502366 10:0.99354381 11:0.99483367 12:0.99369681 13:0.99129718 14:0.99165348 15:0.9925501 16:0.99226203 17:0.98672508 18:0.99021305 19:0.99039378 20:0.99180217 21:0.99274546 22:0.98998779 23:0.98484505 24:0.98247925 25:0.98146628 26:0.95021338 27:0.90934815 28:0.87358343 29:0.83218676 30:0.81528513 31:0.85686884 32:0.89808158 
-1 1:0.98708918 2:0.98818085 3:0.9732454 4:0.95804359 5:0.88445316 6:0.9572726 7:0.97919804 8:0.98388024 9:0.96460191 10:0.95745835 11:0.97923176 12:0.96345289 13:0.96262376 14:0.98415939 15:0.9845971 16:0.97328582 17:0.96503725 18:0.96542906 19:0.96297285 20:0.94692483 21:0.95892389 22:0.97418094 23:0.97570102 24:0.71620099 25:0.27758824 26:0.12882482 27:0.1563268 28:0.17615393 29:0.14343866 30:0.14409932 31:0.081391874 32:0.11388466 
1 1:0.99979019 2:0.99986546 3:0.99966403 4:0.99922053 5:0.9972771 6:0.99887156 7:0.99929747 8:0.99938828 9:0.99875345 10:0.99805865 11:0.99845164 12:0.99683372 13:0.99606722 14:0.99821217 15:0.99802669 16:0.99666206 17:0.99509019 18:0.99280202 19:0.99110189 20:0.98605434 21:0.98925292 22:0.99315976 23:0.99349086 24:0.98993008 25:0.98737297 26:0.98628273 27:0.99313083 28:0.99534714 29:0.93137766 30:0.90424291 31:0.70148372 32:0.59913031 
-1 1:0.99597925 2:0.99665598 3:0.99173479 4:0.98284008 5:0.96198441 6:0.98721352 7:0.9918666 8:0.99352869 9:0.99002487 10:0.9884787 11:0.99242832 12:0.98492992 13:0.9834767 14:0.99420736 15:0.99211817 16:0.98820823 17:0.9837345 18:0.98093543 19:0.98335785 20:0.97472009 21:0.98001058 22:0.98680293 23:0.98854911 24:0.98493997 25:0.9709014 26:0.75751572 27:0.6820823 28:0.61782156 29:0.39584592 30:0.25089359 31:0.11705679 32:0.13674862 
1 1:0.99808207 2:0.99900761 3:0.99795185 4:0.99480303 5:0.98800139 6:0.99568762 7:0.99737314 8:0.99754168 9:0.99580156 10:0.99472529 11:0.99533741 12:0.99391453 13:0.99436003 14:0.9967549 15:0.99574406 16:0.99437082 17:0.9923851 18:0.99067758 19:0.9901633 20:0.98338377 21:0.99119438 22:0.99509082 23:0.99532747 24:0.99458961 25:0.99461599 26:0.99300991 27:0.99580891 28:0.99527053 29:0.98024157 30:0.93072096 31:0.94232867 32:0.95345719 
1 1:0.99910336 2:0.99918038 3:0.99879348 4:0.99809386 5:0.99842706 6:0.99838455 7:0.99863295 8:0.99879864 9:0.99809747 10:0.99728163 11:0.99644765 12:0.99421768 13:0.99047574 14:0.98400535 15:0.97626909 16:0.96918585 17:0.96594182 18:0.95478982 19:0.90670168 20:0.89678292 21:0.91336514 22:0.92604186 23:0.9676177 24:0.97828071 25:0.97755835 26:0.97324259 27:0.97439905 28:0.99214157 29:0.99210606 30:0.96078045 31:0.74515093 32:0.65172113 
-1 1:0.97505684 2:0.97655112 3:0.96775 4:0.9357112 5:0.936073 6:0.94364194 7:0.94516124 8:0.95794423 9:0.95579549 10:0.95589361 11:0.95200593 12:0.94574772 13:0.95378728 14:0.95153992 15:0.94784967 16:0.94002717 17:0.94457632 18:0.93638391 19:0.89106376 20:0.87742012 21:0.89078682 22:0.88955384 23:0.94953556 24:0.81361581 25:0.69621058 26:0.59294812 27:0.32886391 28:0.20582061 29:0.17943497 30:0.17333562 31:0.089456212 32:0.18464616 
1 1:0.99844981 2:0.99866371 3:0.99801028 4:0.99570393 5:0.99509939 6:0.99476585 7:0.99605716 8:0.99721868 9:0.99641927 10:0.99614913 11:0.99417856 12:0.98903903 13:0.98281763 14:0.96617711 15:0.9607966 16:0.95901696 17:0.95886359 18:0.9466281 19:0.89646311 20:0.89794837 21:0.91686094 22:0.91026997 23:0.95176166 24:0.96624731 25:0.97098086 26:0.96634084 27:0.96854074 28:0.98831965 29:0.99300616 30:0.94245172 31:0.92163805 32:0.8413182 
-1 1:0.99174961 2:0.99240896 3:0.98966725 4:0.97697244 5:0.97689406 6:0.97913475 7:0.98100016 8:0.98643577 9:0.98451996 10:0.98376241 11:0.97890402 12:0.97507433 13:0.97589612 14:0.97697394 15:0.98009957 16:0.97739144 17:0.97591845 18:0.97484863 19:0.94811022 20:0.94552592 21:0.95294499 22:0.94964988 23:0.97506409 24:0.98400928 25:0.9835719 26:0.87774577 27:0.6363763 28:0.63527533 29:0.47136295 30:0.26065176 31:0.12072347 32:0.24194847 
1 1:0.99757029 2:0.99767817 3:0.99510575 4:0.98922313 5:0.99066154 6:0.98885125 7:0.98909097 8:0.99212127 9:0.98939011 10:0.98962286 11:0.9896504 12:0.98897542 13:0.9889807 14:0.98602034 15:0.98088749 16:0.97787767 17:0.97901943 18:0.97551838 19:0.9428972 20:0.94694019 21:0.96264794 22:0.96139776 23:0.98400769 24:0.98902152 25:0.98843367 26:0.98605 27:0.95921539 28:0.94116758 29:0.97395787 30:0.94319839 31:0.92988754 32:0.89255969 
1 1:0.9984318 2:0.99903075 3:0.99912468 4:0.99937431 5:0.99946972 6:0.99982812 7:0.99974621 8:0.99934743 9:0.9993142 10:0.9988533 11:0.99893017 12:0.9989163 13:0.99837233 14:0.99760127 15:0.99676784 16:0.99643971 17:0.99443562 18:0.9958106 19:0.99651786 20:0.99633262 21:0.99544463 22:0.99707822 23:0.99081723 24:0.98295358 25:0.97531766 26:0.98042382 27:0.97905938 28:0.87233699 29:0.84587289 30:0.74359975 31:0.61065423 32:0.5511891 
-1 1:0.89186229 2:0.96293907 3:0.9705006 4:0.96953807 5:0.95945351 6:0.9789354 7:0.95475681 8:0.87592582 9:0.88171835 10:0.88986471 11:0.94546887 12:0.95662807 13:0.93432631 14:0.96067176 15:0.97518873 16:0.96288837 17:0.97260152 18:0.97434504 19:0.98273114 20:0.96810621 21:0.9702768 22:0.97941923 23:0.96216048 24:0.90754533 25:0.58995375 26:0.32759344 27:0.29889198 28:0.25072911 29:0.24966208 30:0.27528811 31:0.27299456 32:0.31450168 
-1 1:0.98078995 2:0.99236512 3:0.99637015 4:0.99832311 5:0.99863658 6:0.999237 7:0.99761247 8:0.99764647 9:0.99772053 10:0.99708168 11:0.99725201 12:0.99628832 13:0.99378523 14:0.99208704 15:0.99489065 16:0.99424026 17:0.99422452 18:0.9950388 19:0.99442701 20:0.99504876 21:0.9950165 22:0.99507736 23:0.98680075 24:0.97747669 25:0.97231403 26:0.98374381 27:0.9877928 28:0.98545282 29:0.9875461 30:0.67411081 31:0.65199601 32:0.60080404 
1 1:0.99864477 2:0.99907603 3:0.99856631 4:0.9989054 5:0.99898903 6:0.99955858 7:0.99926779 8:0.99832967 9:0.99699922 10:0.99768483 11:0.99823368 12:0.99842362 13:0.99804761 14:0.99587884 15:0.99834811 16:0.99806547 17:0.99805803 18:0.9981704 19:0.99756555 20:0.99769197 21:0.99653339 22:0.99665933 23:0.99261297 24:0.98615847 25:0.99113173 26:0.99214593 27:0.99371064 28:0.9940133 29:0.80448636 30:0.66286435 31:0.56615389 32:0.49121008 
1 1:0.98570214 2:0.99320997 3:0.99565159 4:0.99679969 5:0.99716427 6:0.99876131 7:0.99776374 8:0.99207613 9:0.98563266 10:0.98090343 11:0.98312307 12:0.98358831 13:0.98175979 14:0.98924535 15:0.99605312 16:0.99343459 17:0.98901193 18:0.99623391 19:0.99701092 20:0.99707488 21:0.99666854 22:0.99768655 23:0.99570109 24:0.99123199 25:0.99262172 26:0.99514547 27:0.99641344 28:0.99311548 29:0.98856032 30:0.94918766 31:0.96038911 32:0.9567445 
-1 1:0.95599967 2:0.97095109 3:0.97983892 4:0.98499242 5:0.96767684 6:0.94835016 7:0.94195828 8:0.9430805 9:0.93379581 10:0.93318153 11:0.91950827 12:0.93278168 13:0.9514883 14:0.9553602 15:0.95475788 16:0.94789328 17:0.9502873 18:0.95931832 19:0.96701106 20:0.97585711 21:0.97080675 22:0.96302288 23:0.95240803 24:0.78117033 25:0.51960693 26:0.33721308 27:0.10142098 28:0.061454858 29:0.088908997 30:0.093892348 31:0.044944078 32:0.070356898 
1 1:0.97283643 2:0.98910981 3:0.99726191 4:0.9984092 5:0.99746084 6:0.99663945 7:0.99783779 8:0.99780409 9:0.99725884 10:0.99436985 11:0.98979011 12:0.98454095 13:0.98191843 14:0.97760293 15:0.97777424 16:0.97053771 17:0.98067461 18:0.98642176 19:0.98470366 20:0.98601105 21:0.984792 22:0.98228426 23:0.96775595 24:0.96134217 25:0.97419103 26:0.97418387 27:0.97736357 28:0.9728801 29:0.9630402 30:0.87088106 31:0.8560092 32:0.72001763 
1 1:0.98341531 2:0.99133157 3:0.99439632 4:0.99659989 5:0.99233694 6:0.98865054 7:0.989646 8:0.98917299 9:0.98610985 10:0.98620782 11:0.98515763 12:0.98304966 13:0.98576519 14:0.98751293 15:0.98762269 16:0.98535947 17:0.98620128 18:0.98885716 19:0.98955606 20:0.99233804 21:0.9918399 22:0.99024011 23:0.98882584 24:0.98201261 25:0.98372347 26:0.84444252 27:0.2630492 28:0.17059166 29:0.21625987 30:0.1597535 31:0.080097201 32:0.10810989 
1 1:0.97260982 2:0.985567 3:0.99304284 4:0.99439517 5:0.99162229 6:0.98792655 7:0.99100573 8:0.99249096 9:0.99306181 10:0.9901851 11:0.98715177 12:0.98597045 13:0.98911671 14:0.99008656 15:0.98727136 16:0.98520399 17:0.98948481 18:0.99210234 19:0.99253042 20:0.99452356 21:0.9941692 22:0.99326829 23:0.99120866 24:0.98665908 25:0.99033404 26:0.9913511 27:0.98368013 28:0.94164892 29:0.90408664 30:0.8784199 31:0.88913745 32:0.91911178 
-1 1:0.77904016 2:0.89722074 3:0.94242517 4:0.96003479 5:0.96810788 6:0.9767536 7:0.97148041 8:0.96916078 9:0.97333249 10:0.97084567 11:0.94396349 12:0.94271604 13:0.95227243 14:0.96330665 15:0.96996488 16:0.97674353 17:0.97364875 18:0.96003059 19:0.9582783 20:0.96732161 21:0.96277266 22:0.93576534 23:0.9510539 24:0.87007142 25:0.66679387 26:0.49294659 27:0.39015953 28:0.29203939 29:0.3072189 30:0.35487725 31:0.33895972 32:0.39286856 
-1 1:0.97286937 2:0.99227899 3:0.99663583 4:0.99708492 5:0.99753241 6:0.99808961 7:0.99808031 8:0.99650104 9:0.99754538 10:0.99795196 11:0.99585088 12:0.99407198 13:0.99288936 14:0.99268674 15:0.98474208 16:0.98736863 17:0.98903145 18:0.98324458 19:0.98290442 20:0.99156883 21:0.99026086 22:0.96857967 23:0.97357976 24:0.97116268 25:0.98520703 26:0.98472954 27:0.98255961 28:0.97751003 29:0.98577865 30:0.89101162 31:0.84849326 32:0.82359032 
-1 1:0.93867829 2:0.97707821 3:0.98299092 4:0.98428788 5:0.9911175 6:0.99401244 7:0.99359469 8:0.99032891 9:0.99307003 10:0.99295268 11:0.98930623 12:0.98565016 13:0.98652291 14:0.99196267 15:0.99151715 16:0.99463668 17:0.9923533 18:0.98639212 19:0.98678441 20:0.99152012 21:0.99026943 22:0.98312766 23:0.98544669 24:0.98731669 25:0.98878259 26:0.97363617 27:0.83539939 28:0.65760086 29:0.4389364 30:0.44336117 31:0.40220277 32:0.46689624 
1 1:0.98069357 2:0.99411597 3:0.99488146 4:0.99584199 5:0.99679304 6:0.99719693 7:0.99667831 8:0.99554395 9:0.99702913 10:0.99756345 11:0.99565332 12:0.99270349 13:0.99521862 14:0.99723936 15:0.99408707 16:0.99558111 17:0.99659849 18:0.99344014 19:0.99097276 20:0.99553497 21:0.99629981 22:0.99063699 23:0.99252665 24:0.99102784 25:0.99429908 26:0.99666343 27:0.99389643 28:0.97061806 29:0.96650452 30:0.93429599 31:0.92968437 32:0.94586454 
-1 1:0.9982713 2:0.99903717 3:0.99906439 4:0.99939851 5:0.99914963 6:0.99804233 7:0.99807502 8:0.99864338 9:0.99877027 10:0.99828906 11:0.9979293 12:0.99689892 13:0.99529316 14:0.9917993 15:0.98720735 16:0.98087695 17:0.97380392 18:0.98285056 19:0.97896862 20:0.96852007 21:0.95822842 22:0.9844833 23:0.99296377 24:0.99563271 25:0.99283361 26:0.97556981 27:0.94176297 28:0.95706795 29:0.98395911 30:0.91059539 31:0.78071008 32:0.68042155 
-1 1:0.96386193 2:0.9781609 3:0.97919831 4:0.97941469 5:0.95544785 6:0.90210786 7:0.88895018 8:0.92633965 9:0.95128433 10:0.96081144 11:0.96751087 12:0.96959348 13:0.97233908 14:0.96698602 15:0.95874192 16:0.96366597 17:0.9549874 18:0.97283208 19:0.97120489 20:0.95663218 21:0.93530872 22:0.97559137 23:0.98591748 24:0.95718461 25:0.8093362 26:0.68968613 27:0.22224842 28:0.12923253 29:0.15717682 30:0.16831387 31:0.057800238 32:0.074944612 
-1 1:0.98499576 2:0.99128985 3:0.99233886 4:0.99262894 5:0.98307284 6:0.96578385 7:0.9669877 8:0.9756864 9:0.98176732 10:0.98635121 11:0.98836504 12:0.98613801 13:0.98755878 14:0.98702051 15:0.98400903 16:0.98343831 17:0.98025679 18:0.98769782 19:0.98512717 20:0.97991773 21:0.97101178 22:0.98847391 23:0.99321071 24:0.99546108 25:0.99292079 26:0.85135755 27:0.41026325 28:0.26745245 29:0.26651878 30:0.225936 31:0.077747368 32:0.1023986 
-1 1:0.99888952 2:0.99925471 3:0.99866054 4:0.99917897 5:0.99917286 6:0.99893176 7:0.99909861 8:0.99924385 9:0.99951975 10:0.99949539 11:0.99904225 12:0.99935122 13:0.99875186 14:0.99785055 15:0.99755219 16:0.99754422 17:0.99551738 18:0.99384915 19:0.99289308 20:0.99040826 21:0.99295777 22:0.99528081 23:0.99064491 24:0.98431585 25:0.97864367 26:0.98381005 27:0.98746741 28:0.98610986 29:0.99499598 30:0.99114932 31:0.94969705 32:0.92384465 
-1 1:0.97438062 2:0.9763074 3:0.97837646 4:0.98634983 5:0.98229728 6:0.97436325 7:0.97914906 8:0.97318069 9:0.98790757 10:0.99046029 11:0.98127236 12:0.98311541 13:0.98716068 14:0.98805539 15:0.98887882 16:0.99099253 17:0.98472477 18:0.98215416 19:0.9795573 20:0.97423482 21:0.98292849 22:0.98687353 23:0.97371331 24:0.63246735 25:0.53312258 26:0.53263512 27:0.25653213 28:0.20697347 29:0.23402003 30:0.34505768 31:0.51850889 32:0.68625903 
-1 1:0.99643309 2:0.99795855 3:0.99679984 4:0.99804686 5:0.998714 6:0.99840239 7:0.99785669 8:0.99852059 9:0.99888641 10:0.99892313 11:0.99810543 12:0.99881805 13:0.99771809 14:0.99569246 15:0.99665933 16:0.99741584 17:0.99604925 18:0.996261 19:0.99567551 20:0.9954202 21:0.9977225 22:0.99765679 23:0.99451526 24:0.98960079 25:0.986655 26:0.99242472 27:0.99435714 28:0.99282301 29:0.99553647 30:0.99111991 31:0.96873019 32:0.95119599 
-1 1:0.99794841 2:0.99857251 3:0.99898946 4:0.99939079 5:0.99925146 6:0.99873525 7:0.99896957 8:0.99897439 9:0.99904166 10:0.99939719 11:0.9988614 12:0.99929489 13:0.99887617 14:0.9987092 15:0.99877175 16:0.99912737 17:0.99831588 18:0.99797121 19:0.99725119 20:0.99597072 21:0.99747858 22:0.99806428 23:0.99509851 24:0.99004447 25:0.98844917 26:0.99219191 27:0.99383545 28:0.98935062 29:0.99307424 30:0.98802896 31:0.93937514 32:0.90975747 
