svm_type nu_svr
kernel_type rbf
gamma 0.20447551463899999
nr_class 2
total_sv 188
rho -6.9884886375640187
SV
126.237786175 1:0.99157391 2:0.99644441 3:0.99894139 4:0.99930228 5:0.99782547 6:0.99554967 7:0.99768348 8:0.9983338 9:0.9975419 10:0.99497817 11:0.99782721 12:0.9983614 13:0.99789832 14:0.99725789 15:0.99536804 16:0.99464802 17:0.99245293 18:0.98926291 19:0.98844729 20:0.98754893 21:0.9852188 22:0.98507313 23:0.9847427 24:0.98310185 25:0.98100296 26:0.97185876 27:0.96628469 28:0.96720629 29:0.95572346 30:0.94854996 31:0.89450011 32:0.84844162 
36.99563414272717 1:0.93479194 2:0.96185889 3:0.97666561 4:0.98230104 5:0.96239535 6:0.92345324 7:0.95304472 8:0.95654981 9:0.95370033 10:0.94696773 11:0.94079095 12:0.95435812 13:0.94636342 14:0.93686869 15:0.92432836 16:0.92634072 17:0.90573759 18:0.87509607 19:0.86795519 20:0.86688833 21:0.87194789 22:0.70937978 23:0.63878295 24:0.72046959 25:0.68399221 26:0.84335155 27:0.62256631 28:0.59196978 29:0.60929135 30:0.27040378 31:0.15586882 32:0.20144534 
12.518099792560241 1:0.99954641 2:0.99974819 3:0.99981115 4:0.99974569 5:0.99964362 6:0.99958817 7:0.99984414 8:0.99984719 9:0.9997536 10:0.99960765 11:0.9996838 12:0.99979612 13:0.99974476 14:0.99947302 15:0.99921177 16:0.99909421 17:0.99886255 18:0.99759303 19:0.99711365 20:0.99732964 21:0.9981644 22:0.99895031 23:0.99875836 24:0.99929994 25:0.99899592 26:0.99777118 27:0.99820018 28:0.99838714 29:0.99911253 30:0.99696359 31:0.96571195 32:0.81536723 
0.1359736138582546 1:0.99944267 2:0.99971042 3:0.99993667 4:0.99988053 5:0.99991833 6:0.99998345 7:0.99999114 8:0.99999069 9:0.99998887 10:0.99998575 11:0.99997668 12:0.999969 13:0.99995374 14:0.99994539 15:0.99994162 16:0.99993549 17:0.99988998 18:0.99929331 19:0.46034058 20:0.1988053 21:0.099487914 22:0.065060932 23:0.063754208 24:0.085204939 25:0.09654865 26:0.082907208 27:0.08250198 28:0.074040869 29:0.079242973 30:0.085801272 31:0.11503514 32:0.2010689 
76.384396256025042 1:0.99872885 2:0.9868289 3:0.87951584 4:0.90707094 5:0.96043429 6:0.97999173 7:0.98550551 8:0.99488021 9:0.99743357 10:0.99819767 11:0.99874382 12:0.99940152 13:0.99950109 14:0.9989598 15:0.99960451 16:0.99916396 17:0.99398966 18:0.98988532 19:0.97590217 20:0.99250618 21:0.99822448 22:0.99895852 23:0.99825417 24:0.99558464 25:0.99765428 26:0.99564402 27:0.99243341 28:0.99528071 29:0.96239478 30:0.57737641 31:0.501964 32:0.44495313 
-126.237786175 1:0.99196479 2:0.96709961 3:0.80980288 4:0.90318978 5:0.97242362 6:0.98653301 7:0.99276273 8:0.99554837 9:0.99754124 10:0.99864171 11:0.99894592 12:0.99939672 13:0.99956811 14:0.99873328 15:0.99954997 16:0.99888282 17:0.99441995 18:0.99101676 19:0.97656774 20:0.99132194 21:0.99756153 22:0.99910152 23:0.99614052 24:0.98268499 25:0.97983298 26:0.95983278 27:0.95081837 28:0.92538508 29:0.90840406 30:0.83226552 31:0.79284286 32:0.78705355 
-5.9293741164520393 1:0.94577835 2:0.86894346 3:0.56961259 4:0.57148462 5:0.59119983 6:0.5362486 7:0.55795287 8:0.64588456 9:0.83696769 10:0.93785123 11:0.95224619 12:0.97354028 13:0.98420658 14:0.95437777 15:0.98104671 16:0.96945371 17:0.90243549 18:0.90952488 19:0.8002362 20:0.80569277 21:0.92384937 22:0.7277172 23:0.5883246 24:0.66008839 25:0.73311414 26:0.79215454 27:0.86385702 28:0.82834008 29:0.79412149 30:0.45399866 31:0.25605443 32:0.29419432 
-126.237786175 1:0.98836839 2:0.89593881 3:0.60007362 4:0.71929459 5:0.83837403 6:0.88431169 7:0.93122556 8:0.94998293 9:0.97127248 10:0.98404234 11:0.98866478 12:0.99474356 13:0.99565318 14:0.99271998 15:0.99720001 16:0.99488232 17:0.96991327 18:0.93725107 19:0.86168758 20:0.95371771 21:0.98897813 22:0.99655025 23:0.98507084 24:0.94942013 25:0.95319079 26:0.88628322 27:0.79214131 28:0.75985021 29:0.81638533 30:0.52076252 31:0.61296882 32:0.5138124 
-126.237786175 1:0.99474169 2:0.94915509 3:0.757339 4:0.84690949 5:0.92760064 6:0.94633466 7:0.96687661 8:0.97948382 9:0.9866182 10:0.993989 11:0.99485994 12:0.99770709 13:0.99821702 14:0.99621817 15:0.99890271 16:0.99675162 17:0.97733052 18:0.94110302 19:0.88569425 20:0.96204625 21:0.99222697 22:0.99735116 23:0.98948175 24:0.96846509 25:0.98757829 26:0.95697551 27:0.83884367 28:0.82286169 29:0.70453875 30:0.50955928 31:0.74264267 32:0.90232917 
-1.8128911095845268 1:0.96206609 2:0.84393847 3:0.58550521 4:0.71398701 5:0.86884702 6:0.9313527 7:0.95918288 8:0.97760518 9:0.98674064 10:0.98984897 11:0.98855987 12:0.99603248 13:0.99851765 14:0.99906867 15:0.99895608 16:0.99769147 17:0.99283665 18:0.99045491 19:0.59617877 20:-0.43639458 21:-0.21545875 22:0.014317814 23:0.0435687 24:0.049819494 25:0.050875208 26:0.055220451 27:0.055632938 28:0.067903057 29:0.078440484 30:0.12518532 31:0.23037185 32:0.2654429 
-2.6562101214091518 1:0.97336475 2:0.89070352 3:0.66464819 4:0.78719771 5:0.91582385 6:0.96400279 7:0.9803952 8:0.99090446 9:0.99401423 10:0.994843 11:0.99690529 12:0.99906489 13:0.99956544 14:0.999716 15:0.99966978 16:0.99934017 17:0.998173 18:0.99683084 19:0.99588874 20:0.99648184 21:0.99848808 22:0.99891833 23:0.99699148 24:-0.43963366 25:-0.27559455 26:0.025251659 27:0.060461065 28:0.069019701 29:0.080120941 30:0.12604521 31:0.22326912 32:0.25906123 
-126.237786175 1:0.99181428 2:0.99747687 3:0.99906186 4:0.99853143 5:0.99961595 6:0.99910618 7:0.99912564 8:0.99956245 9:0.99964597 10:0.99834039 11:0.99756671 12:0.99530726 13:0.99796646 14:0.99786535 15:0.99975623 16:0.99974337 17:0.99945289 18:0.99948872 19:0.96266858 20:0.86512946 21:0.83259961 22:0.86344925 23:0.89249265 24:0.87016813 25:0.8555832 26:0.88765677 27:0.91928281 28:0.92113346 29:0.91774799 30:0.91395169 31:0.95940443 32:0.9945694 
-58.968249981392624 1:0.9918133 2:0.99747616 3:0.99906194 4:0.99852107 5:0.99961429 6:0.9991086 7:0.99912137 8:0.99955324 9:0.99963459 10:0.99833183 11:0.99738584 12:0.99498249 13:0.99801092 14:0.99785774 15:0.99974338 16:0.99971341 17:0.99937065 18:0.99949685 19:0.99875191 20:0.99591334 21:0.99507371 22:0.99528289 23:0.99675701 24:0.87124661 25:0.85611547 26:0.90014931 27:0.91989415 28:0.92118001 29:0.9176843 30:0.91350444 31:0.95909785 32:0.99456284 
-27.101963834141156 1:0.89268426 2:0.81152365 3:0.55107635 4:0.51019312 5:0.49644095 6:0.5476457 7:0.86383105 8:0.94498891 9:0.9487293 10:0.97334158 11:0.99843494 12:0.99976941 13:0.99753481 14:0.98104313 15:0.99771549 16:0.99850629 17:0.99936438 18:0.99742319 19:0.99824955 20:0.99892694 21:0.99968983 22:0.99768972 23:0.99455838 24:0.99298518 25:0.983895 26:0.97214889 27:0.982464 28:0.96813395 29:0.95552601 30:0.93013521 31:0.938315 32:0.95361369 
17.368590731988835 1:0.98868364 2:0.97485922 3:0.91678484 4:0.88098311 5:0.86545301 6:0.8522775 7:0.90409575 8:0.92862584 9:0.93174512 10:0.95399901 11:0.99233804 12:0.9980707 13:0.99801719 14:0.9562696 15:0.93459108 16:0.96081932 17:0.99391289 18:0.98275245 19:0.98567234 20:0.99304092 21:0.9938935 22:0.809847 23:0.40858931 24:0.28887856 25:0.55087034 26:0.68791883 27:0.64342266 28:0.65356773 29:0.84665267 30:0.75802445 31:0.7031092 32:0.75531011 
126.237786175 1:0.99748157 2:0.99012055 3:0.96326698 4:0.95259476 5:0.95038539 6:0.94214592 7:0.96761425 8:0.98526994 9:0.98080885 10:0.99361024 11:0.99737996 12:0.99955286 13:0.99905239 14:0.99084269 15:0.98658806 16:0.98885073 17:0.99919626 18:0.99772583 19:0.9982813 20:0.99920421 21:0.99982605 22:0.99918799 23:0.9982484 24:0.99723455 25:0.97779657 26:0.95625288 27:0.91728507 28:0.8857166 29:0.86522417 30:0.69754132 31:0.85338989 32:0.93481364 
-126.237786175 1:0.99052529 2:0.97026017 3:0.85848532 4:0.84697574 5:0.86117992 6:0.8627564 7:0.94818881 8:0.97219143 9:0.96731327 10:0.98263387 11:0.99636148 12:0.99823256 13:0.99865177 14:0.99226199 15:0.99220121 16:0.98688558 17:0.99742004 18:0.99140724 19:0.99325785 20:0.99732612 21:0.99862799 22:0.99669931 23:0.9978515 24:0.99550842 25:0.98432556 26:0.98345853 27:0.98477889 28:0.97635091 29:0.9700791 30:0.73356586 31:0.7701838 32:0.86925204 
46.978406663439237 1:0.98608193 2:0.96976549 3:0.92749599 4:0.87379138 5:0.8147873 6:0.75567346 7:0.85419254 8:0.90257227 9:0.9203203 10:0.93902797 11:0.99079327 12:0.99905845 13:0.99743459 14:0.98764147 15:0.99500763 16:0.99846822 17:0.99887744 18:0.99755677 19:0.99811732 20:0.99854725 21:0.99808359 22:0.99782001 23:0.98968554 24:0.64716036 25:0.50715478 26:0.53524565 27:0.55205251 28:0.60092493 29:0.65470657 30:0.7136902 31:0.73437529 32:0.73085011 
126.237786175 1:0.9996691 2:0.99976394 3:0.99979279 4:0.99986467 5:0.99985944 6:0.9998641 7:0.99986672 8:0.99979232 9:0.99942109 10:0.99959364 11:0.99938917 12:0.99908802 13:0.99838657 14:0.99666468 15:0.9958758 16:0.99538568 17:0.99523397 18:0.99508006 19:0.99604119 20:0.99125939 21:0.98969121 22:0.99436657 23:0.99351579 24:0.99202536 25:0.99033497 26:0.98773096 27:0.98773482 28:0.9929234 29:0.98076121 30:0.91463872 31:0.70215977 32:0.74941633 
62.495519283944468 1:0.97603127 2:0.98417559 3:0.99050564 4:0.99485952 5:0.99237425 6:0.99054575 7:0.99028029 8:0.98886377 9:0.98388219 10:0.98107913 11:0.98119399 12:0.97964168 13:0.96339233 14:0.95890351 15:0.96022988 16:0.94776348 17:0.93178623 18:0.94567128 19:0.95798842 20:0.93111819 21:0.9022466 22:0.86307748 23:0.79794363 24:0.73698305 25:0.77079917 26:0.8216626 27:0.68845612 28:0.79766808 29:0.79113215 30:0.6034712 31:0.55409278 32:0.67419307 
10.099000353234985 1:0.99166931 2:0.99651007 3:0.99978392 4:0.99992946 5:0.99990238 6:0.99991472 7:0.99991867 8:0.99988994 9:0.99978645 10:0.99975318 11:0.99980641 12:0.99967929 13:0.99962461 14:0.99984982 15:0.99979391 16:0.99976197 17:0.9997841 18:0.99888674 19:0.60928564 20:0.33473646 21:0.25347398 22:0.17176512 23:0.18891029 24:0.2287463 25:0.28690737 26:0.30689275 27:0.28726987 28:0.31404366 29:0.38851104 30:0.4718361 31:0.53717811 32:0.67009809 
126.237786175 1:0.99168729 2:0.99651812 3:0.99978642 4:0.9999304 5:0.99991494 6:0.99991898 7:0.99992126 8:0.99989762 9:0.99981773 10:0.99976829 11:0.99981087 12:0.9996817 13:0.99962664 14:0.99986065 15:0.9998101 16:0.99978612 17:0.99982217 18:0.99968865 19:0.9998218 20:0.99981957 21:0.99975727 22:0.99970886 23:0.99822863 24:0.83136365 25:0.61516004 26:0.36358689 27:0.29066109 28:0.32055105 29:0.39508527 30:0.47752625 31:0.5421098 32:0.67857561 
50.410117329220746 1:0.96326189 2:0.96574116 3:0.93393486 4:0.96028329 5:0.98588596 6:0.98989071 7:0.98349851 8:0.98996984 9:0.99070559 10:0.98861133 11:0.98511962 12:0.95940067 13:0.97802424 14:0.95709701 15:0.94806934 16:0.89241278 17:0.89261635 18:0.91249251 19:0.92688146 20:0.90834528 21:0.85098999 22:0.66931469 23:0.73077799 24:0.654362 25:0.59476051 26:0.67627491 27:0.63739189 28:0.37003812 29:0.52284444 30:0.41823102 31:0.34826008 32:0.42129062 
126.237786175 1:0.99309694 2:0.99383252 3:0.98442855 4:0.99060734 5:0.99714349 6:0.99774803 7:0.99562637 8:0.99779927 9:0.99839181 10:0.99841496 11:0.99829357 12:0.99366714 13:0.99616303 14:0.99263362 15:0.9901321 16:0.97828992 17:0.97569078 18:0.98091441 19:0.98526284 20:0.98995106 21:0.9865807 22:0.98208617 23:0.98703611 24:0.98494701 25:0.93801719 26:0.87152371 27:0.8287859 28:0.78603432 29:0.82712044 30:0.80164248 31:0.84170431 32:0.81755166 
-126.237786175 1:0.96463246 2:0.98249489 3:0.9545761 4:0.97022346 5:0.9877646 6:0.99099623 7:0.97892572 8:0.98756642 9:0.99487116 10:0.99636445 11:0.99440348 12:0.98190458 13:0.99384065 14:0.98681542 15:0.9852362 16:0.96143156 17:0.96245255 18:0.97579203 19:0.97162918 20:0.98365101 21:0.97321691 22:0.97635168 23:0.98811048 24:0.98739978 25:0.97859985 26:0.97799501 27:0.97666673 28:0.9695303 29:0.86494145 30:0.79986139 31:0.61934845 32:0.62057954 
79.536693900862133 1:0.97948372 2:0.99292706 3:0.99233642 4:0.99166922 5:0.99251881 6:0.9954137 7:0.99529771 8:0.99777978 9:0.99886619 10:0.99966891 11:0.99795103 12:0.9921778 13:0.9964257 14:0.99723099 15:0.99342816 16:0.98466745 17:0.981506 18:0.98319789 19:0.97503448 20:0.96551789 21:0.96618917 22:0.97100819 23:0.96761373 24:0.47025639 25:0.28394595 26:0.22416758 27:0.1879533 28:0.21437311 29:0.24069068 30:0.27139727 31:0.3357061 32:0.44075004 
126.237786175 1:0.99718179 2:0.99924895 3:0.99870348 4:0.9990713 5:0.99919651 6:0.99943919 7:0.99966178 8:0.99924413 9:0.99851083 10:0.9989479 11:0.99887491 12:0.9983526 13:0.99650612 14:0.99731571 15:0.99813423 16:0.99848499 17:0.9961143 18:0.99743171 19:0.99858869 20:0.9970433 21:0.99313781 22:0.98528676 23:0.9780715 24:0.98206599 25:0.97739769 26:0.97480525 27:0.96964892 28:0.96846881 29:0.96413336 30:0.95813276 31:0.95903524 32:0.9659998 
-13.394861604699621 1:0.9418464 2:0.97015987 3:0.95465906 4:0.97399462 5:0.98263043 6:0.97862588 7:0.98271262 8:0.97144466 9:0.9308375 10:0.92399267 11:0.92382877 12:0.94077586 13:0.89997129 14:0.90474187 15:0.94653464 16:0.94844514 17:0.88258841 18:0.9193939 19:0.97082089 20:0.93879555 21:0.78460293 22:0.73713074 23:0.84219629 24:0.80856467 25:0.78536741 26:0.82282385 27:0.80345115 28:0.79149025 29:0.78259601 30:0.78258059 31:0.79454532 32:0.80374929 
126.237786175 1:0.99103044 2:0.9948979 3:0.98905456 4:0.99651939 5:0.99710046 6:0.99818081 7:0.99889813 8:0.99834279 9:0.99473695 10:0.99652099 11:0.99606063 12:0.99310209 13:0.98525781 14:0.98831879 15:0.98964157 16:0.98930454 17:0.97347396 18:0.98129368 19:0.98424173 20:0.96897433 21:0.94225459 22:0.95553567 23:0.96426218 24:0.96178296 25:0.94440397 26:0.93871188 27:0.93507698 28:0.93953029 29:0.94252804 30:0.93450895 31:0.93726147 32:0.94506152 
126.237786175 1:0.99673393 2:0.99816475 3:0.99586008 4:0.99834087 5:0.99887703 6:0.99928129 7:0.99952212 8:0.99907756 9:0.99711392 10:0.9979987 11:0.99796817 12:0.99631881 13:0.99058862 14:0.99458906 15:0.99536251 16:0.99684256 17:0.98672578 18:0.99138604 19:0.99357939 20:0.98320071 21:0.96663854 22:0.96805601 23:0.96674095 24:0.96382462 25:0.9635535 26:0.9646325 27:0.96700452 28:0.96185471 29:0.96353287 30:0.96488901 31:0.96849634 32:0.96834072 
126.237786175 1:0.99200401 2:0.99690818 3:0.9932906 4:0.99620608 5:0.99753521 6:0.99881098 7:0.99918155 8:0.99864225 9:0.99642423 10:0.99687479 11:0.99543074 12:0.99260141 13:0.98489714 14:0.9857631 15:0.98756061 16:0.99277951 17:0.97772795 18:0.98876168 19:0.99448781 20:0.98879719 21:0.98052652 22:0.98254052 23:0.9742703 24:0.97154662 25:0.96854643 26:0.96743772 27:0.95892637 28:0.95050031 29:0.94441933 30:0.93748294 31:0.9421196 32:0.95497714 
-126.237786175 1:0.99662744 2:0.99882101 3:0.99997848 4:0.99999604 5:0.9999989 6:0.99999946 7:0.9999998 8:0.99999963 9:0.99999906 10:0.9999989 11:0.99999902 12:0.99999908 13:0.99999868 14:0.99999874 15:0.99999933 16:0.99999889 17:0.99999481 18:0.99998957 19:0.99995605 20:0.99979444 21:0.99917155 22:0.99849014 23:0.99571321 24:0.97182515 25:0.92057997 26:0.90709741 27:0.94152899 28:0.96907239 29:0.981781 30:0.98391876 31:0.98934912 32:0.98793358 
126.237786175 1:0.99952065 2:0.99934627 3:0.99929533 4:0.999487 5:0.99963712 6:0.99988349 7:0.99998262 8:0.99998745 9:0.99998861 10:0.99997922 11:0.99997901 12:0.99998227 13:0.99997064 14:0.99994041 15:0.99985625 16:0.99993638 17:0.99988201 18:0.9998106 19:0.99978236 20:0.99986642 21:0.99990347 22:0.99981949 23:0.99974081 24:0.99948404 25:0.99922109 26:0.99926261 27:0.99862052 28:0.99823898 29:0.99832291 30:0.96719745 31:0.9468629 32:0.86770528 
126.237786175 1:0.97979627 2:0.97488389 3:0.97322251 4:0.98688867 5:0.99044692 6:0.9943936 7:0.99915452 8:0.99953809 9:0.99962978 10:0.99832167 11:0.99798464 12:0.99928476 13:0.99890579 14:0.99756871 15:0.99364764 16:0.99639477 17:0.9942085 18:0.99470881 19:0.99282053 20:0.99455857 21:0.99631564 22:0.99111656 23:0.98433606 24:0.97726811 25:0.86171027 26:0.73355649 27:0.75261978 28:0.8774356 29:0.89382467 30:0.68395712 31:0.50153403 32:0.61789868 
-2.6544748890808632 1:0.97930693 2:0.98619453 3:0.99348951 4:0.99662679 5:0.99746212 6:0.99940678 7:0.99996024 8:0.99999373 9:0.99999824 10:0.99999382 11:0.99999425 12:0.99999872 13:0.99999862 14:0.9999958 15:0.99998679 16:0.9999956 17:0.99999664 18:0.99896551 19:0.79103672 20:0.76055505 21:0.69815647 22:0.42533688 23:0.19891731 24:0.20788424 25:0.24036869 26:0.2914852 27:0.35065969 28:0.35791727 29:0.43779274 30:0.51165301 31:0.46909155 32:0.56799974 
36.608240798751382 1:0.97970822 2:0.98657561 3:0.99393902 4:0.99660262 5:0.99744718 6:0.99948426 7:0.99996831 8:0.9999948 9:0.99999887 10:0.99999637 11:0.99999747 12:0.99999953 13:0.99999964 14:0.99999899 15:0.99999761 16:0.9999995 17:0.99999943 18:0.99999896 19:0.99999923 20:0.99999949 21:0.9999981 22:0.99998449 23:0.99798529 24:0.77758346 25:0.69395949 26:0.48214022 27:0.37070251 28:0.36439571 29:0.44346401 30:0.51972057 31:0.47437702 32:0.57996716 
126.237786175 1:0.99534425 2:0.99407437 3:0.99367427 4:0.99890026 5:0.99987666 6:0.99997912 7:0.99995408 8:0.99993606 9:0.99989808 10:0.99964213 11:0.99983032 12:0.99978044 13:0.99969304 14:0.99933437 15:0.99898037 16:0.99797813 17:0.99838386 18:0.99762861 19:0.99222401 20:0.9987429 21:0.99874451 22:0.99625366 23:0.99165787 24:0.97907799 25:0.96903414 26:0.96216187 27:0.94877933 28:0.92231637 29:0.88313757 30:0.90804674 31:0.94948147 32:0.98542818 
-126.237786175 1:0.99420404 2:0.98904289 3:0.97595317 4:0.99083555 5:0.99867916 6:0.9997969 7:0.99956207 8:0.99959407 9:0.99942175 10:0.9987517 11:0.99952846 12:0.99940476 13:0.99919203 14:0.99797745 15:0.99823373 16:0.9959239 17:0.99692417 18:0.99318672 19:0.98466769 20:0.99749196 21:0.99830662 22:0.99576665 23:0.98912243 24:0.98556455 25:0.98539073 26:0.97776591 27:0.98112763 28:0.97269214 29:0.9155549 30:0.84887704 31:0.89479036 32:0.95587121 
126.237786175 1:0.99776238 2:0.99912126 3:0.99907344 4:0.99835009 5:0.99694509 6:0.99751589 7:0.99799726 8:0.99847248 9:0.99825126 10:0.99761599 11:0.99823132 12:0.99800024 13:0.99657851 14:0.99775352 15:0.99732963 16:0.99553026 17:0.99426616 18:0.99482123 19:0.99224937 20:0.99291082 21:0.99249885 22:0.98645207 23:0.98184801 24:0.9824463 25:0.98272409 26:0.98300216 27:0.98206611 28:0.98486947 29:0.93628392 30:0.84348481 31:0.81607225 32:0.84925554 
126.237786175 1:0.98066173 2:0.99129874 3:0.99068527 4:0.98699754 5:0.97781571 6:0.9788802 7:0.9850008 8:0.98590489 9:0.98081183 10:0.9820814 11:0.98568992 12:0.98030044 13:0.97474382 14:0.98610315 15:0.98334155 16:0.97971635 17:0.98101094 18:0.98321357 19:0.97551575 20:0.97498475 21:0.97310928 22:0.97620114 23:0.96975669 24:0.97578607 25:0.98022883 26:0.97753643 27:0.9692425 28:0.96570015 29:0.84745211 30:0.6439497 31:0.34502349 32:0.42602422 
126.237786175 1:0.99985878 2:0.9999511 3:0.99999789 4:0.9999986 5:0.99999883 6:0.99999883 7:0.99999885 8:0.99999823 9:0.99999858 10:0.9999985 11:0.99999803 12:0.99999684 13:0.99999593 14:0.99999677 15:0.99999613 16:0.99999476 17:0.99998911 18:0.99998855 19:0.99998881 20:0.9999859 21:0.99998588 22:0.99997969 23:0.9967672 24:0.74907481 25:0.65267603 26:0.33109291 27:0.19252485 28:0.19169917 29:0.22935885 30:0.28236421 31:0.27278044 32:0.41510913 
126.237786175 1:0.9908789 2:0.99647567 3:0.99671144 4:0.9953164 5:0.99435202 6:0.9958329 7:0.99762494 8:0.99783334 9:0.997727 10:0.99732217 11:0.99827694 12:0.99729645 13:0.99721568 14:0.99740839 15:0.99820645 16:0.99812203 17:0.99856058 18:0.99814102 19:0.99833211 20:0.9983774 21:0.99607307 22:0.99694969 23:0.9965808 24:0.99638264 25:0.99636745 26:0.99612284 27:0.99789254 28:0.99767506 29:0.99196515 30:0.95746227 31:0.94827983 32:0.9735288 
-5.7440170752455977 1:0.94322402 2:0.97536032 3:0.97478403 4:0.98752126 5:0.99375972 6:0.99256572 7:0.98769054 8:0.99027264 9:0.98418708 10:0.97695864 11:0.96276994 12:0.95962136 13:0.95469832 14:0.94899285 15:0.98472121 16:0.98857223 17:0.98198456 18:0.98426533 19:0.98525251 20:0.98145707 21:0.94908711 22:0.73665072 23:0.73202208 24:0.75675385 25:0.86676108 26:0.86712268 27:0.59678192 28:0.62057367 29:0.66721661 30:0.44195343 31:0.1689293 32:0.18490844 
0.97566478609086438 1:0.92185872 2:0.97824418 3:0.9925143 4:0.99648686 5:0.99841933 6:0.99904728 7:0.99883247 8:0.99856837 9:0.99916058 10:0.99860136 11:0.99807144 12:0.99722833 13:0.99729868 14:0.99667655 15:0.99919713 16:0.99955215 17:0.99962631 18:0.99935084 19:0.82354309 20:0.23215625 21:-0.15188844 22:0.0074956132 23:0.045140784 24:0.061008406 25:0.012365647 26:-0.0088838531 27:0.02303644 28:0.027068365 29:0.044425294 30:0.063746346 31:0.040076793 32:0.12984069 
126.237786175 1:0.92424679 2:0.97958891 3:0.99395467 4:0.99746572 5:0.99926068 6:0.99972474 7:0.99968691 8:0.99960547 9:0.99972866 10:0.99969664 11:0.99966156 12:0.99952407 13:0.99941353 14:0.99831729 15:0.99966793 16:0.99975966 17:0.99983586 18:0.9998254 19:0.99974067 20:0.99985183 21:0.9999586 22:0.9999696 23:0.99457863 24:0.64244379 25:0.066105408 26:0.00067550358 27:0.098116256 28:0.061563946 29:0.059923558 30:0.07033805 31:0.046402103 32:0.14217189 
18.93790581447891 1:0.9980315 2:0.99904666 3:0.99930127 4:0.99933801 5:0.99970699 6:0.9997115 7:0.99982444 8:0.99986695 9:0.99935466 10:0.99912657 11:0.99879253 12:0.99882108 13:0.99881237 14:0.99675812 15:0.99627077 16:0.99637118 17:0.99656601 18:0.9940146 19:0.99259252 20:0.99070124 21:0.98815927 22:0.99098851 23:0.99190017 24:0.99181642 25:0.9888844 26:0.98176681 27:0.99006638 28:0.98931334 29:0.98166402 30:0.7978124 31:0.55863187 32:0.58659487 
-28.981078333603225 1:0.86128208 2:0.90215424 3:0.94285546 4:0.95099303 5:0.9753481 6:0.98875866 7:0.99346284 8:0.99008185 9:0.95839213 10:0.97470779 11:0.97620197 12:0.96996037 13:0.96895121 14:0.95567408 15:0.97031813 16:0.98089943 17:0.9788134 18:0.97327692 19:0.97885791 20:0.97373003 21:0.95409379 22:0.96130596 23:0.9608541 24:0.86541066 25:0.72991964 26:0.56751766 27:0.30084659 28:0.22999682 29:0.25207247 30:0.34222397 31:0.34846186 32:0.43796742 
126.237786175 1:0.99007912 2:0.99385423 3:0.99650275 4:0.99546672 5:0.99851163 6:0.99946537 7:0.99964678 8:0.99945639 9:0.99705983 10:0.99789136 11:0.99751317 12:0.9977135 13:0.99700508 14:0.9901064 15:0.99352843 16:0.99564388 17:0.99637448 18:0.994413 19:0.99277678 20:0.98951013 21:0.98726488 22:0.99261967 23:0.98327162 24:0.97303005 25:0.97694148 26:0.96591494 27:0.98840526 28:0.9837759 29:0.98146573 30:0.74354199 31:0.63655999 32:0.68083149 
126.237786175 1:0.98950014 2:0.99534779 3:0.9969974 4:0.99211919 5:0.99605428 6:0.99779951 7:0.99911685 8:0.99909689 9:0.9948984 10:0.99643135 11:0.99671056 12:0.99736808 13:0.99795432 14:0.99613015 15:0.99726792 16:0.99756779 17:0.99787599 18:0.99588771 19:0.99604338 20:0.99522254 21:0.99430993 22:0.99631224 23:0.99465337 24:0.99282107 25:0.9930042 26:0.98825984 27:0.9924658 28:0.9827498 29:0.96219533 30:0.92417216 31:0.75747305 32:0.8029197 
-126.237786175 1:0.9965434 2:0.99794661 3:0.99792292 4:0.99943565 5:0.99961391 6:0.99936759 7:0.99927402 8:0.99916261 9:0.99928915 10:0.99858093 11:0.9983422 12:0.99791514 13:0.99598919 14:0.99560438 15:0.9960884 16:0.9931713 17:0.98939622 18:0.9940418 19:0.99294267 20:0.98695018 21:0.99524609 22:0.99349751 23:0.98681696 24:0.98401087 25:0.98113669 26:0.98259454 27:0.98199435 28:0.94962905 29:0.9270138 30:0.81731351 31:0.66332565 32:0.68659884 
50.964199878853634 1:0.83505275 2:0.89336414 3:0.93690829 4:0.98336134 5:0.98532957 6:0.98104309 7:0.98470659 8:0.98599567 9:0.98803033 10:0.97911448 11:0.97938347 12:0.97291523 13:0.97008099 14:0.9777019 15:0.98751592 16:0.97894775 17:0.97959211 18:0.98826583 19:0.98518278 20:0.97259971 21:0.99070781 22:0.98121631 23:0.95798795 24:0.75238639 25:0.41550984 26:0.35049245 27:0.21941061 28:0.15669079 29:0.19218752 30:0.27444362 31:0.38823759 32:0.55013094 
-8.8467877063422407 1:0.9397562 2:0.97552324 3:0.9922426 4:0.99857003 5:0.99933823 6:0.99895135 7:0.99830447 8:0.9982215 9:0.99848951 10:0.99752068 11:0.99740901 12:0.99559064 13:0.99131314 14:0.99028252 15:0.99351922 16:0.9911995 17:0.98912267 18:0.99400314 19:0.99329843 20:0.98741313 21:0.99662071 22:0.99531657 23:0.98118446 24:0.97559383 25:0.9735697 26:0.97864542 27:0.97719649 28:0.97153901 29:0.9684528 30:0.8895399 31:0.83590105 32:0.75963284 
79.583052328280885 1:0.96181554 2:0.97551826 3:0.98651134 4:0.99633854 5:0.99691114 6:0.99499522 7:0.99473708 8:0.99626995 9:0.99672439 10:0.99474281 11:0.99483494 12:0.99266306 13:0.99115585 14:0.99324516 15:0.99598454 16:0.99496031 17:0.99390258 18:0.9964933 19:0.99565818 20:0.99256276 21:0.99744102 22:0.99603775 23:0.98935382 24:0.98705653 25:0.98383496 26:0.93987866 27:0.71232722 28:0.44762367 29:0.29503233 30:0.31215322 31:0.42665574 32:0.61550698 
-1.9104565215630676 1:0.79989076 2:0.88510802 3:0.95935102 4:0.98890561 5:0.99355421 6:0.98521295 7:0.97155929 8:0.97964276 9:0.97966183 10:0.97336975 11:0.96804096 12:0.97011168 13:0.97002887 14:0.97695899 15:0.97937608 16:0.97367186 17:0.96808551 18:0.96860065 19:0.97381962 20:0.96598591 21:0.96372563 22:0.9579843 23:0.96182231 24:0.83553097 25:0.050835596 26:-0.098271136 27:0.15721989 28:0.15226734 29:0.16659755 30:0.18075624 31:0.14343721 32:0.23010151 
-126.237786175 1:0.9709568 2:0.99202022 3:0.99840486 4:0.99965461 5:0.99980314 6:0.9994231 7:0.99915189 8:0.99944283 9:0.99940484 10:0.99881796 11:0.99760938 12:0.99636298 13:0.99535594 14:0.99470008 15:0.9933193 16:0.99145779 17:0.99072437 18:0.99041651 19:0.99006364 20:0.98728578 21:0.98300471 22:0.97980455 23:0.97002372 24:0.95888753 25:0.96554363 26:0.97298805 27:0.97689398 28:0.98008424 29:0.97795839 30:0.83433831 31:0.84527714 32:0.82596865 
-126.237786175 1:0.99318663 2:0.99547473 3:0.99783778 4:0.99937726 5:0.99966073 6:0.99928579 7:0.998658 8:0.99875482 9:0.99844878 10:0.99758565 11:0.99599551 12:0.99446491 13:0.99448896 14:0.9942747 15:0.99547333 16:0.99330367 17:0.99035589 18:0.99158552 19:0.98939678 20:0.98823646 21:0.98535854 22:0.9814043 23:0.96578801 24:0.95098394 25:0.97450469 26:0.97877524 27:0.9825645 28:0.9840129 29:0.87682995 30:0.81186024 31:0.57831411 32:0.53037773 
103.18788946825914 1:0.64081081 2:0.72968968 3:0.82005524 4:0.94826899 5:0.98181547 6:0.99157278 7:0.99240841 8:0.98941892 9:0.96144941 10:0.93063841 11:0.92078156 12:0.93948368 13:0.9538666 14:0.96671352 15:0.96065039 16:0.96575368 17:0.97020834 18:0.97900934 19:0.98658031 20:0.98679045 21:0.97550039 22:0.96152148 23:0.96960859 24:0.85537479 25:0.53746995 26:0.38032125 27:0.32513642 28:0.26344933 29:0.26188836 30:0.26539625 31:0.28194326 32:0.39096968 
-2.6879061504764596 1:0.96872172 2:0.98338689 3:0.97130278 4:0.97216327 5:0.97881855 6:0.97449145 7:0.93953681 8:0.94267604 9:0.94138213 10:0.92426882 11:0.93855675 12:0.95682102 13:0.96648456 14:0.97253623 15:0.95940803 16:0.95111403 17:0.96741561 18:0.97116589 19:0.94676159 20:0.95289136 21:0.94700734 22:0.94047272 23:0.94550917 24:0.85429665 25:0.61482507 26:0.46625439 27:0.26004952 28:0.14765317 29:0.11285389 30:0.083173566 31:0.059218533 32:0.12673597 
-5.4029195162205381 1:0.99130702 2:0.99597898 3:0.99262355 4:0.99405851 5:0.99513495 6:0.99366485 7:0.98546022 8:0.98461418 9:0.98655287 10:0.98119028 11:0.98069 12:0.98416199 13:0.98641171 14:0.9890235 15:0.98596926 16:0.9825213 17:0.99003375 18:0.99070081 19:0.98162647 20:0.98375424 21:0.98293148 22:0.98118164 23:0.97775356 24:0.98130524 25:0.97871292 26:0.90539064 27:0.65181647 28:0.4686744 29:0.25386089 30:0.11177942 31:0.075909021 32:0.16072376 
-3.1720571619240068 1:0.9946351 2:0.99773218 3:0.99487013 4:0.9962113 5:0.9978172 6:0.99720541 7:0.99176063 8:0.99551847 9:0.99415155 10:0.99290992 11:0.99431345 12:0.99331432 13:0.99237705 14:0.99444491 15:0.99379626 16:0.99334368 17:0.99523276 18:0.99560018 19:0.99272757 20:0.99362934 21:0.99323644 22:0.9923552 23:0.99387751 24:0.99432151 25:0.99416237 26:0.99478364 27:0.99099651 28:0.98161184 29:0.87484443 30:0.73904836 31:0.87342245 32:0.95745573 
-126.237786175 1:0.99954349 2:0.9996983 3:0.99973396 4:0.9993598 5:0.99959565 6:0.99976817 7:0.99948333 8:0.99953025 9:0.9998388 10:0.99984522 11:0.99989998 12:0.99940513 13:0.99775314 14:0.99850474 15:0.99803273 16:0.99794629 17:0.99867678 18:0.99453996 19:0.99454416 20:0.99782694 21:0.99819813 22:0.9965305 23:0.99446963 24:0.9965332 25:0.99702523 26:0.99623517 27:0.99550125 28:0.98323098 29:0.98705172 30:0.97739116 31:0.99089297 32:0.9970833 
-126.237786175 1:0.9553733 2:0.97934187 3:0.99216454 4:0.98580197 5:0.98206376 6:0.98510293 7:0.98492875 8:0.98850131 9:0.9955165 10:0.99561206 11:0.99776385 12:0.99014174 13:0.9769811 14:0.99125591 15:0.99502707 16:0.98550649 17:0.99189594 18:0.96879522 19:0.9677744 20:0.9844059 21:0.97628081 22:0.95618828 23:0.93588849 24:0.94129255 25:0.89494989 26:0.84411605 27:0.82757279 28:0.84535509 29:0.84107675 30:0.83127784 31:0.86192385 32:0.89740166 
-126.237786175 1:0.99270196 2:0.99502746 3:0.99672269 4:0.99622762 5:0.99859237 6:0.99810116 7:0.99637944 8:0.99831068 9:0.99932428 10:0.99964959 11:0.99977909 12:0.99843361 13:0.99580856 14:0.99699454 15:0.9978356 16:0.99269709 17:0.99686545 18:0.99294206 19:0.99344985 20:0.99732974 21:0.99624944 22:0.99261242 23:0.98762001 24:0.98892548 25:0.98785031 26:0.98521823 27:0.98263424 28:0.97909621 29:0.97991258 30:0.97769829 31:0.97750603 32:0.98416315 
-126.237786175 1:0.99244441 2:0.99709509 3:0.99861365 4:0.99700664 5:0.99849885 6:0.99883157 7:0.99702728 8:0.99748328 9:0.99867734 10:0.99877076 11:0.99956573 12:0.99818229 13:0.99621937 14:0.99782597 15:0.99882866 16:0.9974052 17:0.9986493 18:0.99411854 19:0.99309876 20:0.99763889 21:0.99687293 22:0.99363343 23:0.98832687 24:0.9900631 25:0.98796061 26:0.96650757 27:0.95646196 28:0.93964916 29:0.9167445 30:0.92193831 31:0.96041355 32:0.97808321 
-126.237786175 1:0.97656734 2:0.99479621 3:0.99422586 4:0.99066647 5:0.99023628 6:0.99092938 7:0.99589844 8:0.9958139 9:0.99345602 10:0.9944223 11:0.99063619 12:0.99099807 13:0.9888049 14:0.99093004 15:0.99037962 16:0.99002504 17:0.99052749 18:0.9931143 19:0.99187408 20:0.9907001 21:0.99190308 22:0.99069595 23:0.98668401 24:0.98980354 25:0.98519987 26:0.91726409 27:0.69866656 28:0.59088901 29:0.54712932 30:0.51388223 31:0.53203168 32:0.65674271 
126.237786175 1:0.99158906 2:0.99841946 3:0.9969438 4:0.9945562 5:0.99553491 6:0.99473475 7:0.99638445 8:0.99752747 9:0.99760826 10:0.99736379 11:0.99607317 12:0.99716568 13:0.99514558 14:0.99506849 15:0.99619874 16:0.99615981 17:0.99632156 18:0.99623294 19:0.99461368 20:0.993581 21:0.99533531 22:0.99394865 23:0.98942125 24:0.99116551 25:0.98908688 26:0.99141049 27:0.98648895 28:0.94724278 29:0.92388634 30:0.87258573 31:0.88035648 32:0.9103465 
-126.237786175 1:0.99915151 2:0.99981358 3:0.99931996 4:0.99945731 5:0.99939692 6:0.99916576 7:0.99946464 8:0.99977621 9:0.99953876 10:0.99876418 11:0.99852383 12:0.99888232 13:0.99788775 14:0.99478315 15:0.99375837 16:0.98971324 17:0.99420837 18:0.99387217 19:0.98839968 20:0.98965745 21:0.98906807 22:0.98572222 23:0.98240948 24:0.98495245 25:0.98050858 26:0.98207582 27:0.97178643 28:0.94993589 29:0.8391772 30:0.79540658 31:0.63158416 32:0.57140417 
-51.884650410110758 1:0.9825692 2:0.99123915 3:0.96970855 4:0.987558 5:0.98742154 6:0.96983455 7:0.97840883 8:0.9845444 9:0.97363437 10:0.95650721 11:0.95938988 12:0.95931962 13:0.94828266 14:0.95574768 15:0.9588511 16:0.94769845 17:0.96134367 18:0.96075298 19:0.95323449 20:0.94835754 21:0.93438905 22:0.91477975 23:0.93299571 24:0.64826433 25:0.22432577 26:0.25058133 27:0.1434326 28:0.1002615 29:0.12706369 30:0.1572592 31:0.18246975 32:0.33905684 
-126.237786175 1:0.99255989 2:0.99831109 3:0.99867352 4:0.99935355 5:0.99910469 6:0.99793579 7:0.99844873 8:0.9992841 9:0.99847699 10:0.99697558 11:0.99782153 12:0.99758485 13:0.99530928 14:0.99244323 15:0.99367699 16:0.99225678 17:0.99480209 18:0.99329437 19:0.99069193 20:0.99320659 21:0.99295482 22:0.99104541 23:0.98733706 24:0.98699114 25:0.98591992 26:0.98645679 27:0.98659909 28:0.98134277 29:0.9779877 30:0.81710914 31:0.8069266 32:0.69625773 
-126.237786175 1:0.99919427 2:0.99970605 3:0.99945858 4:0.99922691 5:0.99925232 6:0.99925395 7:0.99907557 8:0.9987138 9:0.99859917 10:0.99914247 11:0.99905717 12:0.99885582 13:0.99837903 14:0.99633789 15:0.98880254 16:0.98730052 17:0.98789061 18:0.98961399 19:0.98840791 20:0.98646711 21:0.99154576 22:0.99500912 23:0.98847057 24:0.98831938 25:0.98986663 26:0.98287277 27:0.98679578 28:0.9959472 29:0.98768304 30:0.94339781 31:0.81720035 32:0.74280308 
-126.237786175 1:0.974688 2:0.9824392 3:0.97086227 4:0.97581591 5:0.97052924 6:0.98196803 7:0.96766852 8:0.95366025 9:0.96185902 10:0.9844321 11:0.98640355 12:0.98964742 13:0.9919574 14:0.98917318 15:0.96793649 16:0.97530129 17:0.97934422 18:0.98199852 19:0.97915029 20:0.96999652 21:0.97644329 22:0.99005003 23:0.98210256 24:0.84143497 25:0.5986494 26:0.3770531 27:0.22087237 28:0.19370276 29:0.2190005 30:0.26848458 31:0.2915383 32:0.41319268 
-126.237786175 1:0.98981779 2:0.99613976 3:0.99863554 4:0.99911678 5:0.99868823 6:0.9980342 7:0.99721992 8:0.9974486 9:0.99748836 10:0.99827824 11:0.99807686 12:0.99826284 13:0.99726837 14:0.9934983 15:0.97916326 16:0.98044095 17:0.98678895 18:0.99002906 19:0.98946115 20:0.98316402 21:0.99014019 22:0.99509264 23:0.99014084 24:0.9901086 25:0.99057612 26:0.98198395 27:0.98660647 28:0.99340231 29:0.98604246 30:0.93228474 31:0.88212854 32:0.83278466 
-126.237786175 1:0.99063774 2:0.99421954 3:0.99167473 4:0.99398523 5:0.99282737 6:0.99245256 7:0.98968984 8:0.98469902 9:0.98375699 10:0.99288493 11:0.99526082 12:0.99571448 13:0.99658637 14:0.99528008 15:0.98796134 16:0.98912921 17:0.98978152 18:0.9921933 19:0.98898722 20:0.98519243 21:0.98916678 22:0.99652014 23:0.99312328 24:0.99141426 25:0.99067911 26:0.87760774 27:0.8034352 28:0.68672042 29:0.49768955 30:0.34293739 31:0.3445421 32:0.48502014 
-126.237786175 1:0.99313837 2:0.99780555 3:0.99808376 4:0.99764647 5:0.99610786 6:0.99523229 7:0.99338649 8:0.99470425 9:0.99412539 10:0.99709972 11:0.9974503 12:0.99792769 13:0.99851025 14:0.9967617 15:0.98745149 16:0.98841737 17:0.99109528 18:0.99346439 19:0.99222581 20:0.99074947 21:0.99494572 22:0.99710916 23:0.99364583 24:0.99576963 25:0.99504731 26:0.9919466 27:0.99055528 28:0.98042589 29:0.94210404 30:0.72301872 31:0.76159557 32:0.88830996 
-126.237786175 1:0.99858016 2:0.99963889 3:0.99947151 4:0.99928917 5:0.99930937 6:0.99925964 7:0.99884302 8:0.9983812 9:0.99470765 10:0.99475571 11:0.99776342 12:0.99636897 13:0.99876264 14:0.9981834 15:0.99739829 16:0.99755441 17:0.99728314 18:0.99797747 19:0.99788735 20:0.99747905 21:0.99744648 22:0.99641028 23:0.99235502 24:0.99601275 25:0.99414776 26:0.98095949 27:0.98890132 28:0.99143839 29:0.97108466 30:0.79341222 31:0.62273538 32:0.5958816 
-126.237786175 1:0.98585815 2:0.99682435 3:0.9965889 4:0.9940836 5:0.99809753 6:0.99746088 7:0.99830763 8:0.99622711 9:0.99234895 10:0.98969109 11:0.991256 12:0.99385409 13:0.99719267 14:0.9949628 15:0.99350682 16:0.99455908 17:0.99541693 18:0.99540692 19:0.99531321 20:0.99531719 21:0.99664354 22:0.9968632 23:0.99354788 24:0.99166886 25:0.99307449 26:0.98875499 27:0.9863454 28:0.98803869 29:0.98684306 30:0.79900165 31:0.73677418 32:0.6890082 
-126.237786175 1:0.99719832 2:0.99572693 3:0.99451376 4:0.99553397 5:0.99596979 6:0.99590069 7:0.99379547 8:0.98966534 9:0.98227044 10:0.97767282 11:0.96890157 12:0.97963952 13:0.98662906 14:0.99063895 15:0.98942103 16:0.99147633 17:0.99159277 18:0.9912978 19:0.9887965 20:0.98605375 21:0.98294225 22:0.95808462 23:0.97710657 24:0.95979135 25:0.92346584 26:0.93214221 27:0.93631988 28:0.92891118 29:0.74102381 30:0.46042731 31:0.37639748 32:0.38190899 
126.237786175 1:0.99277948 2:0.990885 3:0.98989771 4:0.98866348 5:0.986841 6:0.98218194 7:0.98114394 8:0.98112532 9:0.98384069 10:0.9812185 11:0.97508528 12:0.97403193 13:0.97513601 14:0.98059609 15:0.98298579 16:0.98317993 17:0.9771323 18:0.97767175 19:0.97798739 20:0.97828353 21:0.97727191 22:0.97748298 23:0.98320593 24:0.9838699 25:0.98015259 26:0.97038009 27:0.96178348 28:0.84130718 29:0.82752751 30:0.78548273 31:0.76377703 32:0.7716289 
-126.237786175 1:0.99952955 2:0.99989186 3:0.99773822 4:0.99963731 5:0.99976075 6:0.99955417 7:0.99963146 8:0.99970481 9:0.99936944 10:0.99866296 11:0.99923771 12:0.99940578 13:0.99860712 14:0.99705522 15:0.9956381 16:0.99640167 17:0.9984551 18:0.99556885 19:0.99051586 20:0.99132078 21:0.99601087 22:0.99694343 23:0.99094211 24:0.99555364 25:0.9968747 26:0.99224435 27:0.98892279 28:0.98311289 29:0.97087899 30:0.92149514 31:0.80350903 32:0.83436913 
-126.237786175 1:0.98098155 2:0.99475156 3:0.93184787 4:0.99017736 5:0.99149269 6:0.98440135 7:0.98527038 8:0.9845055 9:0.9767841 10:0.96961029 11:0.98804943 12:0.98911463 13:0.97882242 14:0.98231825 15:0.98293312 16:0.98432347 17:0.99247159 18:0.98874655 19:0.95913729 20:0.96095001 21:0.98018404 22:0.98065527 23:0.96229289 24:0.95338297 25:0.833407 26:0.46304422 27:0.3599048 28:0.3582694 29:0.41880241 30:0.52903522 31:0.63076246 32:0.72749951 
-126.237786175 1:0.99781303 2:0.99959804 3:0.9964367 4:0.99970578 5:0.99983582 6:0.99953906 7:0.99928112 8:0.99924845 9:0.99877093 10:0.99792622 11:0.99903991 12:0.99887819 13:0.99594559 14:0.99390433 15:0.99445278 16:0.99657645 17:0.99840966 18:0.99733712 19:0.99155433 20:0.99485677 21:0.99776748 22:0.99766038 23:0.99569137 24:0.9973188 25:0.99666885 26:0.99160346 27:0.98930448 28:0.99050254 29:0.9894965 30:0.9204887 31:0.81892495 32:0.85097237 
-126.237786175 1:0.97197772 2:0.95762176 3:0.86622775 4:0.84877017 5:0.86470493 6:0.88552381 7:0.88757259 8:0.89393218 9:0.90866665 10:0.94090321 11:0.95700407 12:0.96729019 13:0.97645842 14:0.99469812 15:0.99774577 16:0.99713977 17:0.99752662 18:0.99838352 19:0.99242059 20:0.98198099 21:0.97616115 22:0.98064426 23:0.96576107 24:0.88292244 25:0.8144691 26:0.74650317 27:0.71060672 28:0.70293831 29:0.68551931 30:0.68621655 31:0.69421849 32:0.750839 
-126.237786175 1:0.99502941 2:0.99160865 3:0.97424865 4:0.96754225 5:0.96880309 6:0.9723997 7:0.9726476 8:0.97654805 9:0.98050783 10:0.98462425 11:0.98964459 12:0.99207058 13:0.9941754 14:0.99839174 15:0.99972545 16:0.99974701 17:0.99950215 18:0.99962792 19:0.998764 20:0.9955878 21:0.99344771 22:0.99521242 23:0.99410725 24:0.9903536 25:0.98806295 26:0.94208826 27:0.88050276 28:0.82346314 29:0.75473526 30:0.74621402 31:0.76207468 32:0.82168602 
93.835998744705108 1:0.99292828 2:0.98400498 3:0.93619971 4:0.90641327 5:0.91271185 6:0.92476995 7:0.93082536 8:0.94395396 9:0.96295207 10:0.97636992 11:0.98414667 12:0.99010566 13:0.99483847 14:0.99885593 15:0.99978333 16:0.99939646 17:0.9992545 18:0.99944223 19:0.99858485 20:0.9955391 21:0.9921042 22:0.99263982 23:0.98404835 24:0.97006508 25:0.96506841 26:0.95803581 27:0.95276113 28:0.94946449 29:0.93665823 30:0.92513151 31:0.93490648 32:0.9352515 
-39.901763992232901 1:0.99717363 2:0.9993019 3:0.9995657 4:0.9995451 5:0.9989332 6:0.99949412 7:0.99963238 8:0.99963409 9:0.99949291 10:0.99822455 11:0.99847481 12:0.99815129 13:0.99457262 14:0.99758117 15:0.99838484 16:0.99701194 17:0.99582987 18:0.99269211 19:0.99446836 20:0.9926592 21:0.99551501 22:0.99560918 23:0.99434446 24:0.98985373 25:0.98334395 26:0.991602 27:0.99367771 28:0.98771407 29:0.97598892 30:0.92415519 31:0.88298683 32:0.90344294 
-126.237786175 1:0.75773687 2:0.9004485 3:0.96440471 4:0.9729253 5:0.9502672 6:0.97840757 7:0.98288966 8:0.98669167 9:0.98770978 10:0.97797952 11:0.97782657 12:0.9662622 13:0.93853906 14:0.98276522 15:0.98991075 16:0.98416902 17:0.97679376 18:0.96863681 19:0.97447909 20:0.96899806 21:0.98002945 22:0.98451075 23:0.96904722 24:0.80778746 25:0.69587852 26:0.5468228 27:0.40214058 28:0.44652782 29:0.55933514 30:0.58204555 31:0.62568246 32:0.70434332 
-126.237786175 1:0.92052137 2:0.97590213 3:0.99090584 4:0.9952564 5:0.987543 6:0.99417221 7:0.99693428 8:0.99709887 9:0.99677244 10:0.99446362 11:0.99439937 12:0.99327072 13:0.98763026 14:0.99664097 15:0.9974388 16:0.99538865 17:0.99398956 18:0.99117749 19:0.99265621 20:0.99157486 21:0.99604548 22:0.99607992 23:0.99261282 24:0.98787138 25:0.98200316 26:0.97178652 27:0.92004484 28:0.81781446 29:0.7351786 30:0.7153924 31:0.76460185 32:0.84591847 
-104.68604933815308 1:0.97077297 2:0.98234415 3:0.96852269 4:0.97028243 5:0.97170689 6:0.98251525 7:0.98778682 8:0.99167271 9:0.98977887 10:0.97994036 11:0.96901905 12:0.96255326 13:0.96289434 14:0.96932833 15:0.96692823 16:0.97793602 17:0.97392696 18:0.98360537 19:0.98782698 20:0.96681381 21:0.98306168 22:0.97712582 23:0.96082829 24:0.81357577 25:0.45017028 26:0.39747271 27:0.35961934 28:0.27885441 29:0.32896397 30:0.3705075 31:0.40129564 32:0.55426422 
126.237786175 1:0.99264882 2:0.99601452 3:0.99360825 4:0.99311214 5:0.99462286 6:0.99698841 7:0.99700472 8:0.99779542 9:0.99775576 10:0.99450376 11:0.98889965 12:0.99258582 13:0.98960194 14:0.99068807 15:0.99087473 16:0.99449437 17:0.99223951 18:0.9964565 19:0.99627782 20:0.9925667 21:0.99624498 22:0.99448234 23:0.99094235 24:0.99015731 25:0.98721072 26:0.97105135 27:0.74524883 28:0.52958503 29:0.46078074 30:0.43558767 31:0.46708058 32:0.64055715 
-7.6225176110748079 1:0.91780873 2:0.97849139 3:0.98308869 4:0.98216208 5:0.97948436 6:0.97638162 7:0.98718626 8:0.98246333 9:0.96332341 10:0.90174251 11:0.88255083 12:0.96066234 13:0.96672406 14:0.96723717 15:0.97091735 16:0.96869031 17:0.96651733 18:0.96583815 19:0.96923324 20:0.97698383 21:0.97156653 22:0.97276755 23:0.95910463 24:0.86115292 25:0.3211852 26:0.06255265 27:0.080639998 28:0.19123286 29:0.30526869 30:0.35405162 31:0.42616272 32:0.53246339 
126.237786175 1:0.99051914 2:0.99785417 3:0.99801787 4:0.99691249 5:0.99500875 6:0.99477419 7:0.99812011 8:0.99906947 9:0.99818195 10:0.99515204 11:0.99164175 12:0.99750022 13:0.99775071 14:0.99765451 15:0.99813598 16:0.9981247 17:0.99851574 18:0.99798186 19:0.99814187 20:0.9990351 21:0.99934092 22:0.99892746 23:0.99469456 24:0.99142281 25:0.99316632 26:0.99480512 27:0.99326315 28:0.99530981 29:0.99141073 30:0.96738645 31:0.94612228 32:0.92074959 
-126.237786175 1:0.9982583 2:0.99913325 3:0.99903623 4:0.99941163 5:0.99954908 6:0.99951587 7:0.99955656 8:0.99978244 9:0.99977318 10:0.99960352 11:0.99921847 12:0.99889289 13:0.99812837 14:0.99807489 15:0.99718823 16:0.99401104 17:0.98813177 18:0.99104212 19:0.99528842 20:0.99603359 21:0.99674946 22:0.99064228 23:0.99274114 24:0.99053752 25:0.99256013 26:0.99198397 27:0.99363085 28:0.99560071 29:0.9966474 30:0.95585521 31:0.85146438 32:0.80136494 
-126.237786175 1:0.92792517 2:0.95844063 3:0.95498896 4:0.97667334 5:0.98280235 6:0.98030742 7:0.98721954 8:0.98805746 9:0.98303496 10:0.96047027 11:0.94669913 12:0.95652676 13:0.96078841 14:0.97096581 15:0.97340155 16:0.965299 17:0.96450381 18:0.97231125 19:0.96312844 20:0.97887573 21:0.97379931 22:0.93579872 23:0.95463919 24:0.68858461 25:0.12968292 26:0.069176413 27:0.048134138 28:0.036836252 29:0.074092078 30:0.078843396 31:0.078912427 32:0.19076137 
-126.237786175 1:0.99037126 2:0.99628774 3:0.99595596 4:0.99804505 5:0.99873223 6:0.99834201 7:0.99875143 8:0.99963963 9:0.99958819 10:0.99900968 11:0.99748572 12:0.99663341 13:0.99398167 14:0.99543935 15:0.99393352 16:0.99270875 17:0.98863122 18:0.99536728 19:0.99525471 20:0.99644895 21:0.9957915 22:0.99144519 23:0.98750482 24:0.98333512 25:0.98734396 26:0.98144254 27:0.98163422 28:0.98124161 29:0.98052334 30:0.94338818 31:0.94299309 32:0.91755141 
-126.237786175 1:0.98821111 2:0.99402159 3:0.99201555 4:0.99465721 5:0.99498448 6:0.99625031 7:0.99792352 8:0.99858576 9:0.99815708 10:0.99643266 11:0.9910765 12:0.9889346 13:0.99052882 14:0.99328172 15:0.99283362 16:0.99214652 17:0.98725473 18:0.99291016 19:0.99349666 20:0.99555919 21:0.99454136 22:0.97928855 23:0.98598998 24:0.98221427 25:0.98818376 26:0.98579373 27:0.98047365 28:0.98671563 29:0.98303079 30:0.95338826 31:0.79265188 32:0.72698582 
-126.237786175 1:0.99908246 2:0.99924902 3:0.99856615 4:0.9988453 5:0.99884043 6:0.99786659 7:0.99860393 8:0.99876041 9:0.99861879 10:0.99772748 11:0.99777953 12:0.99748046 13:0.99652649 14:0.99578409 15:0.98899328 16:0.98320057 17:0.99351596 18:0.99431961 19:0.98704321 20:0.98031212 21:0.98362705 22:0.98749762 23:0.98513743 24:0.98977973 25:0.98613409 26:0.97711985 27:0.98816564 28:0.99418841 29:0.97380496 30:0.8102947 31:0.65421373 32:0.69722889 
-126.237786175 1:0.99088149 2:0.99092221 3:0.9838361 4:0.98944698 5:0.98682629 6:0.97850991 7:0.98226701 8:0.98814473 9:0.99082369 10:0.98844013 11:0.98774877 12:0.99197379 13:0.9927253 14:0.99410334 15:0.98894289 16:0.98338619 17:0.99332443 18:0.99436261 19:0.98728315 20:0.97958715 21:0.98296599 22:0.99081832 23:0.98575138 24:0.99165753 25:0.98968299 26:0.91712837 27:0.85641186 28:0.7016813 29:0.58948297 30:0.57749324 31:0.52534407 32:0.60232116 
-30.608141649859519 1:0.99324403 2:0.99794111 3:0.99692143 4:0.99630178 5:0.99762658 6:0.9975681 7:0.99793114 8:0.99832549 9:0.99857974 10:0.9975106 11:0.99632046 12:0.99476595 13:0.99262476 14:0.98953066 15:0.98420117 16:0.98183412 17:0.98673989 18:0.98922744 19:0.98917998 20:0.98593048 21:0.9851514 22:0.97869483 23:0.96422579 24:0.96616625 25:0.96785033 26:0.96810002 27:0.96373363 28:0.96844983 29:0.97655388 30:0.89407567 31:0.86848057 32:0.70932681 
126.237786175 1:0.99306595 2:0.99725891 3:0.99534498 4:0.99505851 5:0.99487342 6:0.9944693 7:0.9944842 8:0.9955952 9:0.99670925 10:0.99611045 11:0.99521885 12:0.9942394 13:0.99528584 14:0.99556464 15:0.99406116 16:0.99293704 17:0.99453883 18:0.99474455 19:0.99469435 20:0.99402778 21:0.99370971 22:0.99153656 23:0.99078842 24:0.99149303 25:0.99305853 26:0.99315743 27:0.98210726 28:0.94845046 29:0.95192566 30:0.91922673 31:0.85458655 32:0.8810127 
-126.237786175 1:0.95177493 2:0.98468522 3:0.98409028 4:0.97551495 5:0.97734699 6:0.99253815 7:0.99699948 8:0.99776929 9:0.99784719 10:0.9979152 11:0.99681161 12:0.99369442 13:0.98950268 14:0.98593216 15:0.98602817 16:0.98543802 17:0.98605819 18:0.98574826 19:0.98963318 20:0.99280973 21:0.9909307 22:0.98376811 23:0.96599464 24:0.97960574 25:0.97916454 26:0.959703 27:0.93749737 28:0.90576672 29:0.88200213 30:0.80478603 31:0.74232387 32:0.76515385 
81.872241848471859 1:0.98430319 2:0.97734872 3:0.95269894 4:0.93067502 5:0.9380736 6:0.92808747 7:0.90538258 8:0.90859438 9:0.92947203 10:0.93960942 11:0.92344648 12:0.92160117 13:0.92592626 14:0.91886282 15:0.90154203 16:0.90801946 17:0.92217412 18:0.9258016 19:0.9220957 20:0.92671288 21:0.90506018 22:0.88686994 23:0.92787415 24:0.80757568 25:0.33993242 26:0.18541311 27:0.14944846 28:0.053320627 29:0.03241403 30:0.064825198 31:0.025659417 32:0.064045913 
-126.237786175 1:0.99829846 2:0.99946125 3:0.99937699 4:0.99918157 5:0.99890604 6:0.99790071 7:0.99919674 8:0.99949182 9:0.99954718 10:0.9995936 11:0.99939872 12:0.99877764 13:0.99789335 14:0.99727924 15:0.99703387 16:0.99448441 17:0.99158877 18:0.98979695 19:0.9914301 20:0.99070921 21:0.99145878 22:0.98816612 23:0.9887136 24:0.98370209 25:0.98497641 26:0.98651351 27:0.98579343 28:0.98115333 29:0.98064025 30:0.90168968 31:0.75113085 32:0.74718014 
-126.237786175 1:0.97824979 2:0.99296866 3:0.99466634 4:0.9946179 5:0.99733418 6:0.99815178 7:0.99697283 8:0.99844341 9:0.99895003 10:0.9991413 11:0.99844451 12:0.99751334 13:0.99476096 14:0.99504873 15:0.99517285 16:0.9910498 17:0.98838223 18:0.98436347 19:0.98499821 20:0.98240906 21:0.98466084 22:0.98021742 23:0.96126183 24:0.96318705 25:0.97777665 26:0.98275658 27:0.97893186 28:0.98176743 29:0.98736941 30:0.89805001 31:0.85817137 32:0.84405504 
58.762849197417218 1:0.98327544 2:0.98670106 3:0.99188061 4:0.97578889 5:0.87541334 6:0.8578207 7:0.87560742 8:0.87819709 9:0.90795428 10:0.90631521 11:0.93005209 12:0.94846448 13:0.93510209 14:0.93213722 15:0.91962394 16:0.98001891 17:0.9834473 18:0.95074922 19:0.95397853 20:0.97205546 21:0.97841095 22:0.97137035 23:0.95592087 24:0.90828467 25:0.68032691 26:0.49932712 27:0.35053764 28:0.30387056 29:0.30471993 30:0.32955093 31:0.27886894 32:0.36730403 
-62.810008976234741 1:0.99416172 2:0.99446649 3:0.99717121 4:0.99438353 5:0.97048152 6:0.94763068 7:0.95064297 8:0.96641321 9:0.98180521 10:0.98213901 11:0.98089614 12:0.98306319 13:0.97196041 14:0.98369447 15:0.98531665 16:0.99269159 17:0.99029698 18:0.97812948 19:0.98065191 20:0.98892536 21:0.99254985 22:0.99259253 23:0.98495734 24:0.98867324 25:0.98148228 26:0.85007764 27:0.84418827 28:0.68534463 29:0.40730442 30:0.36783312 31:0.33181861 32:0.46058626 
-126.237786175 1:0.99541031 2:0.99733082 3:0.99803206 4:0.99377571 5:0.98130158 6:0.98051372 7:0.98747089 8:0.99169172 9:0.99139555 10:0.99426147 11:0.99488388 12:0.99283332 13:0.98661212 14:0.98857906 15:0.98530153 16:0.99068685 17:0.99084036 18:0.98273191 19:0.97929615 20:0.99158415 21:0.99524179 22:0.99477156 23:0.98990664 24:0.98969232 25:0.98241862 26:0.96724666 27:0.97947303 28:0.96882562 29:0.95974504 30:0.91821091 31:0.91160199 32:0.9136856 
-51.703263951511715 1:0.9432352 2:0.95317635 3:0.95207103 4:0.95630406 5:0.96333868 6:0.96423961 7:0.95954201 8:0.97308429 9:0.97783554 10:0.97306255 11:0.9590982 12:0.95895155 13:0.96430376 14:0.96283251 15:0.94065865 16:0.9572819 17:0.9668068 18:0.97261863 19:0.95989662 20:0.93015875 21:0.94877831 22:0.95336372 23:0.94458938 24:0.31807776 25:-0.011244899 26:0.20925531 27:0.29576564 28:0.14314334 29:0.12549939 30:0.092284982 31:-0.037633908 32:-0.027778137 
-126.237786175 1:0.99116441 2:0.994148 3:0.99355388 4:0.99435933 5:0.9955356 6:0.9930121 7:0.9905398 8:0.99441638 9:0.99454233 10:0.99412876 11:0.99127363 12:0.98919993 13:0.98875771 14:0.98700121 15:0.9767772 16:0.98527976 17:0.98574908 18:0.9885716 19:0.98261683 20:0.96458278 21:0.97329237 22:0.97882042 23:0.97708305 24:0.9635588 25:0.97099852 26:0.98059988 27:0.99110403 28:0.99260419 29:0.88816307 30:0.89799248 31:0.62617098 32:0.50567808 
-126.237786175 1:0.98169284 2:0.98515936 3:0.98310158 4:0.98441467 5:0.98773642 6:0.98538477 7:0.98575064 8:0.98914748 9:0.99138831 10:0.99084496 11:0.98422555 12:0.98554832 13:0.98496438 14:0.9857514 15:0.97833646 16:0.98367226 17:0.98468076 18:0.9893437 19:0.98496744 20:0.96925436 21:0.9791243 22:0.98405271 23:0.98083489 24:0.96851702 25:0.97087327 26:0.86582957 27:0.6262222 28:0.53247174 29:0.43592643 30:0.19255563 31:0.01060345 32:0.019351756 
-64.524409245243604 1:0.99502053 2:0.99880663 3:0.99924017 4:0.99894737 5:0.99918354 6:0.99967274 7:0.99949803 8:0.99878493 9:0.99896757 10:0.99899761 11:0.99813872 12:0.99485902 13:0.99661925 14:0.99451478 15:0.99153862 16:0.99387397 17:0.9895421 18:0.99374505 19:0.99546245 20:0.97316304 21:0.99074506 22:0.99600462 23:0.99543524 24:0.99007988 25:0.99483102 26:0.9973592 27:0.99707626 28:0.99748869 29:0.97943094 30:0.98011783 31:0.90404906 32:0.88469467 
-6.2147124416099269 1:0.78515945 2:0.94707848 3:0.98904208 4:0.98919369 5:0.9922729 6:0.99749773 7:0.99603924 8:0.97197418 9:0.98362543 10:0.98279146 11:0.964718 12:0.96067787 13:0.978085 14:0.98050953 15:0.98239798 16:0.96996544 17:0.95473012 18:0.97422545 19:0.97974845 20:0.94180898 21:0.94408486 22:0.96926504 23:0.97561721 24:0.78385956 25:-0.68051638 26:-0.51134218 27:0.012160227 28:0.11078027 29:0.34978134 30:0.29442575 31:0.47337551 32:0.74200772 
82.034252659786361 1:0.93550955 2:0.99275383 3:0.99657123 4:0.99771582 5:0.99893439 6:0.99970501 7:0.99821127 8:0.98503118 9:0.99575917 10:0.99311018 11:0.99510668 12:0.98874279 13:0.99335709 14:0.99501415 15:0.99103717 16:0.99408549 17:0.99422952 18:0.99675385 19:0.99499768 20:0.97601772 21:0.99273378 22:0.99353694 23:0.99321524 24:0.99259149 25:0.99749137 26:0.99829423 27:0.99880651 28:0.99715331 29:0.95385872 30:0.96649239 31:0.8483585 32:0.84429452 
-126.237786175 1:0.95979519 2:0.98933377 3:0.99607594 4:0.99691837 5:0.99777936 6:0.99933494 7:0.99889036 8:0.99360395 9:0.99239454 10:0.98491002 11:0.98525906 12:0.99211737 13:0.99681539 14:0.99716067 15:0.9929134 16:0.99429584 17:0.99066547 18:0.99568266 19:0.99534923 20:0.98332593 21:0.98920169 22:0.99463797 23:0.99494602 24:0.99080846 25:0.99674892 26:0.99108193 27:0.90380615 28:0.90054034 29:0.61800559 30:0.34946987 31:0.50327954 32:0.78945729 
-126.237786175 1:0.99921363 2:0.99905259 3:0.99814683 4:0.99957639 5:0.99930862 6:0.99968625 7:0.99967135 8:0.99938172 9:0.99941314 10:0.99955854 11:0.99948586 12:0.99905595 13:0.99828252 14:0.99777356 15:0.99595127 16:0.98881654 17:0.98627461 18:0.99132819 19:0.98792174 20:0.98350903 21:0.97486935 22:0.9724894 23:0.96320548 24:0.96390042 25:0.96360355 26:0.95689325 27:0.93948053 28:0.91021101 29:0.70841098 30:0.11186434 31:0.32504214 32:0.38045673 
27.762192091684909 1:0.98343703 2:0.99068607 3:0.98877413 4:0.99644118 5:0.99696368 6:0.99916688 7:0.99921306 8:0.99859443 9:0.99851228 10:0.99903924 11:0.99891696 12:0.9979857 13:0.99652833 14:0.99590205 15:0.9938877 16:0.98938554 17:0.98570315 18:0.98776084 19:0.98479523 20:0.97652979 21:0.97504596 22:0.9627086 23:0.9552394 24:0.94764134 25:0.95541139 26:0.95194527 27:0.96295685 28:0.95300217 29:0.86488688 30:0.072932864 31:0.51610014 32:0.57533631 
109.77569724835637 1:0.99751621 2:0.9975684 3:0.99744261 4:0.99867846 5:0.99732019 6:0.99817047 7:0.99829104 8:0.99634459 9:0.99403566 10:0.99464666 11:0.99714158 12:0.99547347 13:0.99375448 14:0.99434551 15:0.98891718 16:0.98612066 17:0.98449104 18:0.98396542 19:0.98178819 20:0.97470797 21:0.96565256 22:0.95539434 23:0.96491609 24:0.96593093 25:0.96783983 26:0.96885259 27:0.97358863 28:0.94887929 29:0.32468881 30:0.051973922 31:0.20293878 32:0.26307493 
126.237786175 1:0.979599 2:0.98537078 3:0.98601585 4:0.99437486 5:0.99376554 6:0.9963463 7:0.99537065 8:0.9927488 9:0.99643529 10:0.99767045 11:0.99829584 12:0.99719755 13:0.99456949 14:0.99383576 15:0.98978749 16:0.98341829 17:0.98026819 18:0.98121209 19:0.97964509 20:0.97679852 21:0.97292785 22:0.97214531 23:0.97032183 24:0.96669004 25:0.96887551 26:0.97330852 27:0.97059069 28:0.95282271 29:0.88385611 30:0.87176154 31:0.96939788 32:0.97531154 
-126.237786175 1:0.99257041 2:0.9967047 3:0.99874708 4:0.9992326 5:0.99812317 6:0.99384751 7:0.99727971 8:0.99901237 9:0.99720133 10:0.99522394 11:0.99554997 12:0.99517559 13:0.98891505 14:0.97931843 15:0.96171935 16:0.97170609 17:0.97043383 18:0.97084033 19:0.97113876 20:0.97603628 21:0.98520056 22:0.98764236 23:0.9833648 24:0.9825003 25:0.99032435 26:0.98402451 27:0.98166587 28:0.98819442 29:0.98898886 30:0.95900261 31:0.91006105 32:0.90867218 
-126.237786175 1:0.99413767 2:0.99802938 3:0.99922709 4:0.99913204 5:0.99884372 6:0.9990936 7:0.99931364 8:0.99947615 9:0.99934851 10:0.99926971 11:0.99866092 12:0.99739202 13:0.99766795 14:0.99665578 15:0.9975797 16:0.99634771 17:0.99469626 18:0.9935751 19:0.99214259 20:0.99635001 21:0.99668479 22:0.99494681 23:0.99740903 24:0.99793172 25:0.99640962 26:0.99685502 27:0.99891737 28:0.9953013 29:0.98635462 30:0.93495767 31:0.90491708 32:0.93806471 
-126.237786175 1:0.98343452 2:0.99415328 3:0.99688597 4:0.9959433 5:0.99257986 6:0.99687269 7:0.99800692 8:0.99872141 9:0.99855149 10:0.99859674 11:0.99739757 12:0.99614242 13:0.99617525 14:0.99490073 15:0.99675414 16:0.99448641 17:0.99411959 18:0.99396509 19:0.99228748 20:0.99359229 21:0.99432611 22:0.99598383 23:0.99513403 24:0.99497287 25:0.98642265 26:0.99180517 27:0.99571559 28:0.98971092 29:0.98953142 30:0.95745843 31:0.93184174 32:0.94584371 
-126.237786175 1:0.98013809 2:0.9916473 3:0.99676199 4:0.99615241 5:0.99573225 6:0.99739942 7:0.99820158 8:0.99860771 9:0.99811219 10:0.99800265 11:0.99438877 12:0.99592656 13:0.99762983 14:0.99747427 15:0.99853482 16:0.99707728 17:0.9963131 18:0.99448478 19:0.99491531 20:0.99801383 21:0.99742279 22:0.99694542 23:0.9973886 24:0.99840741 25:0.99749296 26:0.99757323 27:0.99819087 28:0.99253897 29:0.98158669 30:0.93353382 31:0.89503077 32:0.92345601 
-126.237786175 1:0.9516704 2:0.98343609 3:0.99454868 4:0.99338614 5:0.99251429 6:0.99423672 7:0.99658221 8:0.99660426 9:0.99594771 10:0.99646622 11:0.99195246 12:0.99048668 13:0.99626746 14:0.99519755 15:0.99781938 16:0.99574849 17:0.99507217 18:0.99425529 19:0.99458472 20:0.99777022 21:0.99716726 22:0.99755058 23:0.99758078 24:0.99853812 25:0.99633293 26:0.99496584 27:0.9101679 28:0.67017048 29:0.6172472 30:0.68212511 31:0.79693613 32:0.90295171 
-126.237786175 1:0.99952792 2:0.99991328 3:0.9999369 4:0.99993975 5:0.99951201 6:0.99981499 7:0.99949712 8:0.99954514 9:0.99949932 10:0.99904356 11:0.99913705 12:0.99869048 13:0.99608444 14:0.99590113 15:0.99568313 16:0.99505883 17:0.99165902 18:0.99572489 19:0.99601793 20:0.99659824 21:0.99828828 22:0.99699468 23:0.99604342 24:0.9948686 25:0.99187585 26:0.98694223 27:0.98079772 28:0.9821175 29:0.96453479 30:0.93436609 31:0.94106303 32:0.94514704 
-126.237786175 1:0.99152935 2:0.99564059 3:0.9939476 4:0.9967673 5:0.98728189 6:0.98246044 7:0.9522154 8:0.95519601 9:0.9687731 10:0.95510999 11:0.96459739 12:0.94879419 13:0.9498726 14:0.95227961 15:0.95791013 16:0.96100717 17:0.94243104 18:0.93386242 19:0.93080255 20:0.93752417 21:0.93573998 22:0.9167125 23:0.9026307 24:0.86690159 25:0.79374553 26:0.70387163 27:0.69355978 28:0.70183607 29:0.71125893 30:0.7060936 31:0.74397017 32:0.78883909 
-126.237786175 1:0.99807564 2:0.99921598 3:0.99903952 4:0.99931982 5:0.99568643 6:0.99823243 7:0.9947362 8:0.99381262 9:0.99502366 10:0.99354381 11:0.99483367 12:0.99369681 13:0.99129718 14:0.99165348 15:0.9925501 16:0.99226203 17:0.98672508 18:0.99021305 19:0.99039378 20:0.99180217 21:0.99274546 22:0.98998779 23:0.98484505 24:0.98247925 25:0.98146628 26:0.95021338 27:0.90934815 28:0.87358343 29:0.83218676 30:0.81528513 31:0.85686884 32:0.89808158 
-3.6073925053890794 1:0.98708918 2:0.98818085 3:0.9732454 4:0.95804359 5:0.88445316 6:0.9572726 7:0.97919804 8:0.98388024 9:0.96460191 10:0.95745835 11:0.97923176 12:0.96345289 13:0.96262376 14:0.98415939 15:0.9845971 16:0.97328582 17:0.96503725 18:0.96542906 19:0.96297285 20:0.94692483 21:0.95892389 22:0.97418094 23:0.97570102 24:0.71620099 25:0.27758824 26:0.12882482 27:0.1563268 28:0.17615393 29:0.14343866 30:0.14409932 31:0.081391874 32:0.11388466 
126.237786175 1:0.99979019 2:0.99986546 3:0.99966403 4:0.99922053 5:0.9972771 6:0.99887156 7:0.99929747 8:0.99938828 9:0.99875345 10:0.99805865 11:0.99845164 12:0.99683372 13:0.99606722 14:0.99821217 15:0.99802669 16:0.99666206 17:0.99509019 18:0.99280202 19:0.99110189 20:0.98605434 21:0.98925292 22:0.99315976 23:0.99349086 24:0.98993008 25:0.98737297 26:0.98628273 27:0.99313083 28:0.99534714 29:0.93137766 30:0.90424291 31:0.70148372 32:0.59913031 
126.237786175 1:0.99808207 2:0.99900761 3:0.99795185 4:0.99480303 5:0.98800139 6:0.99568762 7:0.99737314 8:0.99754168 9:0.99580156 10:0.99472529 11:0.99533741 12:0.99391453 13:0.99436003 14:0.9967549 15:0.99574406 16:0.99437082 17:0.9923851 18:0.99067758 19:0.9901633 20:0.98338377 21:0.99119438 22:0.99509082 23:0.99532747 24:0.99458961 25:0.99461599 26:0.99300991 27:0.99580891 28:0.99527053 29:0.98024157 30:0.93072096 31:0.94232867 32:0.95345719 
17.155259395385809 1:0.99910336 2:0.99918038 3:0.99879348 4:0.99809386 5:0.99842706 6:0.99838455 7:0.99863295 8:0.99879864 9:0.99809747 10:0.99728163 11:0.99644765 12:0.99421768 13:0.99047574 14:0.98400535 15:0.97626909 16:0.96918585 17:0.96594182 18:0.95478982 19:0.90670168 20:0.89678292 21:0.91336514 22:0.92604186 23:0.9676177 24:0.97828071 25:0.97755835 26:0.97324259 27:0.97439905 28:0.99214157 29:0.99210606 30:0.96078045 31:0.74515093 32:0.65172113 
126.237786175 1:0.99757029 2:0.99767817 3:0.99510575 4:0.98922313 5:0.99066154 6:0.98885125 7:0.98909097 8:0.99212127 9:0.98939011 10:0.98962286 11:0.9896504 12:0.98897542 13:0.9889807 14:0.98602034 15:0.98088749 16:0.97787767 17:0.97901943 18:0.97551838 19:0.9428972 20:0.94694019 21:0.96264794 22:0.96139776 23:0.98400769 24:0.98902152 25:0.98843367 26:0.98605 27:0.95921539 28:0.94116758 29:0.97395787 30:0.94319839 31:0.92988754 32:0.89255969 
126.237786175 1:0.9984318 2:0.99903075 3:0.99912468 4:0.99937431 5:0.99946972 6:0.99982812 7:0.99974621 8:0.99934743 9:0.9993142 10:0.9988533 11:0.99893017 12:0.9989163 13:0.99837233 14:0.99760127 15:0.99676784 16:0.99643971 17:0.99443562 18:0.9958106 19:0.99651786 20:0.99633262 21:0.99544463 22:0.99707822 23:0.99081723 24:0.98295358 25:0.97531766 26:0.98042382 27:0.97905938 28:0.87233699 29:0.84587289 30:0.74359975 31:0.61065423 32:0.5511891 
22.602017835892017 1:0.89186229 2:0.96293907 3:0.9705006 4:0.96953807 5:0.95945351 6:0.9789354 7:0.95475681 8:0.87592582 9:0.88171835 10:0.88986471 11:0.94546887 12:0.95662807 13:0.93432631 14:0.96067176 15:0.97518873 16:0.96288837 17:0.97260152 18:0.97434504 19:0.98273114 20:0.96810621 21:0.9702768 22:0.97941923 23:0.96216048 24:0.90754533 25:0.58995375 26:0.32759344 27:0.29889198 28:0.25072911 29:0.24966208 30:0.27528811 31:0.27299456 32:0.31450168 
-126.237786175 1:0.98078995 2:0.99236512 3:0.99637015 4:0.99832311 5:0.99863658 6:0.999237 7:0.99761247 8:0.99764647 9:0.99772053 10:0.99708168 11:0.99725201 12:0.99628832 13:0.99378523 14:0.99208704 15:0.99489065 16:0.99424026 17:0.99422452 18:0.9950388 19:0.99442701 20:0.99504876 21:0.9950165 22:0.99507736 23:0.98680075 24:0.97747669 25:0.97231403 26:0.98374381 27:0.9877928 28:0.98545282 29:0.9875461 30:0.67411081 31:0.65199601 32:0.60080404 
126.237786175 1:0.99864477 2:0.99907603 3:0.99856631 4:0.9989054 5:0.99898903 6:0.99955858 7:0.99926779 8:0.99832967 9:0.99699922 10:0.99768483 11:0.99823368 12:0.99842362 13:0.99804761 14:0.99587884 15:0.99834811 16:0.99806547 17:0.99805803 18:0.9981704 19:0.99756555 20:0.99769197 21:0.99653339 22:0.99665933 23:0.99261297 24:0.98615847 25:0.99113173 26:0.99214593 27:0.99371064 28:0.9940133 29:0.80448636 30:0.66286435 31:0.56615389 32:0.49121008 
126.237786175 1:0.97320147 2:0.99230264 3:0.99247259 4:0.99294426 5:0.99373894 6:0.99689443 7:0.99300797 8:0.98066755 9:0.98388803 10:0.97941697 11:0.99002996 12:0.99154054 13:0.9899652 14:0.99047842 15:0.99385156 16:0.99341022 17:0.99416957 18:0.99475977 19:0.994928 20:0.99547531 21:0.99334807 22:0.99308458 23:0.99077868 24:0.9840757 25:0.9792969 26:0.88719632 27:0.61772906 28:0.4754747 29:0.34796038 30:0.32130181 31:0.32174663 32:0.37642789 
-48.308814354408284 1:0.95599967 2:0.97095109 3:0.97983892 4:0.98499242 5:0.96767684 6:0.94835016 7:0.94195828 8:0.9430805 9:0.93379581 10:0.93318153 11:0.91950827 12:0.93278168 13:0.9514883 14:0.9553602 15:0.95475788 16:0.94789328 17:0.9502873 18:0.95931832 19:0.96701106 20:0.97585711 21:0.97080675 22:0.96302288 23:0.95240803 24:0.78117033 25:0.51960693 26:0.33721308 27:0.10142098 28:0.061454858 29:0.088908997 30:0.093892348 31:0.044944078 32:0.070356898 
78.850473242470017 1:0.98341531 2:0.99133157 3:0.99439632 4:0.99659989 5:0.99233694 6:0.98865054 7:0.989646 8:0.98917299 9:0.98610985 10:0.98620782 11:0.98515763 12:0.98304966 13:0.98576519 14:0.98751293 15:0.98762269 16:0.98535947 17:0.98620128 18:0.98885716 19:0.98955606 20:0.99233804 21:0.9918399 22:0.99024011 23:0.98882584 24:0.98201261 25:0.98372347 26:0.84444252 27:0.2630492 28:0.17059166 29:0.21625987 30:0.1597535 31:0.080097201 32:0.10810989 
33.266561045833235 1:0.97260982 2:0.985567 3:0.99304284 4:0.99439517 5:0.99162229 6:0.98792655 7:0.99100573 8:0.99249096 9:0.99306181 10:0.9901851 11:0.98715177 12:0.98597045 13:0.98911671 14:0.99008656 15:0.98727136 16:0.98520399 17:0.98948481 18:0.99210234 19:0.99253042 20:0.99452356 21:0.9941692 22:0.99326829 23:0.99120866 24:0.98665908 25:0.99033404 26:0.9913511 27:0.98368013 28:0.94164892 29:0.90408664 30:0.8784199 31:0.88913745 32:0.91911178 
126.237786175 1:0.98069357 2:0.99411597 3:0.99488146 4:0.99584199 5:0.99679304 6:0.99719693 7:0.99667831 8:0.99554395 9:0.99702913 10:0.99756345 11:0.99565332 12:0.99270349 13:0.99521862 14:0.99723936 15:0.99408707 16:0.99558111 17:0.99659849 18:0.99344014 19:0.99097276 20:0.99553497 21:0.99629981 22:0.99063699 23:0.99252665 24:0.99102784 25:0.99429908 26:0.99666343 27:0.99389643 28:0.97061806 29:0.96650452 30:0.93429599 31:0.92968437 32:0.94586454 
-126.237786175 1:0.9982713 2:0.99903717 3:0.99906439 4:0.99939851 5:0.99914963 6:0.99804233 7:0.99807502 8:0.99864338 9:0.99877027 10:0.99828906 11:0.9979293 12:0.99689892 13:0.99529316 14:0.9917993 15:0.98720735 16:0.98087695 17:0.97380392 18:0.98285056 19:0.97896862 20:0.96852007 21:0.95822842 22:0.9844833 23:0.99296377 24:0.99563271 25:0.99283361 26:0.97556981 27:0.94176297 28:0.95706795 29:0.98395911 30:0.91059539 31:0.78071008 32:0.68042155 
-126.237786175 1:0.99888952 2:0.99925471 3:0.99866054 4:0.99917897 5:0.99917286 6:0.99893176 7:0.99909861 8:0.99924385 9:0.99951975 10:0.99949539 11:0.99904225 12:0.99935122 13:0.99875186 14:0.99785055 15:0.99755219 16:0.99754422 17:0.99551738 18:0.99384915 19:0.99289308 20:0.99040826 21:0.99295777 22:0.99528081 23:0.99064491 24:0.98431585 25:0.97864367 26:0.98381005 27:0.98746741 28:0.98610986 29:0.99499598 30:0.99114932 31:0.94969705 32:0.92384465 
-69.68533154843027 1:0.97438062 2:0.9763074 3:0.97837646 4:0.98634983 5:0.98229728 6:0.97436325 7:0.97914906 8:0.97318069 9:0.98790757 10:0.99046029 11:0.98127236 12:0.98311541 13:0.98716068 14:0.98805539 15:0.98887882 16:0.99099253 17:0.98472477 18:0.98215416 19:0.9795573 20:0.97423482 21:0.98292849 22:0.98687353 23:0.97371331 24:0.63246735 25:0.53312258 26:0.53263512 27:0.25653213 28:0.20697347 29:0.23402003 30:0.34505768 31:0.51850889 32:0.68625903 
-126.237786175 1:0.99643309 2:0.99795855 3:0.99679984 4:0.99804686 5:0.998714 6:0.99840239 7:0.99785669 8:0.99852059 9:0.99888641 10:0.99892313 11:0.99810543 12:0.99881805 13:0.99771809 14:0.99569246 15:0.99665933 16:0.99741584 17:0.99604925 18:0.996261 19:0.99567551 20:0.9954202 21:0.9977225 22:0.99765679 23:0.99451526 24:0.98960079 25:0.986655 26:0.99242472 27:0.99435714 28:0.99282301 29:0.99553647 30:0.99111991 31:0.96873019 32:0.95119599 
-74.568910445142492 1:0.75748832 2:0.7782457 3:0.85341473 4:0.9090499 5:0.94564103 6:0.9715316 7:0.97671699 8:0.98182762 9:0.98848073 10:0.99266397 11:0.99715144 12:0.99574962 13:0.99446367 14:0.98487018 15:0.98169662 16:0.97223136 17:0.96617035 18:0.9674789 19:0.96508249 20:0.96901822 21:0.98709588 22:0.981395 23:0.96751931 24:0.84912828 25:0.5060681 26:0.14376498 27:0.13508725 28:0.23201925 29:0.25271433 30:0.2317615 31:0.16099049 32:0.18660025 
9.3947123331813103 1:0.96739129 2:0.95709615 3:0.94455929 4:0.93262443 5:0.90260951 6:0.88190458 7:0.8482058 8:0.84368984 9:0.87645858 10:0.8657884 11:0.89918604 12:0.9189225 13:0.91505614 14:0.91851482 15:0.90450318 16:0.93328871 17:0.94613751 18:0.93923698 19:0.91380571 20:0.9244219 21:0.95827329 22:0.94512975 23:0.9344438 24:0.52213727 25:0.14903871 26:0.055030203 27:0.047362627 28:-0.043035488 29:-0.069981546 30:-0.043330104 31:-0.064788214 32:-0.10631101 
-20.091699101528139 1:0.98539698 2:0.98189471 3:0.97676703 4:0.96791238 5:0.95348391 6:0.94656206 7:0.91682564 8:0.91401578 9:0.9306587 10:0.93781236 11:0.9587991 12:0.97088971 13:0.97215336 14:0.96920098 15:0.96679173 16:0.97630202 17:0.97845074 18:0.98210312 19:0.97487097 20:0.97292868 21:0.98130394 22:0.97102192 23:0.97326132 24:0.96838768 25:0.98719017 26:0.82321097 27:0.13190199 28:-0.18363114 29:-0.17517765 30:-0.090781231 31:-0.062940508 32:-0.092374555 
9.5200676788435477 1:0.7274182 2:0.8599165 3:0.95585669 4:0.98246648 5:0.96818899 6:0.96857785 7:0.98024211 8:0.98129645 9:0.98227576 10:0.9761258 11:0.96962227 12:0.96429214 13:0.965756 14:0.9762784 15:0.97590759 16:0.96255707 17:0.94920592 18:0.96618629 19:0.96208631 20:0.95085917 21:0.96040547 22:0.97579424 23:0.96556982 24:0.75450507 25:0.16655237 26:0.17805411 27:0.27893746 28:0.26011294 29:0.33351757 30:0.42178315 31:0.48097837 32:0.57971126 
-126.237786175 1:0.89219023 2:0.96166089 3:0.98956485 4:0.99566337 5:0.99190606 6:0.99130036 7:0.99442225 8:0.99334857 9:0.99295613 10:0.99236908 11:0.99174365 12:0.9875024 13:0.98800635 14:0.99141703 15:0.99222474 16:0.98847421 17:0.98401267 18:0.98894112 19:0.98541673 20:0.9816794 21:0.98711339 22:0.99345923 23:0.99037617 24:0.98496831 25:0.97811812 26:0.89453564 27:0.86121248 28:0.76254155 29:0.58689062 30:0.54702291 31:0.58862674 32:0.69636193 
126.237786175 1:0.96209393 2:0.98882885 3:0.99740077 4:0.99828016 5:0.99647441 6:0.99547445 7:0.99664198 8:0.99637452 9:0.99537652 10:0.99352606 11:0.9930346 12:0.99138116 13:0.99174762 14:0.99390651 15:0.99309826 16:0.99037561 17:0.98592498 18:0.98851357 19:0.98679286 20:0.98641056 21:0.9917599 22:0.99544045 23:0.99456386 24:0.99284801 25:0.98935504 26:0.98865424 27:0.98063383 28:0.9356512 29:0.64096972 30:0.17828558 31:0.49715923 32:0.75618324 
-126.237786175 1:0.99894519 2:0.99945211 3:0.99916575 4:0.99885187 5:0.99892266 6:0.99895022 7:0.99911054 8:0.99930343 9:0.99903705 10:0.99877854 11:0.99820227 12:0.99732193 13:0.99773378 14:0.99680292 15:0.99251716 16:0.98406927 17:0.98050965 18:0.98168935 19:0.9734975 20:0.96412092 21:0.9694342 22:0.96684103 23:0.9592375 24:0.95208237 25:0.95341467 26:0.95467406 27:0.96001222 28:0.97555769 29:0.97365848 30:0.76686397 31:0.6442689 32:0.53780613 
-11.637626913918027 1:0.95846651 2:0.98057294 3:0.97506838 4:0.96773621 5:0.97377815 6:0.98217782 7:0.98545036 8:0.98485441 9:0.9821666 10:0.97958706 11:0.97062497 12:0.97511617 13:0.98310536 14:0.97709116 15:0.96142072 16:0.95768787 17:0.95635071 18:0.9647066 19:0.95400276 20:0.94437738 21:0.94585489 22:0.93399836 23:0.93314767 24:0.66251798 25:0.30073484 26:0.32800027 27:0.31035672 28:0.14531234 29:0.099347035 30:0.055724582 31:-0.081646119 32:-0.092421368 
70.26072149673135 1:0.99944215 2:0.9996675 3:0.99979056 4:0.99975136 5:0.99946802 6:0.99918038 7:0.9996676 8:0.99973374 9:0.99957402 10:0.99924483 11:0.99936851 12:0.99941357 13:0.99873506 14:0.9976325 15:0.99513525 16:0.99584056 17:0.99333679 18:0.988318 19:0.98800437 20:0.98861446 21:0.99053277 22:0.99358329 23:0.99381044 24:0.99573144 25:0.99531967 26:0.98947803 27:0.98910084 28:0.99278467 29:0.99612479 30:0.96204011 31:0.82513471 32:0.53125766 
-14.375858786925106 1:0.98360646 2:0.99174137 3:0.99251552 4:0.99246119 5:0.98478081 6:0.98434814 7:0.99243859 8:0.9931137 9:0.98754383 10:0.98424714 11:0.98484622 12:0.98619097 13:0.98052102 14:0.97172316 15:0.96876374 16:0.9716726 17:0.95914901 18:0.93906248 19:0.93045917 20:0.92932398 21:0.95318979 22:0.96789744 23:0.97248582 24:0.9798077 25:0.94005451 26:0.80879199 27:0.80225026 28:0.85336465 29:0.94107554 30:0.94040008 31:0.76277523 32:0.49623881 
126.237786175 1:0.96319331 2:0.98679706 3:0.99587663 4:0.99750371 5:0.98713474 6:0.98072901 7:0.98917369 8:0.99263741 9:0.99025897 10:0.98833334 11:0.9901082 12:0.99389588 13:0.9918892 14:0.9888384 15:0.98659489 16:0.9869022 17:0.98445502 18:0.96731521 19:0.94734394 20:0.92323641 21:0.93732475 22:0.96418789 23:0.96283303 24:0.97228204 25:0.9401243 26:0.88239454 27:0.8549499 28:0.87001715 29:0.90132794 30:0.89837492 31:0.90082059 32:0.93489853 
126.237786175 1:0.98037476 2:0.99051863 3:0.99639215 4:0.99774448 5:0.99116509 6:0.98736326 7:0.99487458 8:0.99470613 9:0.99371217 10:0.99480729 11:0.99396779 12:0.9965717 13:0.99478656 14:0.99224831 15:0.98996586 16:0.98728994 17:0.98923523 18:0.98111926 19:0.98118269 20:0.98160219 21:0.98166129 22:0.97452414 23:0.96871861 24:0.97520982 25:0.94432404 26:0.90119444 27:0.90943371 28:0.90868033 29:0.90159303 30:0.86628013 31:0.89520649 32:0.93579196 
126.237786175 1:0.99872887 2:0.98682918 3:0.87952352 4:0.9070711 5:0.96043446 6:0.97999099 7:0.98550455 8:0.99487983 9:0.99743099 10:0.99819643 11:0.99874381 12:0.99940152 13:0.9995011 14:0.9989598 15:0.99960451 16:0.99916396 17:0.99398967 18:0.98988505 19:0.97589972 20:0.9925054 21:0.99822456 22:0.99895852 23:0.9982542 24:0.99558482 25:0.99765431 26:0.995644 27:0.99243345 28:0.99528081 29:0.96239224 30:0.57737479 31:0.50196308 32:0.4449534 
104.27593087924114 1:0.98836758 2:0.8959384 3:0.60007824 4:0.71928749 5:0.8383697 6:0.88430391 7:0.93122245 8:0.94998337 9:0.97127447 10:0.98404291 11:0.98866478 12:0.99474363 13:0.99565319 14:0.99271996 15:0.99720001 16:0.9948823 17:0.96991336 18:0.93725249 19:0.86168789 20:0.95371819 21:0.98897812 22:0.99655024 23:0.98507074 24:0.94942229 25:0.95319026 26:0.88628206 27:0.79214131 28:0.75985107 29:0.81638166 30:0.52076068 31:0.61296833 32:0.51381092 
126.237786175 1:0.98834564 2:0.94672183 3:0.68897415 4:0.82616959 5:0.91179639 6:0.95316604 7:0.96547083 8:0.97882142 9:0.99149911 10:0.99545424 11:0.99638092 12:0.99734011 13:0.99726625 14:0.99319904 15:0.9975176 16:0.99559958 17:0.98572595 18:0.94333725 19:0.85150529 20:0.87597641 21:0.95294333 22:0.98374106 23:0.9751767 24:0.91014221 25:0.91639633 26:0.79375516 27:0.79040279 28:0.75458506 29:0.66149918 30:0.59616044 31:0.79909013 32:0.88712202 
-5.5849414839623455 1:0.99474155 2:0.94915501 3:0.75734672 4:0.84691396 5:0.92760049 6:0.9463351 7:0.96687795 8:0.97948382 9:0.98661827 10:0.993989 11:0.99485993 12:0.99770711 13:0.99821704 14:0.99621816 15:0.99890271 16:0.99675165 17:0.97733063 18:0.94110302 19:0.8856944 20:0.96204605 21:0.99222694 22:0.99735115 23:0.98948177 24:0.96846525 25:0.98757832 26:0.95697545 27:0.83884308 28:0.82286148 29:0.70453925 30:0.50956023 31:0.74263988 32:0.90232354 
126.237786175 1:0.99151411 2:0.95859795 3:0.76937771 4:0.87067855 5:0.93327032 6:0.97237332 7:0.97743565 8:0.98773959 9:0.99368528 10:0.99696299 11:0.99809562 12:0.99892951 13:0.99834161 14:0.99580006 15:0.99828458 16:0.99722543 17:0.99234234 18:0.98668976 19:0.97007358 20:0.99130048 21:0.99731985 22:0.99787782 23:0.98290871 24:0.90991539 25:0.93459003 26:0.82470736 27:0.78857051 28:0.80046335 29:0.710865 30:0.70956332 31:0.80028162 32:0.84316512 
126.237786175 1:0.97228722 2:0.98217236 3:0.98949003 4:0.99707356 5:0.99909825 6:0.99624104 7:0.99457275 8:0.99609733 9:0.99537682 10:0.99609901 11:0.9918107 12:0.99350724 13:0.99423086 14:0.99088324 15:0.98624734 16:0.99127712 17:0.99247271 18:0.99039221 19:0.97178157 20:0.89692838 21:0.88224651 22:0.91049781 23:0.94369719 24:0.94986312 25:0.93226718 26:0.89532844 27:0.87732091 28:0.93141838 29:0.95437371 30:0.95664025 31:0.94297061 32:0.95855042 
-126.237786175 1:0.99330612 2:0.99815936 3:0.9990909 4:0.99853454 5:0.99962221 6:0.99911264 7:0.99912544 8:0.99955728 9:0.99961357 10:0.99835978 11:0.99762006 12:0.99526312 13:0.99796212 14:0.99786852 15:0.99978556 16:0.99978348 17:0.99952551 18:0.99952856 19:0.96579463 20:0.86496547 21:0.83489571 22:0.86475528 23:0.89270397 24:0.87048129 25:0.85580658 26:0.88810547 27:0.91962577 28:0.92145078 29:0.91797226 30:0.91398682 31:0.95958062 32:0.99465508 
126.237786175 1:0.9997567 2:0.99828065 3:0.98604038 4:0.97273839 5:0.97836787 6:0.97988958 7:0.98528185 8:0.99226203 9:0.99491179 10:0.99523195 11:0.99920548 12:0.99988027 13:0.99974325 14:0.9979706 15:0.99708589 16:0.99954852 17:0.99973497 18:0.99870947 19:0.99914491 20:0.99942203 21:0.99985099 22:0.99947585 23:0.99923976 24:0.99914629 25:0.99539289 26:0.99160121 27:0.9946364 28:0.99249348 29:0.9846337 30:0.73528188 31:0.7806249 32:0.88619333 
126.237786175 1:0.99748189 2:0.99012157 3:0.96326779 4:0.95259441 5:0.95038643 6:0.9421424 7:0.9676045 8:0.98526666 9:0.98080694 10:0.99361217 11:0.99737867 12:0.99955284 13:0.9990524 14:0.99084273 15:0.98658786 16:0.98885058 17:0.99919631 18:0.99772701 19:0.99828178 20:0.99920498 21:0.99982604 22:0.9991879 23:0.99824912 24:0.99723321 25:0.97779782 26:0.95627251 27:0.91727338 28:0.88569222 29:0.86525201 30:0.69755794 31:0.85339005 32:0.93481594 
21.273551276105927 1:0.89227575 2:0.81104886 3:0.55079331 4:0.5113721 5:0.49477748 6:0.53347405 7:0.85159672 8:0.93382455 9:0.94438186 10:0.9693987 11:0.9967501 12:0.99945396 13:0.99716805 14:0.97967609 15:0.99530974 16:0.99763344 17:0.99932391 18:0.99668699 19:0.99756109 20:0.9984101 21:0.99943375 22:0.87058322 23:0.88119549 24:0.87798285 25:0.83237041 26:0.84962753 27:0.91169625 28:0.86188508 29:0.70296753 30:0.78718625 31:0.93663052 32:0.94318693 
-0.54846759831887959 1:0.96130422 2:0.9166896 3:0.82481094 4:0.73371888 5:0.63839163 6:0.56174476 7:0.65894668 8:0.75918564 9:0.79286653 10:0.82335293 11:0.93171179 12:0.98040095 13:0.96473604 14:0.90040928 15:0.95247228 16:0.97897618 17:0.98434376 18:0.82758974 19:0.69811544 20:0.29754599 21:-0.026285436 22:0.24708426 23:0.27143241 24:0.19585693 25:0.19467628 26:0.31498819 27:0.37810792 28:0.43616953 29:0.4907641 30:0.53415272 31:0.53911383 32:0.52971407 
126.237786175 1:0.99966602 2:0.99976285 3:0.99979306 4:0.99986513 5:0.99986102 6:0.99986492 7:0.99986773 8:0.99978272 9:0.99936293 10:0.99958323 11:0.99938962 12:0.99909029 13:0.99838514 14:0.99666449 15:0.99587879 16:0.99539353 17:0.99522851 18:0.99509404 19:0.9960639 20:0.9914042 21:0.98965175 22:0.99428795 23:0.99301842 24:0.99152134 25:0.99027934 26:0.9877642 27:0.98785452 28:0.9928221 29:0.98101591 30:0.91479525 31:0.70155613 32:0.7494359 
126.237786175 1:0.9997698 2:0.99981523 3:0.9998424 4:0.99990625 5:0.99989199 6:0.99987676 7:0.99988362 8:0.99985742 9:0.9996494 10:0.99978868 11:0.99972694 12:0.9994168 13:0.99901015 14:0.99834548 15:0.99803536 16:0.99740749 17:0.99709273 18:0.99708546 19:0.9974699 20:0.99518134 21:0.99696158 22:0.99713175 23:0.99602182 24:0.99480852 25:0.99469373 26:0.99484684 27:0.99412081 28:0.9965016 29:0.99651519 30:0.95357914 31:0.84194548 32:0.84173283 
126.237786175 1:0.99947393 2:0.9995817 3:0.99886185 4:0.99935446 5:0.99974281 6:0.99983022 7:0.99963363 8:0.99981577 9:0.99986222 10:0.99982881 11:0.99969347 12:0.99803744 13:0.99947342 14:0.99796515 15:0.99689479 16:0.99400412 17:0.99321775 18:0.99507977 19:0.99643489 20:0.9965766 21:0.99425287 22:0.9930831 23:0.99621693 24:0.99608148 25:0.99380462 26:0.99347133 27:0.99527173 28:0.99385386 29:0.96054223 30:0.86714608 31:0.7218551 32:0.73580369 
126.237786175 1:0.99940305 2:0.9996826 3:0.99927268 4:0.99957052 5:0.99980132 6:0.99982258 7:0.99968771 8:0.99986275 9:0.99991188 10:0.9998938 11:0.99985861 12:0.99900732 13:0.9992988 14:0.99872006 15:0.99840024 16:0.99494968 17:0.99583918 18:0.99577869 19:0.99745098 20:0.99785741 21:0.99608854 22:0.99483468 23:0.996999 24:0.99685987 25:0.99674763 26:0.99643644 27:0.99716339 28:0.99707709 29:0.99495523 30:0.90754076 31:0.8829479 32:0.86405605 
40.536420470971159 1:0.99309615 2:0.99383081 3:0.98441157 4:0.99058447 5:0.99711587 6:0.99775132 7:0.99562444 8:0.99780112 9:0.99839168 10:0.99841367 11:0.99829456 12:0.99367693 13:0.9960771 14:0.99265422 15:0.99019823 16:0.97857664 17:0.97584086 18:0.98109149 19:0.98545379 20:0.99002639 21:0.98605003 22:0.98221358 23:0.98726366 24:0.98496178 25:0.93778029 26:0.87180324 27:0.82871632 28:0.78580719 29:0.82730743 30:0.80179018 31:0.84191268 32:0.81893592 
22.57465460847358 1:0.98168945 2:0.98908761 3:0.95950727 4:0.95468303 5:0.96999241 6:0.9827526 7:0.97938294 8:0.98910894 9:0.99454866 10:0.99594028 11:0.99448246 12:0.97006807 13:0.99295986 14:0.98641962 15:0.98058901 16:0.95262247 17:0.95831961 18:0.87621483 19:0.8154753 20:0.74797438 21:0.67690579 22:0.63524505 23:0.75242325 24:0.79676548 25:0.76474039 26:0.72279834 27:0.67920727 28:0.65146387 29:0.72419962 30:0.76270524 31:0.85122952 32:0.82663443 
-16.412641144379847 1:0.98127239 2:0.99355419 3:0.99261198 4:0.99192056 5:0.99268305 6:0.99560743 7:0.99547936 8:0.99786364 9:0.99890563 10:0.9996672 11:0.99785684 12:0.99210982 13:0.99638135 14:0.9971848 15:0.99302076 16:0.98430035 17:0.98093814 18:0.98202661 19:0.82617231 20:0.67579678 21:0.31852572 22:0.041891914 23:0.095532417 24:0.12515295 25:0.14353266 26:0.16169323 27:0.18408056 28:0.21606325 29:0.24268263 30:0.27400748 31:0.3330912 32:0.43131914 
126.237786175 1:0.99952339 2:0.99968975 3:0.99955796 4:0.99933931 5:0.99935413 6:0.9995427 7:0.99977896 8:0.99974168 9:0.99955309 10:0.99928678 11:0.99909609 12:0.99792394 13:0.99724497 14:0.99631046 15:0.99480181 16:0.99584669 17:0.99596852 18:0.9962469 19:0.99355945 20:0.99375505 21:0.99633833 22:0.99531296 23:0.99303574 24:0.99397477 25:0.99540581 26:0.9935073 27:0.99366426 28:0.9908297 29:0.90023252 30:0.80990198 31:0.54641012 32:0.59488498 
126.237786175 1:0.98897805 2:0.9939676 3:0.99249456 4:0.98995724 5:0.98824408 6:0.98814383 7:0.9927284 8:0.99247138 9:0.98921544 10:0.98911096 11:0.99134666 12:0.98423135 13:0.98098674 14:0.97902067 15:0.97548271 16:0.9753179 17:0.97596122 18:0.97825742 19:0.96693665 20:0.97752093 21:0.98593072 22:0.98165861 23:0.97623996 24:0.97737228 25:0.97051147 26:0.94837912 27:0.90423196 28:0.90072273 29:0.86580523 30:0.77668527 31:0.63404124 32:0.66608613 
126.237786175 1:0.98038873 2:0.98965998 3:0.9886034 4:0.98438068 5:0.98603676 6:0.98751481 7:0.99488367 8:0.99371821 9:0.99083825 10:0.9918275 11:0.99263371 12:0.98865079 13:0.98097564 14:0.98769248 15:0.98650819 16:0.98411037 17:0.98424957 18:0.98745273 19:0.98099045 20:0.98600232 21:0.99124786 22:0.98721863 23:0.98749212 24:0.98594372 25:0.98603915 26:0.97488219 27:0.95509088 28:0.93500978 29:0.83472223 30:0.78559051 31:0.87088412 32:0.83385675 
126.237786175 1:0.99572495 2:0.99637254 3:0.99537115 4:0.99514632 5:0.99521145 6:0.99572012 7:0.99724543 8:0.9970217 9:0.99563383 10:0.99467291 11:0.99377653 12:0.99067556 13:0.98846962 14:0.98767567 15:0.98485824 16:0.98368235 17:0.98574668 18:0.98755321 19:0.98242515 20:0.98398301 21:0.98967229 22:0.98693605 23:0.98047617 24:0.97511442 25:0.97853925 26:0.96298822 27:0.94785257 28:0.93692641 29:0.86376602 30:0.82016882 31:0.87676899 32:0.92003863 
126.237786175 1:0.98463094 2:0.99195738 3:0.99212828 4:0.98959751 5:0.98976996 6:0.9913817 7:0.9961224 8:0.99516337 9:0.99408902 10:0.99327735 11:0.99391037 12:0.99303325 13:0.98972243 14:0.99253127 15:0.9904014 16:0.98979502 17:0.99299524 18:0.99297849 19:0.98588285 20:0.99292637 21:0.99587032 22:0.9918095 23:0.9899962 24:0.99140908 25:0.9913485 26:0.98841384 27:0.97979029 28:0.96722384 29:0.90383839 30:0.85836109 31:0.90587132 32:0.87499459 
126.237786175 1:0.99957878 2:0.99984198 3:0.9996065 4:0.99946146 5:0.99905383 6:0.99895026 7:0.99889067 8:0.99901318 9:0.9989461 10:0.99628813 11:0.99000276 12:0.99167941 13:0.99342648 14:0.99579746 15:0.98991735 16:0.98506107 17:0.98572137 18:0.97885199 19:0.99442186 20:0.99619799 21:0.99162551 22:0.99409645 23:0.99234511 24:0.99046431 25:0.98434009 26:0.97286214 27:0.97854297 28:0.97505808 29:0.85204722 30:0.71528457 31:0.63451892 32:0.60240442 
126.237786175 1:0.99055554 2:0.99625548 3:0.98806506 4:0.98515279 5:0.97521402 6:0.97185651 7:0.97432559 8:0.98079737 9:0.97837831 10:0.96140814 11:0.94460953 12:0.94227315 13:0.96536473 14:0.97669902 15:0.95646859 16:0.95081989 17:0.94810806 18:0.89309837 19:0.97402418 20:0.97369779 21:0.96941841 22:0.97961548 23:0.97297266 24:0.9650437 25:0.91035896 26:0.83579341 27:0.775161 28:0.71559849 29:0.71067724 30:0.65729589 31:0.63021821 32:0.60135704 
126.237786175 1:0.99461072 2:0.99785445 3:0.99485404 4:0.9936041 5:0.98889955 6:0.9849194 7:0.99038514 8:0.9915834 9:0.98867644 10:0.97902559 11:0.97416326 12:0.97019972 13:0.98564252 14:0.98890974 15:0.98443648 16:0.98081003 17:0.97516961 18:0.95375548 19:0.98527476 20:0.98377637 21:0.98156499 22:0.98503928 23:0.98163611 24:0.97634095 25:0.95956537 26:0.91025745 27:0.89510936 28:0.8332804 29:0.83915301 30:0.85931922 31:0.891691 32:0.84709915 
-10.68838567817598 1:0.99932472 2:0.99977033 3:0.9999904 4:0.99999309 5:0.99998695 6:0.99997665 7:0.99998054 8:0.99998395 9:0.99998555 10:0.99998358 11:0.99998698 12:0.99999146 13:0.99999278 14:0.99999336 15:0.99998921 16:0.99998429 17:0.99998067 18:0.99982245 19:0.96145573 20:0.66504898 21:0.45705003 22:0.4152721 23:0.26967233 24:0.19859057 25:0.24942209 26:0.35118303 27:0.39254124 28:0.43446635 29:0.48141282 30:0.46449226 31:0.39335271 32:0.42403625 
126.237786175 1:0.99896934 2:0.99931507 3:0.99922122 4:0.99915591 5:0.99925479 6:0.99931806 7:0.99953854 8:0.999598 9:0.99954903 10:0.99943337 11:0.99947408 12:0.99894673 13:0.99879499 14:0.99887888 15:0.99872129 16:0.99826997 17:0.99878658 18:0.99740876 19:0.99740996 20:0.99706075 21:0.99474042 22:0.99427204 23:0.99378362 24:0.9907321 25:0.99264555 26:0.99098177 27:0.99476418 28:0.99436744 29:0.96570193 30:0.90906546 31:0.58675692 32:0.55555927 
126.237786175 1:0.99897628 2:0.99944264 3:0.99938297 4:0.99930993 5:0.9993839 6:0.99945481 7:0.99970778 8:0.99972833 9:0.99969678 10:0.99967826 11:0.99973659 12:0.99937478 13:0.99939043 14:0.99935594 15:0.99925636 16:0.99859664 17:0.99929272 18:0.99827294 19:0.99846399 20:0.99844498 21:0.99723724 22:0.99585018 23:0.99500415 24:0.9950405 25:0.99599055 26:0.99586946 27:0.99734404 28:0.99644664 29:0.99569402 30:0.89545183 31:0.72820394 32:0.73592354 
11.769552210769131 1:0.97498887 2:0.98999034 3:0.99031384 4:0.98721207 5:0.98826245 6:0.99006272 7:0.9940063 8:0.99487187 9:0.99363147 10:0.99344403 11:0.99573428 12:0.99186012 13:0.99159132 14:0.99239359 15:0.99215815 16:0.99134703 17:0.99306069 18:0.98594518 19:0.98771456 20:0.98828139 21:0.97438121 22:0.98022172 23:0.97003026 24:0.96050841 25:0.92791033 26:0.81114735 27:0.79238591 28:0.83253951 29:0.94807104 30:0.87419623 31:0.74240993 32:0.73691551 
9.3263305410064277 1:0.99466862 2:0.99838614 3:0.99992152 4:0.99997928 5:0.99998644 6:0.99998884 7:0.99999278 8:0.99999469 9:0.99999429 10:0.99999382 11:0.99999441 12:0.99999451 13:0.99999397 14:0.99999223 15:0.99999303 16:0.99999312 17:0.99999111 18:0.99980691 19:0.89740269 20:0.63002361 21:0.32035039 22:0.34568815 23:0.18824037 24:0.10748437 25:0.097289561 26:0.10503575 27:0.1235681 28:0.14001279 29:0.19725469 30:0.2572576 31:0.1881439 32:0.30726765 
34.126682400841688 1:0.96702143 2:0.98937137 3:0.9912482 4:0.9958802 5:0.99633944 6:0.99790741 7:0.99747084 8:0.99685945 9:0.99318843 10:0.98801387 11:0.9881109 12:0.98986373 13:0.98812111 14:0.98350923 15:0.9937034 16:0.99570568 17:0.99235956 18:0.99424862 19:0.99623377 20:0.99526495 21:0.99462778 22:0.9956279 23:0.99706388 24:0.99189866 25:0.94550758 26:0.8094251 27:0.72209334 28:0.82178015 29:0.8594263 30:0.76977391 31:0.59740296 32:0.50662057 
126.237786175 1:0.68103978 2:0.88839207 3:0.96671951 4:0.98649857 5:0.99616078 6:0.99761296 7:0.99477221 8:0.9918396 9:0.99116167 10:0.98694496 11:0.97983619 12:0.98053398 13:0.97682702 14:0.96667804 15:0.98626891 16:0.98782867 17:0.98657317 18:0.98498523 19:0.99036308 20:0.98413727 21:0.98279416 22:0.98006217 23:0.98307727 24:0.97429347 25:0.98013779 26:0.98600678 27:0.9812148 28:0.96084032 29:0.93838481 30:0.85002208 31:0.90117335 32:0.90021222 
