svm_type nu_svr
kernel_type rbf
gamma 3.17773760038
nr_class 2
total_sv 473
rho -2.6523492189796478
SV
-5.3147432563899999 1:1 2:1 3:1 4:1 5:1 6:1 7:1 8:1 9:1 10:1 11:1 12:1 13:1 14:1 15:1 16:1 17:1 18:1 19:1 20:1 21:1 
-5.3147432563899999 1:0.99920566 2:0.99950448 3:0.99925853 4:0.99945956 5:0.99927494 6:0.99899237 7:0.99932189 8:0.99936717 9:0.99954985 10:0.99954522 11:0.9994371 12:0.99980271 13:0.99985806 14:0.99986779 15:0.99980099 16:0.99976866 17:0.99951098 18:0.99985612 19:0.99981505 20:0.99972345 21:0.99978975 
-5.3147432563899999 1:0.99995314 2:0.9996754 3:0.99846416 4:0.99919414 5:0.99955774 6:0.9998629 7:0.99987122 8:0.99990291 9:0.99988426 10:0.99983655 11:0.99906019 12:0.99913893 13:0.99982165 14:0.99993539 15:0.99995351 16:0.99996271 17:0.99996506 18:0.99996659 19:0.99989139 20:0.99984538 21:0.99985418 
5.3147432563899999 1:0.99320642 2:0.98411017 3:0.97054554 4:0.95807138 5:0.95482095 6:0.95538261 7:0.96339687 8:0.96668136 9:0.98114648 10:0.97897946 11:0.99334937 12:0.995768 13:0.99521226 14:0.99336724 15:0.99088436 16:0.9902187 17:0.99416673 18:0.99331844 19:0.99085219 20:0.98843873 21:0.99186105 
-5.3147432563899999 1:0.99935342 2:0.9995876 3:0.9957726 4:0.99440874 5:0.99723626 6:0.99796272 7:0.99800712 8:0.99693133 9:0.99512523 10:0.99388014 11:0.99659645 12:0.99745 13:0.99610267 14:0.9969417 15:0.99971273 16:0.9996614 17:0.99955421 18:0.9998518 19:0.99988036 20:0.99989436 21:0.99980047 
-5.3147432563899999 1:0.99934534 2:0.99898212 3:0.99752846 4:0.99568141 5:0.99837392 6:0.99880824 7:0.99752251 8:0.99420559 9:0.99601955 10:0.99794922 11:0.99944468 12:0.99977733 13:0.99960938 14:0.99933144 15:0.99979293 16:0.99987536 17:0.99986722 18:0.99941459 19:0.99972666 20:0.99966968 21:0.99971275 
5.3147432563899999 1:0.91536379 2:0.96935591 3:0.97616174 4:0.95964426 5:0.96770982 6:0.96317204 7:0.9603026 8:0.97503734 9:0.9624756 10:0.96373348 11:0.96896232 12:0.96675484 13:0.97819416 14:0.97651439 15:0.9780691 16:0.9815809 17:0.97938349 18:0.97716139 19:0.97796119 20:0.97909919 21:0.98105045 
5.3147432563899999 1:0.92207374 2:0.9588833 3:0.97740516 4:0.9631818 5:0.96387672 6:0.96713457 7:0.96800942 8:0.97282296 9:0.96235886 10:0.96587273 11:0.97373414 12:0.97821857 13:0.97550312 14:0.9774911 15:0.98142692 16:0.98171935 17:0.98244982 18:0.9788212 19:0.96863811 20:0.95271198 21:0.91431771 
5.3147432563899999 1:0.97469717 2:0.96739809 3:0.91490593 4:0.93957064 5:0.96589875 6:0.96525155 7:0.96378025 8:0.97824005 9:0.97345448 10:0.97557366 11:0.98226786 12:0.98170449 13:0.97547501 14:0.98506454 15:0.98073827 16:0.97767284 17:0.97694816 18:0.96588125 19:0.95130057 20:0.94680582 21:0.94256017 
-5.3147432563899999 1:0.99358373 2:0.98128301 3:0.96804507 4:0.96797089 5:0.96408435 6:0.96850051 7:0.97335906 8:0.98750958 9:0.98866084 10:0.99412034 11:0.99637695 12:0.99621934 13:0.99711663 14:0.99535919 15:0.998464 16:0.99900175 17:0.99920244 18:0.99928281 19:0.99875422 20:0.99700965 21:0.99701874 
-5.3147432563899999 1:0.99730514 2:0.99564656 3:0.99020154 4:0.97739421 5:0.9882781 6:0.99545802 7:0.98992527 8:0.99395153 9:0.99820065 10:0.99866731 11:0.99836778 12:0.99879062 13:0.99964528 14:0.99964447 15:0.99908626 16:0.99890098 17:0.99907727 18:0.99972058 19:0.99920683 20:0.99425668 21:0.99678573 
-5.3147432563899999 1:0.9898149 2:0.96803695 3:0.93707547 4:0.92387168 5:0.89910806 6:0.92046416 7:0.91171286 8:0.91807151 9:0.94009766 10:0.93125178 11:0.96693964 12:0.96939248 13:0.98049804 14:0.99318117 15:0.99374396 16:0.97954482 17:0.97279511 18:0.9803047 19:0.99169404 20:0.99309098 21:0.98885901 
5.3147432563899999 1:0.98682918 2:0.97549446 3:0.96360456 4:0.93745673 5:0.9251818 6:0.93573689 7:0.92857454 8:0.8914147 9:0.8236392 10:0.84481125 11:0.85284445 12:0.88826046 13:0.92014591 14:0.95103935 15:0.97165179 16:0.96867775 17:0.97449389 18:0.97572605 19:0.98117487 20:0.98314825 21:0.96910165 
5.3147432563899999 1:0.90607314 2:0.94866174 3:0.948055 4:0.93594079 5:0.92741589 6:0.92748321 7:0.92797643 8:0.92895921 9:0.94994015 10:0.94905014 11:0.93363697 12:0.94008081 13:0.95969974 14:0.95137901 15:0.94863894 16:0.96403025 17:0.96354446 18:0.96074204 19:0.94619842 20:0.92740877 21:0.93489976 
5.3147432563899999 1:0.84439907 2:0.91548312 3:0.93502598 4:0.92476778 5:0.93439198 6:0.94020627 7:0.92362573 8:0.92725772 9:0.93310483 10:0.9230226 11:0.92909029 12:0.93648933 13:0.93309121 14:0.94881573 15:0.96250874 16:0.96366609 17:0.97459419 18:0.9833261 19:0.98823993 20:0.9683453 21:0.88088329 
-5.3147432563899999 1:0.94548228 2:0.96561867 3:0.9511064 4:0.92747187 5:0.93697677 6:0.95165926 7:0.96468683 8:0.97501568 9:0.96287176 10:0.955883 11:0.95153496 12:0.97692147 13:0.96951067 14:0.97955076 15:0.97988077 16:0.97939807 17:0.98794364 18:0.98014463 19:0.95399508 20:0.95311259 21:0.94105476 
-0.008497274234103196 1:0.76044593 2:0.84447131 3:0.89958828 4:0.91739287 5:0.92210693 6:0.9281655 7:0.91009104 8:0.91737189 9:0.92730317 10:0.93856614 11:0.92603369 12:0.9473961 13:0.95622886 14:0.96207218 15:0.96471708 16:0.95836292 17:0.96177604 18:0.96620728 19:0.9536317 20:0.92489721 21:0.83472521 
5.3147432563899999 1:0.90378115 2:0.93171465 3:0.91581145 4:0.90550168 5:0.88332618 6:0.88910111 7:0.89215532 8:0.89479695 9:0.91379759 10:0.91611545 11:0.91109034 12:0.89689334 13:0.91427075 14:0.95528463 15:0.95517971 16:0.94283701 17:0.93817702 18:0.9599471 19:0.94678691 20:0.88861094 21:0.88950137 
-1.9273261786243223 1:0.94028448 2:0.94297861 3:0.89766431 4:0.91159311 5:0.92647071 6:0.93871186 7:0.95183033 8:0.94993681 9:0.91991166 10:0.90086665 11:0.95593245 12:0.96961371 13:0.96964059 14:0.97508487 15:0.97382621 16:0.96609939 17:0.97488282 18:0.96575366 19:0.93740283 20:0.91846846 21:0.92031263 
5.3147432563899999 1:0.95359285 2:0.94934114 3:0.9344025 4:0.90544902 5:0.89782649 6:0.9403495 7:0.92418962 8:0.92601087 9:0.92717122 10:0.91646535 11:0.94164061 12:0.95958216 13:0.96093018 14:0.97362823 15:0.98253483 16:0.97993559 17:0.97565636 18:0.98619324 19:0.98833854 20:0.98027975 21:0.98544379 
5.3147432563899999 1:0.96437032 2:0.97827961 3:0.96354918 4:0.91273788 5:0.8942179 6:0.93967361 7:0.9465318 8:0.91647128 9:0.91777153 10:0.91077337 11:0.94200823 12:0.94027949 13:0.9536106 14:0.97336667 15:0.98734128 16:0.97956741 17:0.99341145 18:0.99506272 19:0.99777079 20:0.99388451 21:0.94686238 
5.3147432563899999 1:0.95997234 2:0.94829158 3:0.93272013 4:0.93382173 5:0.94352232 6:0.94828306 7:0.94244285 8:0.92533732 9:0.92632548 10:0.94423416 11:0.9354395 12:0.92371288 13:0.93221204 14:0.97541111 15:0.98558309 16:0.98308849 17:0.97455103 18:0.97235883 19:0.97117338 20:0.98046832 21:0.97090022 
5.3147432563899999 1:0.92685572 2:0.9424495 3:0.94725931 4:0.95022269 5:0.96885224 6:0.94757504 7:0.93979582 8:0.95484563 9:0.96902466 10:0.95398529 11:0.94834494 12:0.98097368 13:0.99527924 14:0.99799856 15:0.99741725 16:0.97961525 17:0.97015037 18:0.97961414 19:0.95518367 20:0.94682416 21:0.97514861 
-5.3147432563899999 1:0.89966166 2:0.92516115 3:0.9188715 4:0.91101296 5:0.91448562 6:0.92314745 7:0.92236418 8:0.95684631 9:0.96285255 10:0.95789336 11:0.96915944 12:0.97703195 13:0.97039116 14:0.96602691 15:0.97952928 16:0.98925076 17:0.99050467 18:0.98094287 19:0.96578219 20:0.96013211 21:0.96015685 
-5.3147432563899999 1:0.86611437 2:0.92381769 3:0.88671871 4:0.85268467 5:0.85675292 6:0.91457459 7:0.87322891 8:0.8557464 9:0.89874143 10:0.89911571 11:0.91055896 12:0.92049226 13:0.88461193 14:0.91383079 15:0.9129526 16:0.91010214 17:0.91946968 18:0.92906366 19:0.95387755 20:0.98018885 21:0.97002124 
5.3147432563899999 1:0.94163903 2:0.92850752 3:0.87929855 4:0.86777024 5:0.86648445 6:0.86403421 7:0.88303942 8:0.88555339 9:0.89215944 10:0.89854614 11:0.90279195 12:0.90198961 13:0.93126111 14:0.94499761 15:0.93641621 16:0.93072663 17:0.92200729 18:0.93265481 19:0.93338525 20:0.91788694 21:0.91732015 
5.3147432563899999 1:0.95491477 2:0.94407633 3:0.93132879 4:0.92326417 5:0.94834064 6:0.9416947 7:0.90765717 8:0.8929616 9:0.88789529 10:0.90331871 11:0.93635475 12:0.94795302 13:0.95901222 14:0.97572923 15:0.96751968 16:0.96462132 17:0.96601188 18:0.95421925 19:0.90920061 20:0.91421487 21:0.90992907 
-5.3147432563899999 1:0.86135779 2:0.87691138 3:0.84264555 4:0.82284266 5:0.79149125 6:0.78405237 7:0.80478329 8:0.81924554 9:0.82632874 10:0.84812504 11:0.88282174 12:0.8869121 13:0.88885064 14:0.89548049 15:0.94164398 16:0.95119708 17:0.9476049 18:0.90342898 19:0.88703772 20:0.90947907 21:0.91236308 
5.3147432563899999 1:0.89590262 2:0.95750098 3:0.96623523 4:0.96961907 5:0.94336833 6:0.93622868 7:0.90244792 8:0.89704722 9:0.88665183 10:0.84182014 11:0.78955864 12:0.82135261 13:0.8748827 14:0.90469163 15:0.91390017 16:0.92937615 17:0.91826469 18:0.88268284 19:0.94799653 20:0.95327067 21:0.8842546 
-5.3147432563899999 1:0.91630176 2:0.90657504 3:0.89561172 4:0.88420105 5:0.89909516 6:0.91444112 7:0.87838282 8:0.89446706 9:0.88784431 10:0.88093874 11:0.91187013 12:0.93139556 13:0.91446747 14:0.92869701 15:0.92078997 16:0.92292281 17:0.95287687 18:0.96830786 19:0.96605938 20:0.95000464 21:0.96721801 
2.176310033109639 1:0.90401255 2:0.89260242 3:0.87974673 4:0.89112158 5:0.95123439 6:0.94888207 7:0.93811063 8:0.91556716 9:0.90875225 10:0.88570095 11:0.8955946 12:0.92415752 13:0.94563202 14:0.95553089 15:0.97630491 16:0.95870908 17:0.94766473 18:0.94243922 19:0.86747756 20:0.84831343 21:0.85963657 
5.3147432563899999 1:0.88270666 2:0.90925434 3:0.90472849 4:0.90359834 5:0.90377358 6:0.87342798 7:0.84748285 8:0.86436141 9:0.85826004 10:0.89274842 11:0.87262609 12:0.87592512 13:0.89962815 14:0.90995763 15:0.91741765 16:0.92419014 17:0.91095595 18:0.8946734 19:0.87507525 20:0.87507501 21:0.87209349 
-1.9291922171659894 1:0.76671101 2:0.8547355 3:0.90602738 4:0.89918628 5:0.87709423 6:0.85354433 7:0.82557218 8:0.83363403 9:0.8228744 10:0.77606484 11:0.76721434 12:0.83609959 13:0.82471965 14:0.77243464 15:0.76130825 16:0.84558569 17:0.92060247 18:0.92285414 19:0.92196094 20:0.97272856 21:0.91233186 
-5.3147432563899999 1:0.94102436 2:0.93049008 3:0.89793027 4:0.90819317 5:0.93649399 6:0.92109206 7:0.90393726 8:0.90870648 9:0.8821295 10:0.86778865 11:0.88038217 12:0.91185978 13:0.94071544 14:0.93660053 15:0.94649908 16:0.94186448 17:0.96162434 18:0.98295049 19:0.95045266 20:0.93988166 21:0.90412395 
0.40462547407490657 1:0.96337965 2:0.97061581 3:0.95529503 4:0.9321665 5:0.93133215 6:0.93476863 7:0.90681089 8:0.93442504 9:0.9337025 10:0.93699384 11:0.9511856 12:0.95912449 13:0.98821538 14:0.99316647 15:0.99807371 16:0.9991993 17:0.99660629 18:0.99137378 19:0.98926357 20:0.9836151 21:0.98481748 
-5.3147432563899999 1:0.96467928 2:0.98620439 3:0.98047389 4:0.96931754 5:0.9758968 6:0.96929213 7:0.94842152 8:0.95730087 9:0.93816506 10:0.91240877 11:0.92330405 12:0.93476923 13:0.93484398 14:0.97356557 15:0.99392142 16:0.98112553 17:0.99004183 18:0.99666706 19:0.9989336 20:0.99974576 21:0.99630665 
-1.463086163782348 1:0.97391136 2:0.96600276 3:0.95537352 4:0.94923844 5:0.9733871 6:0.97573452 7:0.95171496 8:0.96132112 9:0.96044134 10:0.96860805 11:0.95030809 12:0.95679716 13:0.98047677 14:0.99569817 15:0.99679239 16:0.99223098 17:0.98938695 18:0.97849489 19:0.96447043 20:0.95681565 21:0.96646383 
-5.3147432563899999 1:0.9830661 2:0.96110448 3:0.95186181 4:0.94671983 5:0.97089688 6:0.97438479 7:0.96386501 8:0.95818322 9:0.97213746 10:0.99338209 11:0.98798821 12:0.98110346 13:0.97287416 14:0.97377945 15:0.99254574 16:0.99913125 17:0.99896345 18:0.99179717 19:0.97707006 20:0.98566547 21:0.9779015 
-5.3147432563899999 1:0.791896 2:0.84495742 3:0.82357933 4:0.83898317 5:0.84654279 6:0.84610832 7:0.84400775 8:0.85603292 9:0.86979608 10:0.89054408 11:0.91108287 12:0.93837548 13:0.94101741 14:0.94433889 15:0.93661137 16:0.89904365 17:0.91141451 18:0.89796077 19:0.90318131 20:0.89284623 21:0.85485993 
-5.3147432563899999 1:0.75227473 2:0.88561837 3:0.9274175 4:0.90778843 5:0.89794372 6:0.88351996 7:0.86774895 8:0.87116763 9:0.87500784 10:0.82604964 11:0.86461803 12:0.89599778 13:0.87607632 14:0.91178755 15:0.91505189 16:0.89337993 17:0.9270914 18:0.95029329 19:0.96359674 20:0.92380862 21:0.89062857 
-3.7423856512430902 1:0.96499467 2:0.99106687 3:0.99398531 4:0.99252231 5:0.98612695 6:0.94905289 7:0.91990262 8:0.94316994 9:0.91586711 10:0.89027401 11:0.85036304 12:0.8506268 13:0.88210855 14:0.95080611 15:0.96772568 16:0.97913459 17:0.96200903 18:0.93803915 19:0.91413926 20:0.85604083 21:0.80082949 
3.726720490087144 1:0.90336149 2:0.8971211 3:0.87198431 4:0.88902776 5:0.89645319 6:0.83215903 7:0.81254575 8:0.8307257 9:0.82855665 10:0.79938959 11:0.8271514 12:0.8544344 13:0.87078624 14:0.91341024 15:0.91443744 16:0.93305368 17:0.92175961 18:0.90089652 19:0.88537044 20:0.83776312 21:0.84738223 
-1.9384082079957585 1:0.85373755 2:0.88440748 3:0.8705027 4:0.85386393 5:0.82523783 6:0.81437183 7:0.82189233 8:0.86456281 9:0.87978359 10:0.90646968 11:0.90192143 12:0.88796695 13:0.92212592 14:0.95056343 15:0.97226899 16:0.94801871 17:0.87343192 18:0.86112771 19:0.83544642 20:0.74929824 21:0.77291129 
-5.3147432563899999 1:0.7242009 2:0.80950953 3:0.82713573 4:0.7802775 5:0.77578884 6:0.82002765 7:0.80966844 8:0.81148254 9:0.80085011 10:0.75453472 11:0.69724655 12:0.81945509 13:0.84003617 14:0.8318137 15:0.86460097 16:0.82062437 17:0.78006996 18:0.79742159 19:0.86253077 20:0.84713158 21:0.78311067 
-5.3147432563899999 1:0.96907628 2:0.9605517 3:0.93402183 4:0.9275718 5:0.90906913 6:0.86135429 7:0.86507782 8:0.90763909 9:0.88245113 10:0.88034427 11:0.86192129 12:0.9052087 13:0.93822512 14:0.94872592 15:0.96035097 16:0.9619603 17:0.95923061 18:0.95018305 19:0.91694729 20:0.84040622 21:0.85033662 
-1.418293640345812 1:0.91368965 2:0.9032605 3:0.87426591 4:0.83128349 5:0.87621379 6:0.86659641 7:0.8684756 8:0.86506308 9:0.80706238 10:0.83717228 11:0.81116942 12:0.73366241 13:0.83299687 14:0.8702505 15:0.90609022 16:0.91225508 17:0.85037204 18:0.81236426 19:0.75472507 20:0.70002763 21:0.7114773 
5.3147432563899999 1:0.82736429 2:0.88114283 3:0.84193281 4:0.81586927 5:0.77999654 6:0.74298022 7:0.73606543 8:0.68680462 9:0.66110308 10:0.67277151 11:0.66769104 12:0.73248385 13:0.7636824 14:0.81456917 15:0.89933425 16:0.89229521 17:0.86283336 18:0.8328811 19:0.84834517 20:0.82374901 21:0.8085035 
-0.58653981466916005 1:0.89038973 2:0.91403578 3:0.9317246 4:0.91673352 5:0.90856695 6:0.87458875 7:0.81058874 8:0.80234047 9:0.65120823 10:0.6093619 11:0.71492722 12:0.77226463 13:0.73999666 14:0.82918561 15:0.86954206 16:0.87076234 17:0.86761694 18:0.89301467 19:0.94331823 20:0.93916422 21:0.91537507 
-5.3147432563899999 1:0.91893842 2:0.9149116 3:0.89046708 4:0.86907233 5:0.86653401 6:0.87351402 7:0.87758657 8:0.87032161 9:0.89024367 10:0.8717357 11:0.87295351 12:0.86339096 13:0.87810641 14:0.90569221 15:0.93124317 16:0.91392524 17:0.88678399 18:0.83993935 19:0.84308088 20:0.81430401 21:0.76276476 
-5.3147432563899999 1:0.95317635 2:0.94401236 3:0.8942937 4:0.8731606 5:0.91395638 6:0.93923783 7:0.86517494 8:0.84824815 9:0.87546057 10:0.89230702 11:0.95609975 12:0.88909529 13:0.8546701 14:0.87531242 15:0.87318683 16:0.8453001 17:0.89525765 18:0.82790781 19:0.88636187 20:0.91060763 21:0.90646972 
0.42694840848048271 1:0.76851628 2:0.84147638 3:0.83222727 4:0.73325937 5:0.73463024 6:0.76579193 7:0.70316564 8:0.70547119 9:0.78180682 10:0.77473036 11:0.73545346 12:0.78661616 13:0.77497092 14:0.80633039 15:0.90133987 16:0.9268151 17:0.88788884 18:0.66602574 19:0.49527697 20:0.52247154 21:0.50844882 
-0.82626528635448593 1:0.86884902 2:0.8545489 3:0.82224235 4:0.85159658 5:0.82962538 6:0.82300753 7:0.86330956 8:0.79369614 9:0.74557635 10:0.62657776 11:0.63646827 12:0.61817117 13:0.76037702 14:0.86108475 15:0.86072735 16:0.82714657 17:0.84884705 18:0.88405976 19:0.87846881 20:0.76933338 21:0.75188981 
1.3107705669152381 1:0.89408997 2:0.87967175 3:0.86718806 4:0.85305282 5:0.87635671 6:0.81068274 7:0.8295383 8:0.87537028 9:0.73589203 10:0.70625549 11:0.64749865 12:0.73826581 13:0.85619061 14:0.87862036 15:0.89204626 16:0.82836211 17:0.80141366 18:0.75815541 19:0.63581943 20:0.5275109 21:0.58529903 
-3.5133998097918888 1:0.8309258 2:0.91209074 3:0.89345418 4:0.81987483 5:0.80399074 6:0.7913262 7:0.81259823 8:0.82769434 9:0.84157491 10:0.81115187 11:0.80513805 12:0.81002107 13:0.78068871 14:0.77286857 15:0.82181359 16:0.85465859 17:0.86237486 18:0.89609135 19:0.91160812 20:0.84512083 21:0.83369035 
-0.19852025612457569 1:0.70826858 2:0.86757207 3:0.91163785 4:0.876356 5:0.8505534 6:0.86026084 7:0.80046335 8:0.78500482 9:0.71669876 10:0.69965468 11:0.69312266 12:0.68266976 13:0.69660079 14:0.68132334 15:0.74875594 16:0.80879204 17:0.84569499 18:0.90410512 19:0.90910443 20:0.87842752 21:0.76345395 
-5.3147432563899999 1:0.81765115 2:0.80235568 3:0.74686599 4:0.74645344 5:0.74956328 6:0.73132732 7:0.7293852 8:0.77887326 9:0.77008943 10:0.73421844 11:0.71454905 12:0.7446636 13:0.7602263 14:0.78509806 15:0.80744054 16:0.80418232 17:0.79124788 18:0.80296752 19:0.82308264 20:0.80862648 21:0.76909399 
-5.3147432563899999 1:0.9631262 2:0.95914139 3:0.89969933 4:0.90828626 5:0.91033111 6:0.87337409 7:0.88982595 8:0.92154278 9:0.88357575 10:0.90184844 11:0.80514457 12:0.88863882 13:0.94067775 14:0.94117268 15:0.91002933 16:0.86385668 17:0.89375359 18:0.90493793 19:0.75898221 20:0.77443845 21:0.78504037 
-1.9995634630828609 1:0.66143718 2:0.80819885 3:0.78986656 4:0.76586121 5:0.7792626 6:0.72764605 7:0.66067313 8:0.66033798 9:0.73816561 10:0.77325706 11:0.72006137 12:0.66888997 13:0.75812268 14:0.80177341 15:0.82532515 16:0.81988908 17:0.70352967 18:0.49190373 19:0.5074558 20:0.47717081 21:0.42340011 
-2.3931035978597377 1:0.62729285 2:0.75289008 3:0.81010083 4:0.71666627 5:0.69228495 6:0.69874628 7:0.6751453 8:0.67138131 9:0.6822692 10:0.65385279 11:0.61640263 12:0.60990945 13:0.66306321 14:0.75293766 15:0.72429728 16:0.56954752 17:0.62728781 18:0.72196028 19:0.77303849 20:0.73663247 21:0.48601316 
-0.7069586875577839 1:0.85462239 2:0.88539051 3:0.85018374 4:0.84920805 5:0.78538768 6:0.78651759 7:0.74225429 8:0.60942536 9:0.46651907 10:0.45612738 11:0.54004393 12:0.66300634 13:0.84021708 14:0.84334593 15:0.77544812 16:0.76888671 17:0.67730815 18:0.68594277 19:0.69344971 20:0.63731883 21:0.66664931 
-3.2242788793294261 1:0.87708872 2:0.86626595 3:0.81786357 4:0.81608736 5:0.85518172 6:0.79803129 7:0.84173198 8:0.86233405 9:0.77768066 10:0.74371158 11:0.66936951 12:0.59205619 13:0.55542351 14:0.68283059 15:0.73083941 16:0.78207692 17:0.85910643 18:0.80060749 19:0.63318722 20:0.5999661 21:0.69537489 
-5.3147432563899999 1:1 2:1 3:1 4:1 5:1 6:1 7:1 8:1 9:1 10:1 11:1 12:1 13:1 14:1 15:1 16:1 17:1 18:1 19:1 20:1 21:1 
-5.3147432563899999 1:1 2:1 3:1 4:1 5:1 6:1 7:1 8:1 9:1 10:1 11:1 12:1 13:1 14:1 15:1 16:1 17:1 18:1 19:1 20:1 21:1 
5.3147432563899999 1:0.94041717 2:0.9825187 3:0.97819688 4:0.97574366 5:0.97754136 6:0.98121591 7:0.97641205 8:0.97342399 9:0.9800748 10:0.98389874 11:0.98274015 12:0.98958968 13:0.98924271 14:0.99367785 15:0.99674524 16:0.9937957 17:0.99207874 18:0.99131598 19:0.98641927 20:0.98756716 21:0.98781098 
5.3147432563899999 1:0.9932144 2:0.99706077 3:0.99868661 4:0.99939442 5:0.99960835 6:0.99941828 7:0.99972067 8:0.99981141 9:0.99989196 10:0.99986745 11:0.99990909 12:0.99995968 13:0.99981917 14:0.9998764 15:0.9997934 16:0.99925074 17:0.99984855 18:0.99985204 19:0.9993155 20:0.99520068 21:0.98596727 
-5.3147432563899999 1:0.99912874 2:0.99965206 3:0.99979578 4:0.99962425 5:0.99992622 6:0.99997987 7:0.99998192 8:0.99992783 9:0.99984919 10:0.99980526 11:0.99975627 12:0.99988606 13:0.99991543 14:0.99981805 15:0.99972271 16:0.99963593 17:0.99887012 18:0.9989596 19:0.99852973 20:0.99591545 21:0.99472295 
-5.3147432563899999 1:0.99992335 2:0.99997306 3:0.99997604 4:0.9999769 5:0.99998607 6:0.99999304 7:0.99999463 8:0.99998783 9:0.9999565 10:0.99995267 11:0.99997485 12:0.99998767 13:0.99996862 14:0.99994138 15:0.99984904 16:0.99975512 17:0.99979427 18:0.9995223 19:0.99763521 20:0.99658061 21:0.99839538 
-5.3147432563899999 1:0.99961751 2:0.99999129 3:0.9999945 4:0.99999304 5:0.99999034 6:0.99999787 7:0.99999857 8:0.99999376 9:0.99998835 10:0.99999582 11:0.99999829 12:0.99999854 13:0.99999882 14:0.9999983 15:0.99999774 16:0.99999832 17:0.99999968 18:0.99999987 19:0.99999983 20:0.99999898 21:0.99999807 
-5.3147432563899999 1:0.99999704 2:0.9999986 3:0.99999882 4:0.99999915 5:0.99999856 6:0.99999903 7:0.9999994 8:0.99999903 9:0.99999816 10:0.9999972 11:0.99999727 12:0.99999538 13:0.99999503 14:0.99999906 15:0.99999939 16:0.99999955 17:0.99999953 18:0.99999946 19:0.99999933 20:0.99999928 21:0.99999922 
-5.3147432563899999 1:0.98491864 2:0.99455048 3:0.99938424 4:0.99973606 5:0.99970917 6:0.99938945 7:0.99934812 8:0.99941773 9:0.99846166 10:0.99778947 11:0.99801297 12:0.99795634 13:0.99847007 14:0.99917049 15:0.99893518 16:0.9977185 17:0.99612771 18:0.99856382 19:0.99720993 20:0.98534101 21:0.97500726 
-5.3147432563899999 1:0.99999396 2:0.99999578 3:0.99999627 4:0.9999969 5:0.99999854 6:0.99999891 7:0.99999567 8:0.99999726 9:0.99999509 10:0.99999814 11:0.99999376 12:0.99999884 13:0.99999914 14:0.99999877 15:0.99999841 16:0.99999362 17:0.99999761 18:0.9999967 19:0.99997216 20:0.9999745 21:0.99997352 
-5.3147432563899999 1:0.99844105 2:0.99940724 3:0.9989844 4:0.99908674 5:0.99906554 6:0.99960252 7:0.99871839 8:0.99879468 9:0.9988655 10:0.99682924 11:0.99973267 12:0.99985128 13:0.99934431 14:0.99933794 15:0.9990645 16:0.99759882 17:0.99527919 18:0.99670393 19:0.99347995 20:0.99681554 21:0.99919157 
5.3147432563899999 1:0.96671489 2:0.9812333 3:0.98194288 4:0.97617451 5:0.98260867 6:0.97249033 7:0.96951874 8:0.97912048 9:0.98442211 10:0.98029754 11:0.9837139 12:0.99026367 13:0.9907085 14:0.9878256 15:0.98935 16:0.97271857 17:0.9623028 18:0.96587849 19:0.9697692 20:0.96802886 21:0.96619634 
5.3147432563899999 1:0.90609446 2:0.94219151 3:0.97303483 4:0.97253493 5:0.95844375 6:0.96551681 7:0.96450688 8:0.97265235 9:0.9726805 10:0.96402756 11:0.96220859 12:0.97374936 13:0.98018129 14:0.98219307 15:0.97572729 16:0.96484846 17:0.97125034 18:0.9712473 19:0.95505652 20:0.93853409 21:0.90209394 
-5.3147432563899999 1:0.98851989 2:0.98857554 3:0.98503284 4:0.98772378 5:0.98703723 6:0.98947658 7:0.98665818 8:0.97525318 9:0.97357728 10:0.97123973 11:0.96934527 12:0.98834836 13:0.98628567 14:0.97620067 15:0.96890848 16:0.97864521 17:0.9816261 18:0.98388004 19:0.98144226 20:0.97465712 21:0.96837677 
5.3147432563899999 1:0.88474074 2:0.95504678 3:0.96937949 4:0.95883405 5:0.9328007 6:0.95194664 7:0.96624683 8:0.97813279 9:0.96583838 10:0.95109839 11:0.91585434 12:0.92440612 13:0.95651806 14:0.95120957 15:0.96400408 16:0.93660551 17:0.93863085 18:0.9554239 19:0.93533073 20:0.90909738 21:0.91480269 
-5.3147432563899999 1:0.86988756 2:0.96481671 3:0.99546516 4:0.99901645 5:0.99691027 6:0.99173896 7:0.99873166 8:0.99790063 9:0.99376118 10:0.98076856 11:0.97387864 12:0.98154587 13:0.98495576 14:0.98719232 15:0.98833889 16:0.97890353 17:0.97382797 18:0.97264671 19:0.99525966 20:0.99366113 21:0.96482336 
-5.3147432563899999 1:0.99236307 2:0.99882125 3:0.99880724 4:0.99669724 5:0.99824132 6:0.99868304 7:0.99849053 8:0.99334367 9:0.98055067 10:0.9842638 11:0.98480765 12:0.98859724 13:0.99452276 14:0.99772956 15:0.99413827 16:0.99095422 17:0.9983207 18:0.99803382 19:0.99728513 20:0.99565372 21:0.99540656 
-5.3147432563899999 1:0.9765428 2:0.98904691 3:0.9923829 4:0.99608686 5:0.99676082 6:0.99379087 7:0.98616744 8:0.98849703 9:0.99068468 10:0.9941645 11:0.99650221 12:0.99309115 13:0.98733221 14:0.98601765 15:0.99153339 16:0.99317239 17:0.99054367 18:0.98625322 19:0.98960275 20:0.98834132 21:0.98455906 
-5.3147432563899999 1:0.94875365 2:0.98436302 3:0.99459216 4:0.99204911 5:0.98276951 6:0.99191564 7:0.99344999 8:0.97683958 9:0.99389283 10:0.99449532 11:0.9954895 12:0.99439494 13:0.99706315 14:0.99506808 15:0.98824914 16:0.98334566 17:0.99554372 18:0.99734328 19:0.99571823 20:0.98918668 21:0.96825365 
-5.3147432563899999 1:0.98132542 2:0.99603627 3:0.99744198 4:0.99540013 5:0.99201656 6:0.98391758 7:0.99271919 8:0.99567923 9:0.98857074 10:0.97847616 11:0.98387253 12:0.97558069 13:0.99432721 14:0.99623567 15:0.99376235 16:0.98591459 17:0.99339444 18:0.99707739 19:0.9980387 20:0.98699787 21:0.98284473 
-5.3147432563899999 1:0.9992929 2:0.9984708 3:0.99613128 4:0.99851071 5:0.99883625 6:0.9990599 7:0.99772208 8:0.99905895 9:0.99934204 10:0.99688542 11:0.99924601 12:0.99915798 13:0.99945355 14:0.99790532 15:0.99317107 16:0.99820659 17:0.99973795 18:0.99980329 19:0.99803883 20:0.99855566 21:0.99888571 
5.3147432563899999 1:0.88476818 2:0.92941564 3:0.92249936 4:0.92846596 5:0.92334425 6:0.91795091 7:0.90701392 8:0.90355287 9:0.90201293 10:0.8996127 11:0.89942529 12:0.92027491 13:0.94234838 14:0.93304148 15:0.92692401 16:0.92110687 17:0.90320735 18:0.91542039 19:0.9149278 20:0.89935517 21:0.89297314 
5.3147432563899999 1:0.85525406 2:0.93722918 3:0.9629003 4:0.95775266 5:0.95015105 6:0.93284824 7:0.94022531 8:0.94842306 9:0.9498173 10:0.93040652 11:0.90766875 12:0.93898413 13:0.93579506 14:0.90090299 15:0.87972176 16:0.92562877 17:0.92931458 18:0.95511227 19:0.95030755 20:0.92846455 21:0.87572414 
5.3147432563899999 1:0.90407137 2:0.96302489 3:0.96097463 4:0.96119333 5:0.95522542 6:0.9264536 7:0.94659799 8:0.94922005 9:0.93428331 10:0.91617833 11:0.92717554 12:0.93870387 13:0.92485734 14:0.91840413 15:0.93296685 16:0.9293419 17:0.92695695 18:0.92331732 19:0.90103493 20:0.85253819 21:0.86100512 
5.3147432563899999 1:0.95174405 2:0.93964573 3:0.91243827 4:0.92513276 5:0.95382245 6:0.94852396 7:0.94903587 8:0.96283709 9:0.94355469 10:0.92314606 11:0.93357531 12:0.93810636 13:0.92704265 14:0.92476276 15:0.93132885 16:0.93826915 17:0.93504398 18:0.92043322 19:0.89145648 20:0.8530798 21:0.84493791 
5.3147432563899999 1:0.90345883 2:0.93576634 3:0.94771598 4:0.94948726 5:0.94951072 6:0.95086183 7:0.94945879 8:0.95016648 9:0.9541656 10:0.95780612 11:0.94584276 12:0.95350873 13:0.96651781 14:0.96109905 15:0.9443482 16:0.96046933 17:0.94715166 18:0.90006112 19:0.93445023 20:0.91550046 21:0.88320853 
5.3147432563899999 1:0.8950015 2:0.93498054 3:0.94267067 4:0.92936856 5:0.92675457 6:0.93329528 7:0.94169618 8:0.94963304 9:0.9519864 10:0.94881283 11:0.95332501 12:0.9559523 13:0.95999868 14:0.96583194 15:0.97596995 16:0.98024971 17:0.96535704 18:0.96305361 19:0.95074241 20:0.94356339 21:0.92259858 
1.9550738524921822 1:0.76696554 2:0.79680649 3:0.81723347 4:0.82201563 5:0.77736637 6:0.78900713 7:0.80148083 8:0.82047272 9:0.78181926 10:0.76594761 11:0.7724179 12:0.74696493 13:0.76166746 14:0.7014549 15:0.57295438 16:0.70670094 17:0.68451101 18:0.652198 19:0.7015306 20:0.74618971 21:0.83363603 
5.3147432563899999 1:0.95812521 2:0.95796392 3:0.94119904 4:0.94532829 5:0.93726067 6:0.93793738 7:0.94517093 8:0.94599346 9:0.91967899 10:0.9193074 11:0.92545944 12:0.9433203 13:0.94263058 14:0.94982601 15:0.95671983 16:0.98222438 17:0.97399027 18:0.97253059 19:0.96011846 20:0.95828244 21:0.94780745 
-5.3147432563899999 1:0.9712758 2:0.989672 3:0.99197093 4:0.99019949 5:0.9924959 6:0.98339671 7:0.98909822 8:0.98972535 9:0.98908995 10:0.98804466 11:0.97838904 12:0.97391849 13:0.98590522 14:0.98973814 15:0.99104418 16:0.98634613 17:0.986394 18:0.99055074 19:0.99212339 20:0.98682397 21:0.99000833 
-5.3147432563899999 1:0.93950546 2:0.96158114 3:0.98939614 4:0.99502587 5:0.99340887 6:0.99200184 7:0.99751407 8:0.99517175 9:0.99457897 10:0.99291237 11:0.99104278 12:0.99197088 13:0.99136318 14:0.98866792 15:0.98100718 16:0.9948446 17:0.99809737 18:0.99576515 19:0.99173811 20:0.98302074 21:0.97869689 
-5.3147432563899999 1:0.96571167 2:0.97480469 3:0.97288652 4:0.98913858 5:0.98869524 6:0.99011288 7:0.99050141 8:0.99184251 9:0.9926123 10:0.99249959 11:0.99812915 12:0.99770175 13:0.99738044 14:0.99875403 15:0.99913256 16:0.99902034 17:0.99867839 18:0.99695422 19:0.99556027 20:0.99521794 21:0.99673545 
-5.3147432563899999 1:0.99811656 2:0.99869441 3:0.99654389 4:0.99761261 5:0.99498237 6:0.99557504 7:0.9989238 8:0.99885431 9:0.99451838 10:0.99651305 11:0.99826684 12:0.99590292 13:0.99452088 14:0.98669962 15:0.98073944 16:0.98813029 17:0.98102262 18:0.97797432 19:0.98957056 20:0.98927807 21:0.98461409 
-5.3147432563899999 1:0.98398088 2:0.9813051 3:0.98016305 4:0.98524607 5:0.9876616 6:0.9884621 7:0.99058033 8:0.99141704 9:0.98817052 10:0.98774474 11:0.9909291 12:0.99383605 13:0.99029815 14:0.98676677 15:0.99045548 16:0.99140299 17:0.99646521 18:0.99575243 19:0.97557041 20:0.97151559 21:0.97187808 
-5.3147432563899999 1:0.98316913 2:0.98967805 3:0.99819571 4:0.99957827 5:0.99953056 6:0.99857755 7:0.99464309 8:0.99914887 9:0.99958187 10:0.99802737 11:0.98319013 12:0.99723985 13:0.99889235 14:0.99971465 15:0.9995244 16:0.99873202 17:0.99752501 18:0.99702667 19:0.99830607 20:0.99286264 21:0.98881911 
-5.3147432563899999 1:0.97241214 2:0.98334489 3:0.98303958 4:0.98005915 5:0.97630984 6:0.97891677 7:0.9786621 8:0.97755802 9:0.98384719 10:0.98419608 11:0.98404061 12:0.97701716 13:0.98299683 14:0.97915666 15:0.98336837 16:0.98281824 17:0.97046965 18:0.97744201 19:0.98170316 20:0.97984355 21:0.97376304 
5.3147432563899999 1:0.96729294 2:0.96791489 3:0.97308817 4:0.97124317 5:0.97187064 6:0.96417517 7:0.96205734 8:0.96622542 9:0.95466646 10:0.94596623 11:0.9701715 12:0.96673491 13:0.94993609 14:0.94970829 15:0.95270516 16:0.94634957 17:0.96120142 18:0.97374795 19:0.9697394 20:0.95974768 21:0.95037884 
-5.3147432563899999 1:0.97899414 2:0.98298862 3:0.98597213 4:0.98619 5:0.99186924 6:0.98974049 7:0.9853831 8:0.99156185 9:0.99531799 10:0.99616007 11:0.99452398 12:0.99142756 13:0.99304759 14:0.99699399 15:0.99686695 16:0.99103853 17:0.98764914 18:0.99583119 19:0.99519735 20:0.98725137 21:0.98163874 
-5.3147432563899999 1:0.98212145 2:0.9749861 3:0.98239539 4:0.98462366 5:0.98171373 6:0.98833027 7:0.97523859 8:0.96356336 9:0.96320357 10:0.98228289 11:0.99033829 12:0.99315032 13:0.99604192 14:0.99152866 15:0.98668497 16:0.99186627 17:0.99085257 18:0.99680875 19:0.9933036 20:0.97929848 21:0.95568512 
-5.3147432563899999 1:0.99563369 2:0.99672425 3:0.99010154 4:0.9894627 5:0.99366806 6:0.99631667 7:0.99484631 8:0.98905369 9:0.98365681 10:0.9763669 11:0.99098213 12:0.99374683 13:0.98626849 14:0.98019218 15:0.99180544 16:0.98273175 17:0.9881776 18:0.97142267 19:0.93611817 20:0.93151788 21:0.94003454 
-5.3147432563899999 1:0.98208077 2:0.99463559 3:0.99623031 4:0.98265207 5:0.9920617 6:0.98343562 7:0.9744656 8:0.98218488 9:0.97915463 10:0.98308688 11:0.97421041 12:0.978299 13:0.97530574 14:0.97579579 15:0.97948293 16:0.98390201 17:0.98378026 18:0.98760792 19:0.98241286 20:0.98355099 21:0.97270037 
-5.3147432563899999 1:0.94354799 2:0.96791319 3:0.98606423 4:0.98567275 5:0.98679993 6:0.99057563 7:0.98550703 8:0.99065465 9:0.98986228 10:0.98634503 11:0.98417764 12:0.97996566 13:0.97690187 14:0.98805548 15:0.99291225 16:0.99553284 17:0.99478463 18:0.99730482 19:0.99391058 20:0.98666255 21:0.9742494 
-5.3147432563899999 1:0.98545622 2:0.98767336 3:0.98356017 4:0.97480612 5:0.96773214 6:0.96428139 7:0.97861503 8:0.98427233 9:0.98526448 10:0.97964897 11:0.97940941 12:0.98441554 13:0.9831239 14:0.97183641 15:0.98133682 16:0.98684645 17:0.98547775 18:0.98333154 19:0.98162508 20:0.9764343 21:0.97706778 
-5.3147432563899999 1:0.97718536 2:0.98262609 3:0.98525638 4:0.98819952 5:0.98440871 6:0.98625381 7:0.98711877 8:0.99229933 9:0.99113727 10:0.9930713 11:0.99511029 12:0.99679793 13:0.99679397 14:0.99499264 15:0.99777285 16:0.99942984 17:0.99949728 18:0.99547239 19:0.98380851 20:0.96330498 21:0.96252811 
1.4487806565298089 1:0.64004858 2:0.84141725 3:0.82455309 4:0.6793263 5:0.61010704 6:0.58974254 7:0.70351245 8:0.68928899 9:0.65529614 10:0.66098928 11:0.55629699 12:0.46488882 13:0.57395847 14:0.60992411 15:0.59762556 16:0.63774413 17:0.63583372 18:0.52904873 19:0.53405479 20:0.5355456 21:0.54624168 
5.3147432563899999 1:0.68449977 2:0.79725198 3:0.90446672 4:0.91606181 5:0.88882014 6:0.87488283 7:0.85777848 8:0.82319511 9:0.86873061 10:0.87111461 11:0.87079694 12:0.8856625 13:0.89994337 14:0.88855082 15:0.88889233 16:0.85969366 17:0.83796336 18:0.85133445 19:0.9136043 20:0.89661359 21:0.73888342 
5.2452633428867497 1:0.66378405 2:0.79498753 3:0.76173495 4:0.75835882 5:0.75839198 6:0.72718365 7:0.74249852 8:0.75226874 9:0.75402439 10:0.7291833 11:0.7331462 12:0.70575921 13:0.72908011 14:0.66467917 15:0.64206524 16:0.62496321 17:0.65131232 18:0.75142801 19:0.72566411 20:0.61138243 21:0.55749087 
1.6318978896916463 1:0.76421557 2:0.77798709 3:0.54558235 4:0.55096751 5:0.64824692 6:0.70474316 7:0.60673822 8:0.59262898 9:0.65187851 10:0.64496733 11:0.56500197 12:0.57417206 13:0.58906819 14:0.55465866 15:0.76034533 16:0.65210738 17:0.56016601 18:0.60004682 19:0.57038572 20:0.6114606 21:0.50653749 
0.41715865827226212 1:0.63111251 2:0.79983894 3:0.75195619 4:0.61290271 5:0.58974108 6:0.64694135 7:0.68823015 8:0.61465341 9:0.68395474 10:0.70479085 11:0.60497694 12:0.65388055 13:0.65518495 14:0.67900834 15:0.6447504 16:0.69197611 17:0.6462737 18:0.65612846 19:0.65611423 20:0.61863599 21:0.63552952 
-0.59787358811438529 1:0.71672135 2:0.70768915 3:0.55716702 4:0.52809166 5:0.57042116 6:0.60456863 7:0.64472226 8:0.63951676 9:0.57019317 10:0.55595671 11:0.64603812 12:0.60687345 13:0.55229703 14:0.57458736 15:0.50631841 16:0.5366493 17:0.48337643 18:0.50370383 19:0.4955483 20:0.46479592 21:0.4677565 
0.47676042195559487 1:0.82996594 2:0.8221276 3:0.55164539 4:0.47612894 5:0.68619195 6:0.68171659 7:0.76567949 8:0.81995133 9:0.52613918 10:0.47614168 11:0.51994409 12:0.57869903 13:0.58120103 14:0.44262483 15:0.53645188 16:0.55353243 17:0.6152761 18:0.65761839 19:0.58075345 20:0.45536523 21:0.48265923 
-5.3147432563899999 1:0.92569367 2:0.96167353 3:0.98177416 4:0.98687652 5:0.99237381 6:0.98444523 7:0.988417 8:0.9879635 9:0.98433311 10:0.98053574 11:0.98083231 12:0.97676478 13:0.97552776 14:0.97260819 15:0.97467803 16:0.98733807 17:0.98355439 18:0.97868317 19:0.98035948 20:0.98293973 21:0.97899421 
-5.3147432563899999 1:0.96766522 2:0.96812293 3:0.99503177 4:0.99770326 5:0.99369199 6:0.99412201 7:0.99379102 8:0.99262624 9:0.99172344 10:0.98299787 11:0.98921988 12:0.98706832 13:0.98497772 14:0.97543876 15:0.97517857 16:0.93494747 17:0.95214869 18:0.9829849 19:0.97377916 20:0.94419691 21:0.91852601 
-5.3147432563899999 1:0.94461388 2:0.96847506 3:0.97468729 4:0.97461196 5:0.97452781 6:0.96627617 7:0.96684361 8:0.96198122 9:0.95859259 10:0.96581516 11:0.96878274 12:0.9645986 13:0.96999648 14:0.95739744 15:0.96394718 16:0.97509006 17:0.96519462 18:0.96866458 19:0.96597827 20:0.94331445 21:0.92860185 
-5.3147432563899999 1:0.97412554 2:0.98573287 3:0.97262989 4:0.97546826 5:0.97856941 6:0.96615209 7:0.97489468 8:0.97759151 9:0.95957986 10:0.95090452 11:0.97016411 12:0.98136528 13:0.98021429 14:0.9819208 15:0.97051552 16:0.98206222 17:0.9855335 18:0.97047977 19:0.95198341 20:0.94856808 21:0.91996452 
-5.3147432563899999 1:0.93049674 2:0.95908502 3:0.96662535 4:0.96314993 5:0.96154191 6:0.94930781 7:0.95183867 8:0.9543636 9:0.94691465 10:0.95120642 11:0.9475639 12:0.94796072 13:0.95876133 14:0.96208626 15:0.95967473 16:0.94714323 17:0.9411634 18:0.94397911 19:0.93583312 20:0.92109771 21:0.91646737 
-5.3147432563899999 1:0.86991436 2:0.91926286 3:0.95695986 4:0.95709741 5:0.95663679 6:0.96526538 7:0.96067194 8:0.96185809 9:0.96079821 10:0.95365856 11:0.93721066 12:0.93321795 13:0.96289261 14:0.94763805 15:0.94933356 16:0.96252795 17:0.96778965 18:0.97437906 19:0.97683674 20:0.97046918 21:0.946196 
-5.3147432563899999 1:0.89938949 2:0.95494798 3:0.95499521 4:0.94457223 5:0.9683538 6:0.93635009 7:0.93273814 8:0.95428809 9:0.95896411 10:0.95306809 11:0.96404913 12:0.95595551 13:0.96251444 14:0.96445751 15:0.93683949 16:0.94083932 17:0.92474692 18:0.92909439 19:0.93199804 20:0.93383964 21:0.9387325 
-5.3147432563899999 1:0.97536521 2:0.98812135 3:0.99934197 4:0.9978698 5:0.99696726 6:0.99849152 7:0.99901312 8:0.99972292 9:0.99889922 10:0.99513794 11:0.99747065 12:0.96507034 13:0.97478668 14:0.99570123 15:0.99136098 16:0.98957028 17:0.98339985 18:0.9667751 19:0.93282261 20:0.89211861 21:0.89323609 
-5.3147432563899999 1:0.91438153 2:0.95368315 3:0.96011303 4:0.9502794 5:0.95594004 6:0.96476464 7:0.97294377 8:0.96846734 9:0.95032777 10:0.93677532 11:0.94552329 12:0.97552626 13:0.97931876 14:0.96542213 15:0.9658272 16:0.95813082 17:0.91630619 18:0.89083642 19:0.89595696 20:0.88937485 21:0.90037368 
-5.3147432563899999 1:0.85490299 2:0.91385349 3:0.96708663 4:0.98123837 5:0.98136761 6:0.98634568 7:0.97880705 8:0.98550702 9:0.98740863 10:0.96365155 11:0.92540277 12:0.9655419 13:0.97835083 14:0.98689147 15:0.98236021 16:0.98111313 17:0.97831919 18:0.98628971 19:0.9905665 20:0.98979066 21:0.97351591 
-5.3147432563899999 1:0.94241287 2:0.96683951 3:0.96033244 4:0.95926117 5:0.96555748 6:0.96196055 7:0.96648012 8:0.97657866 9:0.97383024 10:0.97194848 11:0.95468379 12:0.98341548 13:0.98077521 14:0.97018375 15:0.97051315 16:0.96642386 17:0.96199222 18:0.96701916 19:0.95091793 20:0.90466371 21:0.90472224 
-5.3147432563899999 1:0.94363536 2:0.93326723 3:0.91950773 4:0.93682084 5:0.96805635 6:0.97942837 7:0.97689145 8:0.98139807 9:0.98137006 10:0.98496184 11:0.98781062 12:0.98669005 13:0.97858405 14:0.97957138 15:0.98670196 16:0.97587603 17:0.95147936 18:0.9616029 19:0.97087201 20:0.96424616 21:0.95079987 
1.1236801370429397 1:0.69703343 2:0.79861082 3:0.73557107 4:0.74153132 5:0.7675947 6:0.69927756 7:0.74509148 8:0.7824466 9:0.72982914 10:0.66131443 11:0.67632039 12:0.65472314 13:0.67416195 14:0.61889995 15:0.68871529 16:0.7469911 17:0.76992259 18:0.79876155 19:0.71876214 20:0.63113922 21:0.61497299 
-1.074203165402561 1:0.67938096 2:0.77612633 3:0.50265762 4:0.49779232 5:0.6718639 6:0.68698234 7:0.68924214 8:0.74997143 9:0.68612516 10:0.64497209 11:0.61724572 12:0.6538101 13:0.6269127 14:0.52436641 15:0.6006951 16:0.64765974 17:0.68206805 18:0.666605 19:0.59218825 20:0.49369635 21:0.49421368 
-5.3147432563899999 1:0.8672457 2:0.9507738 3:0.97503841 4:0.96624615 5:0.96865837 6:0.97177927 7:0.9648905 8:0.95652052 9:0.94394211 10:0.94346294 11:0.92114059 12:0.93079032 13:0.95586551 14:0.95251182 15:0.94354678 16:0.95157558 17:0.95630148 18:0.94974711 19:0.94659764 20:0.91835776 21:0.91183227 
-5.3147432563899999 1:0.89645239 2:0.94725788 3:0.97600909 4:0.97394748 5:0.96275297 6:0.94809633 7:0.94700252 8:0.96118892 9:0.96663765 10:0.94990189 11:0.97584255 12:0.98199682 13:0.98149033 14:0.97936459 15:0.97059077 16:0.96284523 17:0.95260139 18:0.97563096 19:0.97593358 20:0.95691298 21:0.94480923 
-5.3147432563899999 1:0.91286013 2:0.9438045 3:0.9528417 4:0.95406717 5:0.97344558 6:0.97177099 7:0.96817129 8:0.96141448 9:0.94718388 10:0.92505041 11:0.93610718 12:0.94890114 13:0.97369685 14:0.97855475 15:0.96811648 16:0.96480651 17:0.96362907 18:0.97397824 19:0.96134667 20:0.9401821 21:0.94085942 
-5.3147432563899999 1:0.90414769 2:0.95939094 3:0.95921238 4:0.95357916 5:0.96756238 6:0.96961679 7:0.97750426 8:0.95905316 9:0.96103816 10:0.97370373 11:0.96931899 12:0.95310134 13:0.92261017 14:0.91121098 15:0.93229648 16:0.93555391 17:0.89481034 18:0.83604746 19:0.77544179 20:0.76260698 21:0.78431188 
5.3147432563899999 1:0.95386931 2:0.9837372 3:0.9946085 4:0.99418756 5:0.99469724 6:0.99535857 7:0.99441785 8:0.99568548 9:0.99304451 10:0.99354054 11:0.99518056 12:0.99619225 13:0.99918061 14:0.99867579 15:0.99818052 16:0.99857543 17:0.99744182 18:0.99824692 19:0.99765299 20:0.97955182 21:0.96080425 
-5.3147432563899999 1:0.95422741 2:0.98268641 3:0.99515401 4:0.99869627 5:0.99916504 6:0.99968333 7:0.99956585 8:0.99938751 9:0.99886046 10:0.99872517 11:0.99892286 12:0.99897643 13:0.99944482 14:0.99897673 15:0.99891791 16:0.99944571 17:0.99957947 18:0.99942493 19:0.9962148 20:0.97359056 21:0.94686046 
-5.3147432563899999 1:0.97465315 2:0.9970296 3:0.99707873 4:0.99878083 5:0.99915393 6:0.99920347 7:0.99937663 8:0.99885385 9:0.99940109 10:0.99946812 11:0.99938942 12:0.99979305 13:0.99986947 14:0.99984385 15:0.99985401 16:0.99957012 17:0.99956396 18:0.99903234 19:0.9976042 20:0.98272638 21:0.96353116 
-5.3147432563899999 1:0.92561467 2:0.96062344 3:0.97747884 4:0.98420111 5:0.99230291 6:0.99560039 7:0.98997381 8:0.98686484 9:0.99148679 10:0.99500315 11:0.99370778 12:0.9959964 13:0.9954594 14:0.99147661 15:0.99191675 16:0.99664231 17:0.99626006 18:0.99275648 19:0.98692795 20:0.94597168 21:0.92150948 
5.3147432563899999 1:0.96031418 2:0.9759215 3:0.99878971 4:0.99984406 5:0.99995769 6:0.99993613 7:0.99991772 8:0.99968812 9:0.99876147 10:0.99895582 11:0.9984082 12:0.99943832 13:0.99967084 14:0.99940723 15:0.99831361 16:0.99907513 17:0.99930836 18:0.99952211 19:0.99584235 20:0.96880611 21:0.86844769 
-5.3147432563899999 1:0.98480367 2:0.9972254 3:0.99462919 4:0.9988763 5:0.99964133 6:0.99992103 7:0.99990461 8:0.99983994 9:0.99902048 10:0.99873125 11:0.99935012 12:0.9997965 13:0.99977192 14:0.99977746 15:0.99966105 16:0.99887417 17:0.9948781 18:0.98382575 19:0.97521335 20:0.94634942 21:0.92115848 
-5.3147432563899999 1:0.93581935 2:0.98545181 3:0.99805987 4:0.99768498 5:0.99819484 6:0.99849871 7:0.99733693 8:0.99742395 9:0.99331948 10:0.98714918 11:0.9780853 12:0.9713253 13:0.97598604 14:0.95636106 15:0.93422444 16:0.91757069 17:0.88689335 18:0.84439015 19:0.77689847 20:0.71679916 21:0.67188937 
-5.3147432563899999 1:0.92156165 2:0.97349382 3:0.99618938 4:0.99940563 5:0.99958056 6:0.99961351 7:0.99969081 8:0.99853254 9:0.99498688 10:0.99059929 11:0.98774085 12:0.98439381 13:0.98838839 14:0.99401841 15:0.98824934 16:0.98480394 17:0.97766201 18:0.98013135 19:0.92294432 20:0.8146024 21:0.70296112 
-3.5119550031668858 1:0.94254106 2:0.97352788 3:0.9869302 4:0.99009712 5:0.99578649 6:0.99803277 7:0.9979998 8:0.99890527 9:0.99709593 10:0.99404852 11:0.99275271 12:0.99400679 13:0.99044925 14:0.97983699 15:0.96770699 16:0.94565015 17:0.89160407 18:0.81402646 19:0.72218746 20:0.57898033 21:0.59787011 
-5.3147432563899999 1:0.98917862 2:0.99739426 3:0.99733781 4:0.99778823 5:0.99886466 6:0.99934787 7:0.99961354 8:0.99908498 9:0.99531535 10:0.99149876 11:0.99793769 12:0.99840855 13:0.98786982 14:0.98123854 15:0.94677905 16:0.92610992 17:0.85179631 18:0.75113304 19:0.70581579 20:0.72286806 21:0.69961248 
0.0014837362264945686 1:0.82947252 2:0.96670809 3:0.98939613 4:0.98516541 5:0.98997769 6:0.98379257 7:0.97245162 8:0.96258791 9:0.93543468 10:0.91795471 11:0.8601021 12:0.7831651 13:0.73834939 14:0.68710498 15:0.71260907 16:0.67281451 17:0.54289076 18:0.43757687 19:0.38335542 20:0.38335721 21:0.42271857 
-1.0872501219337884 1:0.50987866 2:0.7232662 3:0.88441727 4:0.93012014 5:0.93962694 6:0.95951128 7:0.9635956 8:0.96537708 9:0.93989914 10:0.89872109 11:0.8913448 12:0.89579666 13:0.91620404 14:0.8938515 15:0.87228361 16:0.87775905 17:0.85893646 18:0.72853773 19:0.52654514 20:0.44427975 21:0.48240884 
-1.0975038266171007 1:0.90254208 2:0.96286103 3:0.98179936 4:0.96991335 5:0.97491538 6:0.98109786 7:0.98583038 8:0.98629851 9:0.96369746 10:0.9189125 11:0.88943899 12:0.92349554 13:0.88839403 14:0.7855117 15:0.69806022 16:0.63044739 17:0.61669558 18:0.55322256 19:0.35911111 20:0.24445545 21:0.24529096 
-0.95238739946344275 1:0.95276987 2:0.98086121 3:0.98184471 4:0.98463295 5:0.99464147 6:0.99698096 7:0.98955412 8:0.97957528 9:0.94205095 10:0.95981227 11:0.96450026 12:0.91101776 13:0.89132133 14:0.87772675 15:0.90315503 16:0.90544689 17:0.78996723 18:0.58220331 19:0.35258755 20:0.43868269 21:0.4485239 
-5.3147432563899999 1:1 2:1 3:1 4:1 5:1 6:1 7:1 8:1 9:1 10:1 11:1 12:1 13:1 14:1 15:1 16:1 17:1 18:1 19:1 20:1 21:1 
4.1421430327633919 1:0.95255397 2:0.96495562 3:0.97869833 4:0.97750929 5:0.97305892 6:0.97970502 7:0.98951406 8:0.98507125 9:0.97506797 10:0.9611593 11:0.92332197 12:0.94557011 13:0.94888026 14:0.9275377 15:0.92109209 16:0.94801094 17:0.95169928 18:0.95137187 19:0.96699844 20:0.95337456 21:0.96218431 
5.3147432563899999 1:0.92383863 2:0.95927269 3:0.99815521 4:0.9992773 5:0.99819417 6:0.99834933 7:0.99890116 8:0.99885902 9:0.99947927 10:0.99792274 11:0.98109176 12:0.99684231 13:0.99764837 14:0.99227345 15:0.97574025 16:0.97128678 17:0.99010363 18:0.99384458 19:0.96684328 20:0.88863352 21:0.87611911 
5.3147432563899999 1:0.99670267 2:0.99935712 3:0.99949036 4:0.99870221 5:0.99717555 6:0.99875655 7:0.99952683 8:0.9997831 9:0.99953266 10:0.99947627 11:0.99955327 12:0.99892662 13:0.99670128 14:0.96958999 15:0.9888101 16:0.99712114 17:0.9930029 18:0.96445283 19:0.83344194 20:0.77678631 21:0.89154441 
-5.3147432563899999 1:0.96569303 2:0.99130022 3:0.99657962 4:0.99753082 5:0.99267603 6:0.98801157 7:0.98988862 8:0.99106213 9:0.98672697 10:0.96092609 11:0.92905557 12:0.92431642 13:0.91629525 14:0.88327864 15:0.87218072 16:0.9043616 17:0.91097829 18:0.91539781 19:0.92964387 20:0.95748903 21:0.96829791 
5.3147432563899999 1:0.77413343 2:0.92502096 3:0.99220445 4:0.99461651 5:0.99225247 6:0.9910395 7:0.98699976 8:0.99027259 9:0.97724377 10:0.97412634 11:0.94058307 12:0.97433434 13:0.98625407 14:0.98654067 15:0.95603071 16:0.97082087 17:0.97402368 18:0.96658248 19:0.93382437 20:0.84700827 21:0.7570498 
5.3147432563899999 1:0.98583807 2:0.99678544 3:0.99450577 4:0.98569677 5:0.99389597 6:0.99432343 7:0.99618477 8:0.99305431 9:0.99137145 10:0.98476962 11:0.98369639 12:0.98532286 13:0.95211509 14:0.89559402 15:0.86007149 16:0.8581649 17:0.93701805 18:0.94637506 19:0.90118033 20:0.84082628 21:0.87739517 
5.3147432563899999 1:0.99792202 2:0.99731547 3:0.99401685 4:0.99553721 5:0.99381199 6:0.99729864 7:0.999004 8:0.99903772 9:0.99776279 10:0.99519503 11:0.9970615 12:0.98674122 13:0.91229507 14:0.90686861 15:0.94720499 16:0.94099026 17:0.95645274 18:0.94149953 19:0.86537244 20:0.86035922 21:0.95654943 
0.5946563860814803 1:0.88241622 2:0.96558937 3:0.99384941 4:0.99375044 5:0.99071585 6:0.99125417 7:0.98560552 8:0.96584256 9:0.94766899 10:0.8868468 11:0.8361442 12:0.91184881 13:0.91248059 14:0.84622329 15:0.79398713 16:0.83200327 17:0.83028103 18:0.84077802 19:0.91802713 20:0.85837587 21:0.83749849 
2.5791016368293835 1:0.73892887 2:0.88828714 3:0.9822527 4:0.99169401 5:0.98672163 6:0.98350121 7:0.99329167 8:0.99009599 9:0.96290627 10:0.95314609 11:0.92142803 12:0.95853987 13:0.97028795 14:0.97135933 15:0.9462905 16:0.96076612 17:0.93934158 18:0.95674655 19:0.91071339 20:0.81164656 21:0.69703932 
5.3147432563899999 1:0.97017484 2:0.99547112 3:0.9981671 4:0.99894635 5:0.99927114 6:0.99863851 7:0.99933523 8:0.99814252 9:0.98440246 10:0.94891946 11:0.96467119 12:0.9900196 13:0.97958546 14:0.96481731 15:0.89457599 16:0.9124349 17:0.90917965 18:0.9504416 19:0.94577595 20:0.90254543 21:0.91192498 
5.3147432563899999 1:0.9931932 2:0.99822038 3:0.99522931 4:0.99256489 5:0.99150954 6:0.99878065 7:0.99927548 8:0.99880198 9:0.99640741 10:0.99488148 11:0.97764535 12:0.90424598 13:0.91054886 14:0.86213846 15:0.91740842 16:0.96490825 17:0.95019306 18:0.92385316 19:0.84625297 20:0.84550008 21:0.9211978 
0.54643888500515203 1:0.65719165 2:0.86829196 3:0.98096648 4:0.99095964 5:0.98078938 6:0.97501556 7:0.98748555 8:0.99008402 9:0.9810226 10:0.94419902 11:0.87781526 12:0.93218667 13:0.95308208 14:0.94878736 15:0.92934476 16:0.93085215 17:0.92987365 18:0.9205662 19:0.85257703 20:0.67370693 21:0.60767418 
5.3147432563899999 1:0.97559125 2:0.99471925 3:0.99546695 4:0.9953001 5:0.99843749 6:0.99488627 7:0.99682063 8:0.99772665 9:0.98786661 10:0.94249939 11:0.93786406 12:0.96649027 13:0.98060969 14:0.97002164 15:0.96661967 16:0.97351694 17:0.97862856 18:0.98212028 19:0.97216885 20:0.91593609 21:0.8633985 
-3.2204574598337574 1:0.68825161 2:0.86372451 3:0.97979213 4:0.97915052 5:0.97598217 6:0.98320885 7:0.98999165 8:0.98600665 9:0.97914963 10:0.96617495 11:0.95695298 12:0.94031532 13:0.90604723 14:0.85322137 15:0.77303187 16:0.74591341 17:0.89986262 18:0.93588837 19:0.8965305 20:0.75536493 21:0.70137339 
5.3147432563899999 1:0.88434317 2:0.97132787 3:0.97788252 4:0.98141222 5:0.99103534 6:0.98594969 7:0.98982417 8:0.98756445 9:0.94647679 10:0.91727554 11:0.92607083 12:0.93859836 13:0.94401614 14:0.92572691 15:0.87850683 16:0.87943595 17:0.89182324 18:0.94666627 19:0.9446489 20:0.88516067 21:0.85178714 
0.78665218332584719 1:0.97977028 2:0.99287291 3:0.98110679 4:0.96771871 5:0.96257325 6:0.98000431 7:0.99263408 8:0.98794685 9:0.93108289 10:0.93842338 11:0.92847318 12:0.96186571 13:0.94998789 14:0.92123073 15:0.96864031 16:0.96730633 17:0.85764147 18:0.93246147 19:0.82983386 20:0.66956518 21:0.83814954 
3.1883602463887173 1:0.83631095 2:0.92805258 3:0.94986304 4:0.93730841 5:0.9456688 6:0.93230802 7:0.95381761 8:0.93335891 9:0.88467854 10:0.86479857 11:0.88029865 12:0.86008954 13:0.90030347 14:0.87732301 15:0.86151206 16:0.83758589 17:0.7803875 18:0.79407803 19:0.89612294 20:0.89931041 21:0.88625604 
0.86580459405267163 1:0.46721186 2:0.74961541 3:0.9487889 4:0.97184157 5:0.96373418 6:0.95489827 7:0.97346157 8:0.96885976 9:0.93361017 10:0.84416811 11:0.78233683 12:0.78975133 13:0.84025316 14:0.88696251 15:0.86655916 16:0.88165008 17:0.9043612 18:0.87738909 19:0.81968181 20:0.69240719 21:0.59569964 
5.3147432563899999 1:0.81400823 2:0.91883103 3:0.95429691 4:0.96432024 5:0.96238773 6:0.9042388 7:0.90933234 8:0.86276703 9:0.76078055 10:0.69866837 11:0.69386457 12:0.68880093 13:0.68604889 14:0.7681044 15:0.75345839 16:0.7767226 17:0.84430208 18:0.83365144 19:0.81457094 20:0.73617296 21:0.7165931 
2.7811561443050525 1:0.45133552 2:0.67205031 3:0.94311181 4:0.9743806 5:0.97052554 6:0.96893373 7:0.95988193 8:0.96385715 9:0.92101041 10:0.87938189 11:0.88586425 12:0.86837047 13:0.86632583 14:0.88110205 15:0.7877344 16:0.79061981 17:0.79030105 18:0.83936161 19:0.779852 20:0.65198275 21:0.53103346 
-4.9025485145619205 1:0.77524605 2:0.89572826 3:0.92916235 4:0.92947485 5:0.90876916 6:0.89842289 7:0.88337727 8:0.79241179 9:0.70377938 10:0.6943152 11:0.68870745 12:0.68551166 13:0.73209009 14:0.80386159 15:0.76596826 16:0.77489174 17:0.74802507 18:0.80055043 19:0.86067964 20:0.83354046 21:0.7930429 
-5.151672318971305 1:0.54769525 2:0.82925254 3:0.94976008 4:0.96146348 5:0.95754426 6:0.96971927 7:0.95607239 8:0.95194146 9:0.9268054 10:0.86605069 11:0.84426137 12:0.87838985 13:0.90100822 14:0.9075422 15:0.84046232 16:0.77835314 17:0.85564558 18:0.90008097 19:0.86493303 20:0.74102915 21:0.6633799 
1.8230124328962072 1:0.90087849 2:0.96243431 3:0.95458039 4:0.93110167 5:0.94554584 6:0.95970265 7:0.9683338 8:0.93542998 9:0.76516942 10:0.74068677 11:0.75565458 12:0.82964015 13:0.82744624 14:0.75844943 15:0.73649456 16:0.81704609 17:0.83722817 18:0.87188419 19:0.78247794 20:0.68532967 21:0.67931977 
0.73342432981958794 1:0.9523961 2:0.95479606 3:0.78511096 4:0.90179155 5:0.92327771 6:0.95844699 7:0.9816942 8:0.97982778 9:0.94723457 10:0.89044474 11:0.81450243 12:0.80412612 13:0.83480724 14:0.81161722 15:0.79885917 16:0.8734816 17:0.88826078 18:0.88727029 19:0.78501325 20:0.7033655 21:0.76085889 
-3.2646059549240927 1:0.48016037 2:0.70457896 3:0.85759131 4:0.87975294 5:0.8851076 6:0.89905285 7:0.88709804 8:0.87847069 9:0.85573675 10:0.76990938 11:0.72963202 12:0.7734019 13:0.8202469 14:0.81701205 15:0.7690111 16:0.6923632 17:0.65204013 18:0.80912041 19:0.77315063 20:0.64142732 21:0.49935215 
-0.48520010644035061 1:0.83680561 2:0.92866522 3:0.92443874 4:0.90711868 5:0.91537904 6:0.89491 7:0.89712501 8:0.79791342 9:0.67580301 10:0.68157383 11:0.68350879 12:0.76944656 13:0.72750486 14:0.65793817 15:0.68503353 16:0.72296054 17:0.73735198 18:0.84149043 19:0.79929575 20:0.62445284 21:0.56881808 
-1.1742701984061192 1:0.94025957 2:0.92798924 3:0.84496475 4:0.87812787 5:0.91245352 6:0.96999573 7:0.98148161 8:0.9651616 9:0.75877903 10:0.73820376 11:0.77721682 12:0.90440541 13:0.89997772 14:0.63136872 15:0.58670017 16:0.75183291 17:0.81020751 18:0.86720271 19:0.62132202 20:0.52903339 21:0.7231426 
-5.3147432563899999 1:0.9576105 2:0.99274226 3:0.99956212 4:0.99996994 5:0.99994594 6:0.99995578 7:0.99998371 8:0.99999093 9:0.99998173 10:0.99990456 11:0.99981432 12:0.99920657 13:0.99967253 14:0.99990761 15:0.99990477 16:0.99985674 17:0.99979693 18:0.99988913 19:0.99941703 20:0.99445877 21:0.96831596 
-5.3147432563899999 1:0.97687352 2:0.99350497 3:0.99521703 4:0.99982684 5:0.99988349 6:0.99996475 7:0.99998469 8:0.99997546 9:0.99996477 10:0.99997046 11:0.99997385 12:0.99993514 13:0.99992051 14:0.99994116 15:0.9998576 16:0.99988641 17:0.99973844 18:0.99369492 19:0.99467891 20:0.98888959 21:0.9809823 
-5.3147432563899999 1:0.96544769 2:0.9858478 3:0.99411341 4:0.99565071 5:0.99907907 6:0.99940138 7:0.99955992 8:0.99794522 9:0.9894432 10:0.9979986 11:0.99815153 12:0.99585969 13:0.99524462 14:0.99110568 15:0.9886173 16:0.98564752 17:0.96264894 18:0.97384951 19:0.9643335 20:0.94150361 21:0.93313903 
-5.3147432563899999 1:0.94622339 2:0.97935198 3:0.99387799 4:0.99831788 5:0.99854783 6:0.99950617 7:0.99988862 8:0.99983365 9:0.99952419 10:0.99951431 11:0.99895949 12:0.99899476 13:0.99903921 14:0.9997445 15:0.99975857 16:0.99958683 17:0.999539 18:0.9993728 19:0.992036 20:0.9639704 21:0.89520412 
-5.3147432563899999 1:0.98354977 2:0.9965562 3:0.99663631 4:0.99827519 5:0.99943739 6:0.99988524 7:0.99974083 8:0.99898065 9:0.99896482 10:0.99845092 11:0.99901713 12:0.99967268 13:0.99946644 14:0.99925822 15:0.99964601 16:0.99938052 17:0.99895236 18:0.99517069 19:0.98524828 20:0.9721902 21:0.9516734 
5.3147432563899999 1:0.89375739 2:0.9762558 3:0.98139974 4:0.98900051 5:0.98759907 6:0.97074693 7:0.97443098 8:0.96716232 9:0.96948177 10:0.97246489 11:0.95146747 12:0.95213511 13:0.96904946 14:0.98885481 15:0.98436155 16:0.9715124 17:0.95084373 18:0.95614593 19:0.93511481 20:0.87480325 21:0.78204489 
-1.3719049239759495 1:0.88193663 2:0.9579976 3:0.99076968 4:0.99735853 5:0.99812247 6:0.99955931 7:0.99947216 8:0.99876252 9:0.99628356 10:0.99377729 11:0.98702121 12:0.98956456 13:0.99425842 14:0.99203048 15:0.98947961 16:0.99157494 17:0.98721499 18:0.98116246 19:0.94270361 20:0.84390586 21:0.79101603 
1.6937959247625789 1:0.97142922 2:0.99596606 3:0.99702586 4:0.99747092 5:0.99905903 6:0.99952996 7:0.99937131 8:0.99887427 9:0.99599102 10:0.98968375 11:0.99423839 12:0.99685279 13:0.98142813 14:0.96391337 15:0.94603675 16:0.94784864 17:0.9493389 18:0.92170863 19:0.79500714 20:0.59039149 21:0.56722357 
5.3147432563899999 1:0.98870304 2:0.99411283 3:0.9930065 4:0.99517239 5:0.99769476 6:0.99939975 7:0.99958671 8:0.99946165 9:0.99868629 10:0.99765404 11:0.99712789 12:0.99274966 13:0.98474835 14:0.9835344 15:0.96422505 16:0.90467291 17:0.76223062 18:0.63435045 19:0.55024278 20:0.53821915 21:0.54733766 
-1.3050569224536919 1:0.7441944 2:0.89593279 3:0.94785938 4:0.95351798 5:0.95734218 6:0.96242822 7:0.96978314 8:0.94968646 9:0.91980664 10:0.89391217 11:0.78700159 12:0.65881035 13:0.68194036 14:0.66701328 15:0.66879579 16:0.6672542 17:0.62239705 18:0.58090527 19:0.4782507 20:0.47413392 21:0.47974851 
-0.75722698769276442 1:0.91427294 2:0.96709992 3:0.97407743 4:0.98382699 5:0.99231159 6:0.99356413 7:0.99228312 8:0.98026591 9:0.95165451 10:0.94412448 11:0.97908227 12:0.98044139 13:0.95050802 14:0.94340051 15:0.90846484 16:0.75563423 17:0.58609835 18:0.47848546 19:0.44146157 20:0.51460999 21:0.45974719 
-5.3147432563899999 1:1 2:1 3:1 4:1 5:1 6:1 7:1 8:1 9:1 10:1 11:1 12:1 13:1 14:1 15:1 16:1 17:1 18:1 19:1 20:1 21:1 
-5.3147432563899999 1:1 2:1 3:1 4:1 5:1 6:1 7:1 8:1 9:1 10:1 11:1 12:1 13:1 14:1 15:1 16:1 17:1 18:1 19:1 20:1 21:1 
-5.3147432563899999 1:1 2:1 3:1 4:1 5:1 6:1 7:1 8:1 9:1 10:1 11:1 12:1 13:1 14:1 15:1 16:1 17:1 18:1 19:1 20:1 21:1 
-5.3147432563899999 1:0.99929357 2:0.98690235 3:0.9757157 4:0.98672959 5:0.99737224 6:0.99799124 7:0.99031177 8:0.98700241 9:0.99235982 10:0.99628549 11:0.99901721 12:0.99827924 13:0.99842664 14:0.99954462 15:0.99952169 16:0.99990303 17:0.99996774 18:0.99996039 19:0.99995419 20:0.99981506 21:0.9993295 
5.3147432563899999 1:0.99911787 2:0.99836758 3:0.98502234 4:0.97958845 5:0.9759379 6:0.97403445 7:0.97224298 8:0.94390161 9:0.92384484 10:0.93874564 11:0.94347076 12:0.95670366 13:0.98319504 14:0.99502573 15:0.98804138 16:0.97560936 17:0.95690952 18:0.95501744 19:0.96330012 20:0.9782739 21:0.98824849 
-5.3147432563899999 1:0.99983628 2:0.99995563 3:0.99734775 4:0.98987539 5:0.99376289 6:0.9987388 7:0.99905001 8:0.99702023 9:0.99848112 10:0.99921189 11:0.99966292 12:0.99991671 13:0.99998363 14:0.9999886 15:0.99999325 16:0.9999971 17:0.99999812 18:0.9999951 19:0.99999704 20:0.99999346 21:0.99998697 
-5.3147432563899999 1:0.99998431 2:0.9999879 3:0.99984167 4:0.99950775 5:0.999414 6:0.99971438 7:0.99994239 8:0.99997015 9:0.99993625 10:0.99996261 11:0.99995878 12:0.99986754 13:0.99962168 14:0.99971249 15:0.99992202 16:0.99995904 17:0.99995063 18:0.99991791 19:0.99971278 20:0.99948417 21:0.99736819 
-5.3147432563899999 1:0.99977602 2:0.99786603 3:0.99688919 4:0.9991941 5:0.99978054 6:0.99916778 7:0.99907679 8:0.99900129 9:0.99635174 10:0.98899124 11:0.99501211 12:0.99561966 13:0.99803757 14:0.99997999 15:0.99995722 16:0.99997824 17:0.99994167 18:0.9999314 19:0.99992786 20:0.99988767 21:0.99994389 
5.3147432563899999 1:0.93931529 2:0.93542164 3:0.94025319 4:0.94089839 5:0.94108115 6:0.94092943 7:0.94085421 8:0.9409615 9:0.93975882 10:0.93099612 11:0.93098527 12:0.93540474 13:0.94129412 14:0.94143102 15:0.94664437 16:0.94956564 17:0.94860653 18:0.95342558 19:0.99989665 20:0.99989857 21:0.99970893 
-5.3147432563899999 1:0.99455955 2:0.99878355 3:0.99750001 4:0.99653984 5:0.99771952 6:0.99617835 7:0.99795981 8:0.99895398 9:0.99974617 10:0.99984847 11:0.99984843 12:0.99983633 13:0.99992907 14:0.99987484 15:0.99990316 16:0.99999282 17:0.99999005 18:0.99996842 19:0.99967662 20:0.99964783 21:0.99978206 
-5.3147432563899999 1:0.99988756 2:0.99524704 3:0.98903182 4:0.99556238 5:0.99730562 6:0.99086068 7:0.99688397 8:0.99970417 9:0.99921377 10:0.99960622 11:0.99987515 12:0.99991795 13:0.99983522 14:0.99981624 15:0.99990174 16:0.99985088 17:0.9998889 18:0.99992257 19:0.99993967 20:0.99992466 21:0.99963253 
-5.3147432563899999 1:0.99349761 2:0.9836691 3:0.974996 4:0.98014324 5:0.98102653 6:0.98097281 7:0.98358637 8:0.98520732 9:0.98458803 10:0.98637235 11:0.98563417 12:0.97824298 13:0.98829571 14:0.99317291 15:0.99582944 16:0.99898046 17:0.9996189 18:0.99940425 19:0.99823331 20:0.9972446 21:0.99937433 
5.3147432563899999 1:0.96450456 2:0.91349974 3:0.87728724 4:0.86883808 5:0.85601145 6:0.87556933 7:0.89683717 8:0.89982045 9:0.90853982 10:0.94027242 11:0.96411832 12:0.93421465 13:0.92049498 14:0.91989684 15:0.91217263 16:0.89889989 17:0.91188279 18:0.92142243 19:0.94079629 20:0.92988205 21:0.92057265 
4.5357076182274252 1:0.96782457 2:0.96147186 3:0.95821478 4:0.95858227 5:0.95337702 6:0.95504785 7:0.95780683 8:0.9520428 9:0.94139397 10:0.95155508 11:0.9612182 12:0.95870457 13:0.9412185 14:0.93068971 15:0.95480814 16:0.96681104 17:0.95872028 18:0.95275343 19:0.95248845 20:0.95831748 21:0.96217479 
-5.3147432563899999 1:0.99999409 2:0.99998931 3:0.9999305 4:0.99992808 5:0.99986544 6:0.99982595 7:0.99991061 8:0.9999671 9:0.99998183 10:0.99998764 11:0.99998094 12:0.99998102 13:0.99999713 14:0.99999208 15:0.99994321 16:0.99982662 17:0.99888078 18:0.99967636 19:0.99945305 20:0.99950397 21:0.99987414 
-5.3147432563899999 1:0.99632006 2:0.99223834 3:0.99698812 4:0.99507198 5:0.99057718 6:0.98124301 7:0.98305578 8:0.97750211 9:0.9837169 10:0.99481366 11:0.98135642 12:0.96235666 13:0.94689933 14:0.96990186 15:0.97171878 16:0.96839364 17:0.97104769 18:0.97084086 19:0.97057396 20:0.97118761 21:0.97306131 
-5.3147432563899999 1:0.99899541 2:0.968709 3:0.9396775 4:0.95625762 5:0.97441687 6:0.96014311 7:0.94717229 8:0.91770411 9:0.88857376 10:0.93251533 11:0.96710491 12:0.98950785 13:0.9916149 14:0.99187987 15:0.98719143 16:0.99674968 17:0.99785906 18:0.99954979 19:0.99779218 20:0.98968378 21:0.99523912 
-5.3147432563899999 1:0.97370204 2:0.96866801 3:0.96486975 4:0.97678195 5:0.96975193 6:0.95493138 7:0.95788211 8:0.99254032 9:0.99825526 10:0.9955464 11:0.99627804 12:0.99773424 13:0.99774535 14:0.99870333 15:0.99939216 16:0.99984327 17:0.99990927 18:0.99858318 19:0.98691837 20:0.97438758 21:0.98348994 
-5.3147432563899999 1:0.97452822 2:0.96731874 3:0.96043733 4:0.95730436 5:0.96106616 6:0.98193137 7:0.98761252 8:0.98159845 9:0.98658148 10:0.99117329 11:0.99069694 12:0.99122146 13:0.98756404 14:0.98365405 15:0.97418824 16:0.98550009 17:0.98932911 18:0.99070944 19:0.99423861 20:0.99564462 21:0.99710495 
-5.3147432563899999 1:0.99979151 2:0.99930798 3:0.99821723 4:0.99870453 5:0.99951744 6:0.99949145 7:0.9997881 8:0.99988315 9:0.99991668 10:0.99991571 11:0.9998489 12:0.99978452 13:0.99981463 14:0.99986135 15:0.99994053 16:0.99995524 17:0.9996663 18:0.99864755 19:0.99857345 20:0.99806385 21:0.99795229 
-5.3147432563899999 1:0.99605659 2:0.97674222 3:0.94680266 4:0.94165984 5:0.94440874 6:0.95316268 7:0.91994881 8:0.91158344 9:0.93008203 10:0.94295301 11:0.93781418 12:0.92950238 13:0.90457336 14:0.90818419 15:0.93188323 16:0.94488592 17:0.94451572 18:0.93737441 19:0.94243699 20:0.9540179 21:0.95806802 
-5.3147432563899999 1:0.93422334 2:0.96502036 3:0.9626677 4:0.94074548 5:0.91431891 6:0.90833685 7:0.92409297 8:0.92884963 9:0.9140399 10:0.92802334 11:0.94308012 12:0.96962217 13:0.96605562 14:0.96529064 15:0.97367401 16:0.97620758 17:0.97818159 18:0.9783126 19:0.98271635 20:0.97636517 21:0.96229706 
-5.3147432563899999 1:0.99829199 2:0.98622698 3:0.96407017 4:0.97473384 5:0.99043126 6:0.99204316 7:0.99465735 8:0.99871526 9:0.99718843 10:0.9966451 11:0.99868401 12:0.9992428 13:0.99969307 14:0.99919521 15:0.99932826 16:0.99983299 17:0.99920276 18:0.99889795 19:0.99878151 20:0.99450349 21:0.98569855 
-5.3147432563899999 1:0.97160983 2:0.97955486 3:0.99311266 4:0.99087209 5:0.97305316 6:0.96745645 7:0.96256809 8:0.96399543 9:0.97263724 10:0.96399553 11:0.92227837 12:0.91204845 13:0.96662846 14:0.99054749 15:0.98955798 16:0.99124501 17:0.98737491 18:0.99449932 19:0.99016469 20:0.98056301 21:0.98236048 
-5.3147432563899999 1:0.99947768 2:0.99777647 3:0.99375462 4:0.99372938 5:0.99333202 6:0.99705535 7:0.977909 8:0.97807764 9:0.98205508 10:0.98023736 11:0.99697467 12:0.99970063 13:0.99989042 14:0.99986712 15:0.99946354 16:0.9998099 17:0.99990786 18:0.99853829 19:0.99580836 20:0.98719424 21:0.99719038 
-5.3147432563899999 1:0.98816363 2:0.98282195 3:0.96483165 4:0.95928775 5:0.96343369 6:0.94140587 7:0.92653708 8:0.95685403 9:0.94178494 10:0.9498379 11:0.92936017 12:0.94296762 13:0.99037722 14:0.99830697 15:0.99718067 16:0.99256318 17:0.98600427 18:0.98809444 19:0.99599221 20:0.9948282 21:0.99634629 
-5.3069259343248465 1:0.84222435 2:0.82528317 3:0.90204678 4:0.91705834 5:0.85338529 6:0.83281459 7:0.85261938 8:0.88829522 9:0.87970056 10:0.81660249 11:0.82728486 12:0.88737893 13:0.90753683 14:0.91535096 15:0.89490351 16:0.87075135 17:0.8800109 18:0.91708866 19:0.94471477 20:0.94327003 21:0.94345093 
1.675395155645635 1:0.93879641 2:0.92095698 3:0.87343157 4:0.87020835 5:0.90819187 6:0.90405174 7:0.89425167 8:0.89884738 9:0.90425045 10:0.93965031 11:0.92817048 12:0.92701975 13:0.93242022 14:0.91203652 15:0.91246093 16:0.93908933 17:0.93404499 18:0.92642181 19:0.9298876 20:0.92525201 21:0.92107878 
-5.3147432563899999 1:0.99113981 2:0.98918599 3:0.98778135 4:0.98477427 5:0.99143357 6:0.98599568 7:0.98333268 8:0.96832847 9:0.95897325 10:0.95160031 11:0.9821491 12:0.97996304 13:0.97811438 14:0.97864574 15:0.98212281 16:0.97414424 17:0.96753313 18:0.96795036 19:0.95288368 20:0.95457052 21:0.9789759 
-5.3147432563899999 1:0.90764991 2:0.9250678 3:0.89128812 4:0.8850122 5:0.90028418 6:0.88646934 7:0.77156266 8:0.7290446 9:0.7695723 10:0.82684724 11:0.79517602 12:0.81355181 13:0.80233991 14:0.82795998 15:0.88893323 16:0.92965959 17:0.97159827 18:0.9838747 19:0.9857308 20:0.98674268 21:0.99294725 
-5.3147432563899999 1:0.78702401 2:0.8000952 3:0.8993714 4:0.9196557 5:0.91475279 6:0.90677262 7:0.88316389 8:0.89115341 9:0.88197925 10:0.87426278 11:0.85070466 12:0.83923108 13:0.83284987 14:0.83844674 15:0.89301347 16:0.89911217 17:0.90739237 18:0.94047938 19:0.94962462 20:0.90353098 21:0.84286838 
-5.3147432563899999 1:0.84603533 2:0.89044884 3:0.85910975 4:0.83445204 5:0.84850646 6:0.8157434 7:0.78652202 8:0.80376571 9:0.85866043 10:0.84666559 11:0.83670324 12:0.89891902 13:0.8519722 14:0.79788766 15:0.74088536 16:0.80169052 17:0.84164774 18:0.82984985 19:0.81963709 20:0.83710128 21:0.81616437 
2.7704005398397094 1:0.94151658 2:0.90374633 3:0.85480188 4:0.82255052 5:0.85187305 6:0.86984149 7:0.85340672 8:0.84419606 9:0.79795942 10:0.83440367 11:0.95437426 12:0.95854701 13:0.89832241 14:0.91536255 15:0.95364653 16:0.95190312 17:0.92221216 18:0.79594876 19:0.72236528 20:0.73107291 21:0.73403436 
5.3147432563899999 1:0.95298177 2:0.97724847 3:0.98742855 4:0.99414065 5:0.99103513 6:0.99288312 7:0.99530792 8:0.98597786 9:0.98753631 10:0.98433799 11:0.99193427 12:0.99282297 13:0.99842565 14:0.99927243 15:0.99922049 16:0.99937037 17:0.99891559 18:0.99809466 19:0.99708955 20:0.93739165 21:0.91137471 
-5.3147432563899999 1:0.98195443 2:0.9969052 3:0.99909195 4:0.99947636 5:0.99968003 6:0.99962316 7:0.99985447 8:0.99976835 9:0.99938408 10:0.99900319 11:0.99929525 12:0.99951695 13:0.99948757 14:0.99934773 15:0.999295 16:0.99876516 17:0.99843657 18:0.9976499 19:0.99681527 20:0.97662864 21:0.96548858 
5.3147432563899999 1:0.940357 2:0.97626042 3:0.98701784 4:0.96798535 5:0.97840905 6:0.99063778 7:0.98872597 8:0.99454227 9:0.98988608 10:0.99455637 11:0.99345441 12:0.99480526 13:0.99470631 14:0.9929413 15:0.98743324 16:0.98780822 17:0.98194675 18:0.97646455 19:0.96537563 20:0.92907247 21:0.88182936 
5.3147432563899999 1:0.95565446 2:0.98933534 3:0.99733355 4:0.99926623 5:0.99948948 6:0.99973959 7:0.99989933 8:0.99967848 9:0.99845518 10:0.9970111 11:0.99912883 12:0.99974248 13:0.99973724 14:0.99971261 15:0.99964975 16:0.99971584 17:0.99931647 18:0.99727544 19:0.99126533 20:0.95179967 21:0.91834973 
3.9280372859385646 1:0.93355798 2:0.98052401 3:0.99355392 4:0.9953293 5:0.99395712 6:0.99081223 7:0.99183862 8:0.99051674 9:0.98432224 10:0.97850453 11:0.94964909 12:0.95895185 13:0.96956713 14:0.96374748 15:0.95488351 16:0.91340523 17:0.84518926 18:0.84815785 19:0.77780774 20:0.72235144 21:0.68037339 
5.3147432563899999 1:0.95660055 2:0.98036272 3:0.98781707 4:0.9932115 5:0.99801935 6:0.99815563 7:0.9973096 8:0.99725257 9:0.99327376 10:0.98996515 11:0.98833978 12:0.99486524 13:0.99471678 14:0.98775457 15:0.9728028 16:0.94650085 17:0.93938133 18:0.87660787 19:0.77195677 20:0.68637775 21:0.66093688 
5.3147432563899999 1:0.9683274 2:0.99280402 3:0.99562103 4:0.99669047 5:0.99814005 6:0.99949885 7:0.99856377 8:0.99790652 9:0.9982516 10:0.99689979 11:0.99442441 12:0.99643286 13:0.9955045 14:0.99527441 15:0.98855788 16:0.92756821 17:0.88960545 18:0.83047565 19:0.72618277 20:0.73921388 21:0.6836292 
-0.25345317859340727 1:0.55217577 2:0.72244026 3:0.94024321 4:0.97139314 5:0.97119952 6:0.98427582 7:0.99132945 8:0.98166948 9:0.9431308 10:0.89814311 11:0.8835155 12:0.9078487 13:0.96677141 14:0.97519311 15:0.96442484 16:0.9374803 17:0.93533777 18:0.91029404 19:0.66657004 20:0.38430633 21:0.40044203 
-0.99737213716705986 1:0.91396622 2:0.95681289 3:0.97501842 4:0.98650765 5:0.98985042 6:0.99442322 7:0.99301757 8:0.99130042 9:0.9878506 10:0.96978635 11:0.98102323 12:0.97786251 13:0.96057298 14:0.94564874 15:0.91366302 16:0.75981926 17:0.61919925 18:0.57445024 19:0.53335802 20:0.56272543 21:0.51165135 
-5.3147432563899999 1:1 2:1 3:1 4:1 5:1 6:1 7:1 8:1 9:1 10:1 11:1 12:1 13:1 14:1 15:1 16:1 17:1 18:1 19:1 20:1 21:1 
0.51911183271970818 1:0.72513773 2:0.78860574 3:0.8251651 4:0.83004089 5:0.83280491 6:0.86176966 7:0.91461525 8:0.93300568 9:0.96195375 10:0.9905075 11:0.99998248 12:0.9999878 13:0.99998829 14:0.99998825 15:0.99999399 16:0.999996 17:0.99999427 18:0.99998339 19:0.99992416 20:0.99968612 21:0.99954365 
5.3147432563899999 1:0.86019847 2:0.86318605 3:0.94194273 4:0.9996172 5:0.99989034 6:0.99994114 7:0.9998632 8:0.99989342 9:0.99967708 10:0.99923913 11:0.99936655 12:0.99971298 13:0.99985297 14:0.99998047 15:0.99998784 16:0.99999349 17:0.99999452 18:0.99999274 19:0.99999157 20:0.99998899 21:0.9999948 
5.3147432563899999 1:0.8398065 2:0.87567819 3:0.91640242 4:0.99944869 5:0.99976993 6:0.99992139 7:0.99985047 8:0.99990581 9:0.99937671 10:0.99680412 11:0.99794494 12:0.99635996 13:0.99691162 14:0.99959737 15:0.99887937 16:0.99859027 17:0.99764275 18:0.99856924 19:0.99829852 20:0.99744126 21:0.99787069 
0.51508377174211506 1:0.78526836 2:0.78452005 3:0.83719427 4:0.99935563 5:0.99846086 6:0.9998773 7:0.99996933 8:0.999644 9:0.99995865 10:0.99986192 11:0.99964569 12:0.99987589 13:0.99994856 14:0.99998495 15:0.99997695 16:0.99992747 17:0.99992726 18:0.99999247 19:0.99997503 20:0.99964473 21:0.99994199 
2.5371932114776494 1:0.90213891 2:0.91106016 3:0.98161777 4:0.98081558 5:0.98662147 6:0.99938902 7:0.99651179 8:0.99256338 9:0.99563673 10:0.99908191 11:0.99934589 12:0.99985168 13:0.99996577 14:0.99996519 15:0.99996468 16:0.99994559 17:0.99982736 18:0.99810105 19:0.99947447 20:0.99988215 21:0.99959702 
-5.3147432563899999 1:0.99589501 2:0.99613121 3:0.9986473 4:0.99965597 5:0.99994174 6:0.99997492 7:0.99998928 8:0.99999127 9:0.99998146 10:0.99993452 11:0.9999559 12:0.99997368 13:0.99999017 14:0.99999861 15:0.99999958 16:0.99999983 17:0.9999998 18:0.99999988 19:0.99999983 20:0.99999906 21:0.99999742 
5.3147432563899999 1:0.91145447 2:0.93098676 3:0.96069652 4:0.96311775 5:0.95076526 6:0.94848591 7:0.94881948 8:0.94850217 9:0.94919734 10:0.96896534 11:0.9999933 12:0.98527899 13:0.97887738 14:0.9852826 15:0.99999805 16:0.99999794 17:0.99999806 18:0.9999982 19:0.9999982 20:0.99999448 21:0.99999009 
5.3147432563899999 1:0.99379784 2:0.99827322 3:0.92576552 4:0.91059794 5:0.90048412 6:0.93366157 7:0.93892448 8:0.98664383 9:0.99850403 10:0.99971675 11:0.99983575 12:0.99996096 13:0.99997501 14:0.99998179 15:0.99999452 16:0.99998441 17:0.99990867 18:0.99995547 19:0.99994791 20:0.99997802 21:0.99995987 
1.6164546554256918 1:0.9977021 2:0.98915548 3:0.89398151 4:0.85578005 5:0.8356975 6:0.84756886 7:0.84413611 8:0.84368089 9:0.84539561 10:0.87527654 11:0.87199866 12:0.88570838 13:0.89007753 14:0.92284125 15:0.96610571 16:0.96712474 17:0.97718827 18:0.99999229 19:0.99999388 20:0.99997169 21:0.99984719 
4.2146172137795332 1:0.99958221 2:0.89863489 3:0.82452536 4:0.81592365 5:0.82673535 6:0.82558439 7:0.82912778 8:0.8324318 9:0.83306699 10:0.84572961 11:0.90687061 12:0.91154948 13:0.92363568 14:0.9298549 15:0.97225938 16:0.980157 17:0.99426002 18:0.98930511 19:0.99642524 20:0.99981944 21:0.99984018 
0.72941599546277036 1:0.94092646 2:0.5240938 3:0.47371272 4:0.41394889 5:0.34908956 6:0.37690412 7:0.39396891 8:0.46106228 9:0.44584335 10:0.45452544 11:0.5837843 12:0.59016698 13:0.60424083 14:0.72368623 15:0.98403134 16:0.88195828 17:0.85773836 18:0.8947218 19:0.97085241 20:0.95828503 21:0.98480876 
1.1769627106171494 1:0.095630612 2:0.53270551 3:0.81056593 4:0.84610881 5:0.85193468 6:0.85260268 7:0.86500338 8:0.8698442 9:0.86949092 10:0.8651895 11:0.87122154 12:0.87379028 13:0.87594045 14:0.91530661 15:0.96224189 16:0.99995723 17:0.99997232 18:0.99998655 19:0.99989434 20:0.99896542 21:0.99277586 
1.1203871007194772 1:0.59705815 2:0.63976314 3:0.66463365 4:0.66578323 5:0.66639229 6:0.66665313 7:0.66665732 8:0.66665027 9:0.66660692 10:0.66663398 11:0.66661376 12:0.66664038 13:0.67275617 14:0.80224362 15:0.92557795 16:0.99994481 17:0.99981644 18:0.99942669 19:0.99753054 20:0.99543005 21:0.99518212 
5.3147432563899999 1:0.77685944 2:0.82130216 3:0.83326388 4:0.83329721 5:0.83306363 6:0.83336127 7:0.83332791 8:0.8365063 9:0.8329933 10:0.83269879 11:0.83187456 12:0.8321275 13:0.83268851 14:0.83304431 15:0.83291415 16:0.83533203 17:0.89288079 18:0.98723333 19:0.99948211 20:0.99879927 21:0.99934733 
2.1133570639829466 1:0.64147428 2:0.67841479 3:0.78213048 4:0.82803752 5:0.84810678 6:0.85425861 7:0.88451984 8:0.9792658 9:0.98964294 10:0.85850362 11:0.85290199 12:0.85371796 13:0.86471595 14:0.99902465 15:0.99366209 16:0.99665362 17:0.99988234 18:0.9998521 19:0.99665781 20:0.99182256 21:0.99650502 
-4.8706287740500702 1:0.78783108 2:0.81796504 3:0.84342477 4:0.89160421 5:0.89423704 6:0.89613659 7:0.95740614 8:0.95212033 9:0.89744236 10:0.86454284 11:0.86503958 12:0.86319838 13:0.86528146 14:0.87389425 15:0.90423296 16:0.93564729 17:0.94379549 18:0.94230363 19:0.94339766 20:0.93515409 21:0.94348442 
5.3147432563899999 1:0.7375644 2:0.80830461 3:0.84960194 4:0.86683982 5:0.87468226 6:0.91672535 7:0.92219295 8:0.91021681 9:0.90725153 10:0.91564627 11:0.93551744 12:0.93259229 13:0.93157661 14:0.93575729 15:0.94470409 16:0.95936847 17:0.99998823 18:0.99999732 19:0.99999768 20:0.99998755 21:0.99996635 
5.3147432563899999 1:0.85144104 2:0.86403304 3:0.87239728 4:0.88244331 5:0.88234901 6:0.90417413 7:0.93752119 8:0.93395853 9:0.91879642 10:0.91896276 11:0.93625403 12:0.96741546 13:0.96722824 14:0.96811897 15:0.97409568 16:0.98042789 17:0.99958321 18:0.99948309 19:0.99943698 20:0.99951709 21:0.99916911 
-4.1020177979099728 1:0.74879524 2:0.74956587 3:0.74973846 4:0.75002554 5:0.75853969 6:0.88109093 7:0.91867025 8:0.90905589 9:0.86441737 10:0.85515348 11:0.89993357 12:0.9559307 13:0.95590568 14:0.95598667 15:0.96181574 16:0.98226901 17:0.99999804 18:0.9999942 19:0.99998412 20:0.99998763 21:0.99998851 
5.3147432563899999 1:0.84690215 2:0.8196659 3:0.80916925 4:0.8027878 5:0.80784662 6:0.79963657 7:0.79265669 8:0.78388932 9:0.78150164 10:0.79660972 11:0.79936647 12:0.80713588 13:0.81599205 14:0.82991232 15:0.84152465 16:0.86622724 17:0.89783769 18:0.90785943 19:0.91067902 20:0.92269979 21:0.91674682 
5.3147432563899999 1:0.83257169 2:0.81289715 3:0.79593461 4:0.79970572 5:0.80974181 6:0.81453733 7:0.81515393 8:0.82390289 9:0.82644277 10:0.81963103 11:0.82166517 12:0.83439362 13:0.84150405 14:0.85544625 15:0.85477092 16:0.86882569 17:0.8594752 18:0.87268261 19:0.88464187 20:0.89486926 21:0.88938357 
1.4256788072217377 1:0.72980142 2:0.7047832 3:0.70285115 4:0.6990817 5:0.71490999 6:0.72940166 7:0.72973549 8:0.72443416 9:0.73234732 10:0.7315131 11:0.71617069 12:0.70560068 13:0.71650604 14:0.72663751 15:0.74195741 16:0.79405268 17:0.80669727 18:0.83543682 19:0.83220142 20:0.8527146 21:0.85850573 
0.30604034362897048 1:-0.1655206 2:0.036788855 3:0.67448792 4:0.79920174 5:0.80793113 6:0.83485522 7:0.84137858 8:0.83743011 9:0.84151704 10:0.84342209 11:0.83379502 12:0.83554015 13:0.85757403 14:0.867014 15:0.87096016 16:0.88160695 17:0.88840502 18:0.88881174 19:0.8895997 20:0.8919668 21:0.86902219 
-0.045092202764168053 1:0.09722343 2:0.43587927 3:0.78586538 4:0.7810957 5:0.81976663 6:0.86504436 7:0.88725843 8:0.88689108 9:0.88691581 10:0.87909649 11:0.8806613 12:0.89002176 13:0.89512965 14:0.8933274 15:0.89824063 16:0.89966171 17:0.92776048 18:0.94106276 19:0.94175517 20:0.93609634 21:0.93153436 
2.3318088183327128 1:0.34136986 2:0.6781515 3:0.79030673 4:0.80676908 5:0.80712081 6:0.82776693 7:0.83240783 8:0.8324759 9:0.83076169 10:0.8302086 11:0.82732496 12:0.82984103 13:0.83245379 14:0.83281203 15:0.83282837 16:0.83303688 17:0.8330943 18:0.8330935 19:0.83209693 20:0.828019 21:0.82574763 
5.3147432563899999 1:0.70905918 2:0.7326984 3:0.75500212 4:0.7627166 5:0.7594157 6:0.7614886 7:0.77017643 8:0.77816669 9:0.78165996 10:0.77503937 11:0.77331478 12:0.77748602 13:0.77639659 14:0.77262931 15:0.76600221 16:0.75456369 17:0.74566767 18:0.7487814 19:0.75415863 20:0.74773082 21:0.74679666 
5.3147432563899999 1:0.71056019 2:0.73733885 3:0.77037222 4:0.79005132 5:0.7984674 6:0.79899159 7:0.79877709 8:0.79707351 9:0.79789789 10:0.79777065 11:0.79770859 12:0.7985022 13:0.79936286 14:0.7996289 15:0.79967499 16:0.79960352 17:0.79970028 18:0.79941242 19:0.79816141 20:0.79666405 21:0.79621935 
-4.5527566825870318 1:0.72433982 2:0.77197254 3:0.80191677 4:0.82304846 5:0.84848914 6:0.86074845 7:0.8635535 8:0.86515706 9:0.86784623 10:0.86931308 11:0.87120308 12:0.86853072 13:0.87305252 14:0.88842496 15:0.88624293 16:0.89104883 17:0.92925208 18:0.96870536 19:0.99286656 20:0.99689808 21:0.99544303 
5.3147432563899999 1:0.6697413 2:0.78674747 3:0.82536703 4:0.83071498 5:0.82709941 6:0.83102791 7:0.82978609 8:0.82457179 9:0.81289325 10:0.8220455 11:0.831476 12:0.83134616 13:0.83277689 14:0.8331071 15:0.83311767 16:0.83270333 17:0.83322911 18:0.83349916 19:0.84402851 20:0.88229586 21:0.87476942 
4.7864634331122309 1:0.79819721 2:0.81723665 3:0.82703111 4:0.8262553 5:0.83030915 6:0.83316743 7:0.83248948 8:0.83238138 9:0.83153433 10:0.83250459 11:0.83299451 12:0.83301998 13:0.8342527 14:0.85436096 15:0.87261364 16:0.87695797 17:0.8843157 18:0.90282918 19:0.93305803 20:0.98992793 21:0.97089843 
0.54077841794044124 1:0.65188474 2:0.66303327 3:0.65758041 4:0.66711116 5:0.68397935 6:0.72082308 7:0.73287546 8:0.73875958 9:0.73458285 10:0.74451985 11:0.74890516 12:0.74971097 13:0.74951335 14:0.74899927 15:0.74955179 16:0.75699744 17:0.7760266 18:0.8151112 19:0.89977425 20:0.87346889 21:0.84016696 
-2.8409196855099736 1:0.66768486 2:0.68495334 3:0.7280288 4:0.75991731 5:0.75066211 6:0.69027402 7:0.6723334 8:0.73295397 9:0.73720929 10:0.70440796 11:0.73500771 12:0.76075955 13:0.77578198 14:0.80481083 15:0.81622663 16:0.81637931 17:0.82895551 18:0.83872521 19:0.85265632 20:0.84352451 21:0.79122758 
-2.0253905473161362 1:0.85676293 2:0.82653876 3:0.80953462 4:0.78834862 5:0.84048732 6:0.82442889 7:0.78359432 8:0.74811034 9:0.7031491 10:0.78124096 11:0.78184255 12:0.8055763 13:0.86231725 14:0.87663883 15:0.88443559 16:0.88050364 17:0.87346011 18:0.87020968 19:0.87352178 20:0.86740311 21:0.86129688 
-3.087148234252401 1:0.74709813 2:0.73462985 3:0.73308081 4:0.73300179 5:0.73746875 6:0.73218745 7:0.72258017 8:0.70683169 9:0.70471091 10:0.72360679 11:0.73684016 12:0.74108157 13:0.73896105 14:0.73721147 15:0.73170508 16:0.74152225 17:0.72934968 18:0.70631358 19:0.70175457 20:0.69829578 21:0.72532665 
0.37116051446996318 1:-0.16650597 2:-0.096342638 3:0.44584112 4:0.61216409 5:0.62230154 6:0.66419988 7:0.73520909 8:0.73139422 9:0.64763714 10:0.61784059 11:0.56295155 12:0.64987785 13:0.76939261 14:0.81754721 15:0.8377883 16:0.84303708 17:0.837881 18:0.83920458 19:0.83408479 20:0.82620017 21:0.80986365 
0.78236625805285909 1:-0.34072289 2:-0.24304937 3:0.31629115 4:0.34333463 5:0.40201507 6:0.44378966 7:0.4738863 8:0.46373734 9:0.43212004 10:0.45460792 11:0.48862297 12:0.49370838 13:0.49429594 14:0.48729894 15:0.46359793 16:0.43122804 17:0.38613815 18:0.42452662 19:0.33420972 20:0.3345557 21:0.34737366 
1.5577833314976997 1:0.3153026 2:0.40677581 3:0.49921944 4:0.65558723 5:0.66130502 6:0.67249053 7:0.68001324 8:0.6270336 9:0.5620293 10:0.51226279 11:0.46654591 12:0.4782814 13:0.59784382 14:0.66530561 15:0.69969789 16:0.71722184 17:0.71232167 18:0.70301855 19:0.64272352 20:0.56324765 21:0.46738534 
-1.7979974397233531 1:0.26961773 2:0.62304847 3:0.72708783 4:0.73563691 5:0.7571981 6:0.79538315 7:0.78481866 8:0.7554251 9:0.76156945 10:0.77447369 11:0.7676879 12:0.79255705 13:0.80897225 14:0.77251783 15:0.78786546 16:0.81521644 17:0.83451088 18:0.82909051 19:0.84304386 20:0.86348905 21:0.86620522 
0.99024635502211833 1:0.04358525 2:0.37260217 3:0.63393633 4:0.71216409 5:0.7459544 6:0.74979024 7:0.73582161 8:0.74997698 9:0.74700887 10:0.71031096 11:0.72480421 12:0.73524504 13:0.73974469 14:0.74313076 15:0.74568472 16:0.79230698 17:0.80328295 18:0.80879764 19:0.80738525 20:0.79758654 21:0.77395818 
-2.8003572764997346 1:0.49831351 2:0.6871364 3:0.75003349 4:0.75105555 5:0.78113875 6:0.80988218 7:0.82533803 8:0.81960945 9:0.80964686 10:0.82773427 11:0.86303281 12:0.87155111 13:0.87904618 14:0.86690094 15:0.87603268 16:0.88794534 17:0.89302034 18:0.89272697 19:0.88794509 20:0.86279843 21:0.81966564 
-1.3642568876045507 1:0.68590635 2:0.68723186 3:0.72597117 4:0.74096583 5:0.71470304 6:0.66894926 7:0.63406526 8:0.65684562 9:0.61309763 10:0.57546068 11:0.54367988 12:0.47780916 13:0.50686874 14:0.64288138 15:0.70868571 16:0.71681189 17:0.67073362 18:0.66301799 19:0.68079505 20:0.69697064 21:0.71393048 
-0.22974263916882551 1:0.56148669 2:0.50865103 3:0.65885372 4:0.72834573 5:0.70242363 6:0.57484962 7:0.57520891 8:0.66278026 9:0.63995771 10:0.55063924 11:0.55533409 12:0.56885635 13:0.63434329 14:0.67892181 15:0.65869181 16:0.72636485 17:0.73532183 18:0.77839911 19:0.76215154 20:0.66036211 21:0.58463654 
-0.94547095210062548 1:0.78091761 2:0.77240111 3:0.74603722 4:0.72263879 5:0.7099734 6:0.67215146 7:0.69512434 8:0.61580958 9:0.34324357 10:0.52136373 11:0.61128257 12:0.65734779 13:0.62628347 14:0.62467909 15:0.67068779 16:0.62441265 17:0.61530898 18:0.55570945 19:0.41400652 20:0.37412333 21:0.46969093 
-0.37118404205978528 1:-0.22121778 2:-0.34092871 3:-0.11817176 4:0.4465835 5:0.49561306 6:0.5689853 7:0.64933688 8:0.6322136 9:0.55315892 10:0.51771288 11:0.52902629 12:0.4599434 13:0.38582089 14:0.47327497 15:0.45694071 16:0.47565552 17:0.48521633 18:0.47733616 19:0.45374282 20:0.47139127 21:0.4987704 
-0.55721783697061977 1:-0.48303341 2:-0.54113094 3:0.018160136 4:0.30718638 5:0.49037869 6:0.55603192 7:0.67882195 8:0.66669674 9:0.62584725 10:0.59860176 11:0.61203203 12:0.62329769 13:0.65066763 14:0.53564067 15:0.46552467 16:0.53542612 17:0.58809933 18:0.61468372 19:0.50278016 20:0.3110773 21:0.28195754 
-0.91892550567741438 1:-0.14331207 2:-0.24867469 3:0.2102973 4:0.71966589 5:0.71031395 6:0.71924457 7:0.72551774 8:0.65873063 9:0.35503936 10:0.15998431 11:0.16327014 12:0.11652953 13:0.18828795 14:0.48535124 15:0.51241775 16:0.57345609 17:0.53204635 18:0.37565742 19:0.32551926 20:0.10149038 21:0.0018552085 
-1.064474469059866 1:0.19133225 2:-0.13496997 3:-0.45954856 4:0.038187082 5:0.48591395 6:0.53756008 7:0.66706936 8:0.7037706 9:0.6274226 10:0.57571037 11:0.53106165 12:0.58161904 13:0.59140784 14:0.52844475 15:0.25353806 16:0.24994514 17:0.3695035 18:0.23533382 19:0.14712292 20:0.11248325 21:0.042108783 
-1.0555828622225738 1:0.34908214 2:0.32457346 3:0.23319933 4:0.51120414 5:0.60355549 6:0.60770991 7:0.63701876 8:0.59713744 9:0.52912008 10:0.40419682 11:0.44150657 12:0.49282616 13:0.54832968 14:0.47409801 15:0.39055164 16:0.4346532 17:0.47018959 18:0.33792322 19:0.1810327 20:0.18169287 21:0.15724427 
-0.90629342969696369 1:-0.28409777 2:-0.25188907 3:0.26408011 4:0.53853167 5:0.60937506 6:0.63374289 7:0.58598958 8:0.4586687 9:0.22231243 10:0.22312762 11:0.24786538 12:0.34901691 13:0.54463673 14:0.53860518 15:0.61772201 16:0.60887443 17:0.65198135 18:0.56239783 19:0.33602549 20:0.28058275 21:0.30135013 
-0.39672283889283283 1:0.0813354 2:0.41220972 3:0.6382838 4:0.68126706 5:0.70794307 6:0.705295 7:0.66430243 8:0.62199339 9:0.60907112 10:0.61557246 11:0.65900595 12:0.6576532 13:0.70882374 14:0.75442323 15:0.82962796 16:0.85647188 17:0.85082788 18:0.79419183 19:0.81623843 20:0.83554499 21:0.80512254 
-1.2606118204809713 1:-0.053353983 2:0.23877444 3:0.4834437 4:0.51446316 5:0.61917308 6:0.64853333 7:0.60681257 8:0.65667093 9:0.63115838 10:0.51854638 11:0.49133716 12:0.46447221 13:0.59324695 14:0.67382928 15:0.70484451 16:0.70818472 17:0.75558617 18:0.79960916 19:0.80931716 20:0.71329894 21:0.5795991 
-1.9490168333418805 1:0.42349699 2:0.53456149 3:0.66239283 4:0.64181007 5:0.65216985 6:0.71193972 7:0.68863517 8:0.67187453 9:0.65745901 10:0.65876723 11:0.75387225 12:0.77166725 13:0.72802026 14:0.65887986 15:0.68525419 16:0.71389453 17:0.70777217 18:0.75468441 19:0.71361515 20:0.60345074 21:0.63672408 
5.3147432563899999 1:0.94536779 2:0.97816209 3:0.98527396 4:0.97899755 5:0.99175162 6:0.99700354 7:0.99521012 8:0.99189982 9:0.9891918 10:0.98527166 11:0.98879847 12:0.99322263 13:0.998974 14:0.9991029 15:0.99873614 16:0.99906393 17:0.99713696 18:0.99823542 19:0.99745995 20:0.96728356 21:0.94580068 
-5.3147432563899999 1:0.96420081 2:0.98945482 3:0.99771111 4:0.99950752 5:0.99966595 6:0.99987476 7:0.99994127 8:0.99987424 9:0.99988813 10:0.99969391 11:0.99974099 12:0.99983776 13:0.99994841 14:0.99997956 15:0.9999546 16:0.99984737 17:0.99983314 18:0.9998663 19:0.99953917 20:0.99527345 21:0.97451129 
-5.3147432563899999 1:0.97822035 2:0.98908676 3:0.9894534 4:0.99370781 5:0.99859024 6:0.9984724 7:0.99865127 8:0.99834785 9:0.99961043 10:0.99965167 11:0.99970286 12:0.99966443 13:0.99971411 14:0.99962368 15:0.9991398 16:0.99965729 17:0.99963586 18:0.99981012 19:0.99940759 20:0.99067729 21:0.98835847 
-5.3147432563899999 1:0.99210556 2:0.99784655 3:0.99835407 4:0.99972107 5:0.99988315 6:0.99994863 7:0.99998144 8:0.99997451 9:0.99994638 10:0.99967808 11:0.99992464 12:0.99971357 13:0.99952337 14:0.99970964 15:0.9999127 16:0.99956725 17:0.99818911 18:0.99832665 19:0.99635299 20:0.99190611 21:0.9824449 
5.3147432563899999 1:0.93581126 2:0.97475908 3:0.99133004 4:0.99345185 5:0.99704841 6:0.9991306 7:0.99846631 8:0.99743547 9:0.99282698 10:0.99468253 11:0.99582542 12:0.99588498 13:0.99578857 14:0.99495372 15:0.99233618 16:0.99088795 17:0.98618622 18:0.97514841 19:0.9661455 20:0.94419355 21:0.89545246 
-5.3147432563899999 1:0.94763243 2:0.98336908 3:0.99752808 4:0.99908769 5:0.9996099 6:0.99955583 7:0.99918446 8:0.99962056 9:0.99925407 10:0.99874283 11:0.99900328 12:0.99947664 13:0.99980125 14:0.99988007 15:0.99976568 16:0.99918751 17:0.99902973 18:0.99946529 19:0.99502186 20:0.97235759 21:0.8983937 
-5.3147432563899999 1:0.96899277 2:0.99331406 3:0.99716751 4:0.99823617 5:0.99960387 6:0.99976229 7:0.99972341 8:0.99965679 9:0.9994013 10:0.99847799 11:0.99877785 12:0.99949752 13:0.99897898 14:0.99847514 15:0.99805214 16:0.99406411 17:0.99018049 18:0.98680446 19:0.96606632 20:0.92409192 21:0.9387845 
-5.3147432563899999 1:0.97932279 2:0.99805952 3:0.99747764 4:0.99932966 5:0.99957209 6:0.99973858 7:0.99988124 8:0.99968899 9:0.99948154 10:0.99941539 11:0.9998534 12:0.99981754 13:0.99942391 14:0.99859634 15:0.99663639 16:0.99346556 17:0.98122047 18:0.9589901 19:0.91466143 20:0.92779384 21:0.91080061 
-5.3147432563899999 1:0.95302183 2:0.98872808 3:0.99444062 4:0.99873533 5:0.99945443 6:0.99908566 7:0.99883432 8:0.99673558 9:0.99543624 10:0.98244605 11:0.98194385 12:0.99074037 13:0.9933475 14:0.98831538 15:0.9833538 16:0.96620108 17:0.94238119 18:0.88809931 19:0.78548558 20:0.67189372 21:0.63028694 
1.718823408452764 1:0.78111074 2:0.88761794 3:0.92591028 4:0.92937114 5:0.93945276 6:0.93371362 7:0.92110981 8:0.92813778 9:0.89965941 10:0.84575252 11:0.81458622 12:0.82149293 13:0.84208623 14:0.77603277 15:0.76951954 16:0.65393085 17:0.60643433 18:0.62648757 19:0.44499933 20:0.4021977 21:0.41573024 
0.0017182627368131117 1:0.84839131 2:0.90104301 3:0.90203344 4:0.92211466 5:0.96275818 6:0.97181977 7:0.96691617 8:0.95768991 9:0.93024499 10:0.901308 11:0.88588517 12:0.9081813 13:0.92644923 14:0.8514879 15:0.81470268 16:0.73900977 17:0.81757121 18:0.72915512 19:0.62054759 20:0.52422812 21:0.4826782 
-0.23532993555128268 1:0.85794795 2:0.90579077 3:0.89804831 4:0.92062187 5:0.94623329 6:0.95775522 7:0.97513671 8:0.9752219 9:0.93714497 10:0.91127156 11:0.97515816 12:0.97930596 13:0.9652137 14:0.95759836 15:0.95338988 16:0.90483176 17:0.85718487 18:0.72821122 19:0.54993817 20:0.58979739 21:0.55603802 
-5.3147432563899999 1:1 2:1 3:1 4:1 5:1 6:1 7:1 8:1 9:1 10:1 11:1 12:1 13:1 14:1 15:1 16:1 17:1 18:1 19:1 20:1 21:1 
5.3147432563899999 1:1 2:1 3:1 4:1 5:1 6:1 7:1 8:1 9:1 10:1 11:1 12:1 13:1 14:1 15:1 16:1 17:1 18:1 19:1 20:1 21:1 
-5.3147432563899999 1:1 2:1 3:1 4:1 5:1 6:1 7:1 8:1 9:1 10:1 11:1 12:1 13:1 14:1 15:1 16:1 17:1 18:1 19:1 20:1 21:1 
-5.3147432563899999 1:1 2:1 3:1 4:1 5:1 6:1 7:1 8:1 9:1 10:1 11:1 12:1 13:1 14:1 15:1 16:1 17:1 18:1 19:1 20:1 21:1 
5.3147432563899999 1:1 2:1 3:1 4:1 5:1 6:1 7:1 8:1 9:1 10:1 11:1 12:1 13:1 14:1 15:1 16:1 17:1 18:1 19:1 20:1 21:1 
-5.3147432563899999 1:1 2:1 3:1 4:1 5:1 6:1 7:1 8:1 9:1 10:1 11:1 12:1 13:1 14:1 15:1 16:1 17:1 18:1 19:1 20:1 21:1 
-5.3147432563899999 1:1 2:1 3:1 4:1 5:1 6:1 7:1 8:1 9:1 10:1 11:1 12:1 13:1 14:1 15:1 16:1 17:1 18:1 19:1 20:1 21:1 
5.3147432563899999 1:1 2:1 3:1 4:1 5:1 6:1 7:1 8:1 9:1 10:1 11:1 12:1 13:1 14:1 15:1 16:1 17:1 18:1 19:1 20:1 21:1 
-5.3147432563899999 1:1 2:1 3:1 4:1 5:1 6:1 7:1 8:1 9:1 10:1 11:1 12:1 13:1 14:1 15:1 16:1 17:1 18:1 19:1 20:1 21:1 
-4.6167319918547287 1:1 2:1 3:1 4:1 5:1 6:1 7:1 8:1 9:1 10:1 11:1 12:1 13:1 14:1 15:1 16:1 17:1 18:1 19:1 20:1 21:1 
5.3147432563899999 1:1 2:1 3:1 4:1 5:1 6:1 7:1 8:1 9:1 10:1 11:1 12:1 13:1 14:1 15:1 16:1 17:1 18:1 19:1 20:1 21:1 
-5.3147432563899999 1:1 2:1 3:1 4:1 5:1 6:1 7:1 8:1 9:1 10:1 11:1 12:1 13:1 14:1 15:1 16:1 17:1 18:1 19:1 20:1 21:1 
5.3147432563899999 1:1 2:1 3:1 4:1 5:1 6:1 7:1 8:1 9:1 10:1 11:1 12:1 13:1 14:1 15:1 16:1 17:1 18:1 19:1 20:1 21:1 
-5.3147432563899999 1:1 2:1 3:1 4:1 5:1 6:1 7:1 8:1 9:1 10:1 11:1 12:1 13:1 14:1 15:1 16:1 17:1 18:1 19:1 20:1 21:1 
3.3194912978189857 1:1 2:1 3:1 4:1 5:1 6:1 7:1 8:1 9:1 10:1 11:1 12:1 13:1 14:1 15:1 16:1 17:1 18:1 19:1 20:1 21:1 
-5.3147432563899999 1:1 2:1 3:1 4:1 5:1 6:1 7:1 8:1 9:1 10:1 11:1 12:1 13:1 14:1 15:1 16:1 17:1 18:1 19:1 20:1 21:1 
-5.3147432563899999 1:1 2:1 3:1 4:1 5:1 6:1 7:1 8:1 9:1 10:1 11:1 12:1 13:1 14:1 15:1 16:1 17:1 18:1 19:1 20:1 21:1 
-5.3147432563899999 1:1 2:1 3:1 4:1 5:1 6:1 7:1 8:1 9:1 10:1 11:1 12:1 13:1 14:1 15:1 16:1 17:1 18:1 19:1 20:1 21:1 
-5.3147432563899999 1:1 2:1 3:1 4:1 5:1 6:1 7:1 8:1 9:1 10:1 11:1 12:1 13:1 14:1 15:1 16:1 17:1 18:1 19:1 20:1 21:1 
-5.3147432563899999 1:1 2:1 3:1 4:1 5:1 6:1 7:1 8:1 9:1 10:1 11:1 12:1 13:1 14:1 15:1 16:1 17:1 18:1 19:1 20:1 21:1 
-5.3147432563899999 1:1 2:1 3:1 4:1 5:1 6:1 7:1 8:1 9:1 10:1 11:1 12:1 13:1 14:1 15:1 16:1 17:1 18:1 19:1 20:1 21:1 
-5.3147432563899999 1:1 2:1 3:1 4:1 5:1 6:1 7:1 8:1 9:1 10:1 11:1 12:1 13:1 14:1 15:1 16:1 17:1 18:1 19:1 20:1 21:1 
-5.3147432563899999 1:1 2:1 3:1 4:1 5:1 6:1 7:1 8:1 9:1 10:1 11:1 12:1 13:1 14:1 15:1 16:1 17:1 18:1 19:1 20:1 21:1 
-5.3147432563899999 1:1 2:1 3:1 4:1 5:1 6:1 7:1 8:1 9:1 10:1 11:1 12:1 13:1 14:1 15:1 16:1 17:1 18:1 19:1 20:1 21:1 
-5.3147432563899999 1:1 2:1 3:1 4:1 5:1 6:1 7:1 8:1 9:1 10:1 11:1 12:1 13:1 14:1 15:1 16:1 17:1 18:1 19:1 20:1 21:1 
-5.3147432563899999 1:1 2:1 3:1 4:1 5:1 6:1 7:1 8:1 9:1 10:1 11:1 12:1 13:1 14:1 15:1 16:1 17:1 18:1 19:1 20:1 21:1 
-5.3147432563899999 1:1 2:1 3:1 4:1 5:1 6:1 7:1 8:1 9:1 10:1 11:1 12:1 13:1 14:1 15:1 16:1 17:1 18:1 19:1 20:1 21:1 
-5.3147432563899999 1:1 2:1 3:1 4:1 5:1 6:1 7:1 8:1 9:1 10:1 11:1 12:1 13:1 14:1 15:1 16:1 17:1 18:1 19:1 20:1 21:1 
-5.3147432563899999 1:1 2:1 3:1 4:1 5:1 6:1 7:1 8:1 9:1 10:1 11:1 12:1 13:1 14:1 15:1 16:1 17:1 18:1 19:1 20:1 21:1 
-5.3147432563899999 1:1 2:1 3:1 4:1 5:1 6:1 7:1 8:1 9:1 10:1 11:1 12:1 13:1 14:1 15:1 16:1 17:1 18:1 19:1 20:1 21:1 
-5.3147432563899999 1:1 2:1 3:1 4:1 5:1 6:1 7:1 8:1 9:1 10:1 11:1 12:1 13:1 14:1 15:1 16:1 17:1 18:1 19:1 20:1 21:1 
-5.3147432563899999 1:1 2:1 3:1 4:1 5:1 6:1 7:1 8:1 9:1 10:1 11:1 12:1 13:1 14:1 15:1 16:1 17:1 18:1 19:1 20:1 21:1 
-5.3147432563899999 1:1 2:1 3:1 4:1 5:1 6:1 7:1 8:1 9:1 10:1 11:1 12:1 13:1 14:1 15:1 16:1 17:1 18:1 19:1 20:1 21:1 
-5.3147432563899999 1:1 2:1 3:1 4:1 5:1 6:1 7:1 8:1 9:1 10:1 11:1 12:1 13:1 14:1 15:1 16:1 17:1 18:1 19:1 20:1 21:1 
-5.3147432563899999 1:1 2:1 3:1 4:1 5:1 6:1 7:1 8:1 9:1 10:1 11:1 12:1 13:1 14:1 15:1 16:1 17:1 18:1 19:1 20:1 21:1 
-5.3147432563899999 1:1 2:1 3:1 4:1 5:1 6:1 7:1 8:1 9:1 10:1 11:1 12:1 13:1 14:1 15:1 16:1 17:1 18:1 19:1 20:1 21:1 
-5.3147432563899999 1:1 2:1 3:1 4:1 5:1 6:1 7:1 8:1 9:1 10:1 11:1 12:1 13:1 14:1 15:1 16:1 17:1 18:1 19:1 20:1 21:1 
-5.3147432563899999 1:1 2:1 3:1 4:1 5:1 6:1 7:1 8:1 9:1 10:1 11:1 12:1 13:1 14:1 15:1 16:1 17:1 18:1 19:1 20:1 21:1 
-5.3147432563899999 1:1 2:1 3:1 4:1 5:1 6:1 7:1 8:1 9:1 10:1 11:1 12:1 13:1 14:1 15:1 16:1 17:1 18:1 19:1 20:1 21:1 
-5.3147432563899999 1:1 2:1 3:1 4:1 5:1 6:1 7:1 8:1 9:1 10:1 11:1 12:1 13:1 14:1 15:1 16:1 17:1 18:1 19:1 20:1 21:1 
-5.3147432563899999 1:1 2:1 3:1 4:1 5:1 6:1 7:1 8:1 9:1 10:1 11:1 12:1 13:1 14:1 15:1 16:1 17:1 18:1 19:1 20:1 21:1 
-5.3147432563899999 1:1 2:1 3:1 4:1 5:1 6:1 7:1 8:1 9:1 10:1 11:1 12:1 13:1 14:1 15:1 16:1 17:1 18:1 19:1 20:1 21:1 
-5.3147432563899999 1:1 2:1 3:1 4:1 5:1 6:1 7:1 8:1 9:1 10:1 11:1 12:1 13:1 14:1 15:1 16:1 17:1 18:1 19:1 20:1 21:1 
2.7728249184697114 1:1 2:1 3:1 4:1 5:1 6:1 7:1 8:1 9:1 10:1 11:1 12:1 13:1 14:1 15:1 16:1 17:1 18:1 19:1 20:1 21:1 
-5.3147432563899999 1:1 2:1 3:1 4:1 5:1 6:1 7:1 8:1 9:1 10:1 11:1 12:1 13:1 14:1 15:1 16:1 17:1 18:1 19:1 20:1 21:1 
5.3147432563899999 1:1 2:1 3:1 4:1 5:1 6:1 7:1 8:1 9:1 10:1 11:1 12:1 13:1 14:1 15:1 16:1 17:1 18:1 19:1 20:1 21:1 
-5.3147432563899999 1:1 2:1 3:1 4:1 5:1 6:1 7:1 8:1 9:1 10:1 11:1 12:1 13:1 14:1 15:1 16:1 17:1 18:1 19:1 20:1 21:1 
5.3147432563899999 1:1 2:1 3:1 4:1 5:1 6:1 7:1 8:1 9:1 10:1 11:1 12:1 13:1 14:1 15:1 16:1 17:1 18:1 19:1 20:1 21:1 
-5.3147432563899999 1:1 2:1 3:1 4:1 5:1 6:1 7:1 8:1 9:1 10:1 11:1 12:1 13:1 14:1 15:1 16:1 17:1 18:1 19:1 20:1 21:1 
5.3147432563899999 1:1 2:1 3:1 4:1 5:1 6:1 7:1 8:1 9:1 10:1 11:1 12:1 13:1 14:1 15:1 16:1 17:1 18:1 19:1 20:1 21:1 
-5.3147432563899999 1:1 2:1 3:1 4:1 5:1 6:1 7:1 8:1 9:1 10:1 11:1 12:1 13:1 14:1 15:1 16:1 17:1 18:1 19:1 20:1 21:1 
5.3147432563899999 1:1 2:1 3:1 4:1 5:1 6:1 7:1 8:1 9:1 10:1 11:1 12:1 13:1 14:1 15:1 16:1 17:1 18:1 19:1 20:1 21:1 
-5.3147432563899999 1:1 2:1 3:1 4:1 5:1 6:1 7:1 8:1 9:1 10:1 11:1 12:1 13:1 14:1 15:1 16:1 17:1 18:1 19:1 20:1 21:1 
5.3147432563899999 1:1 2:1 3:1 4:1 5:1 6:1 7:1 8:1 9:1 10:1 11:1 12:1 13:1 14:1 15:1 16:1 17:1 18:1 19:1 20:1 21:1 
-5.3147432563899999 1:1 2:1 3:1 4:1 5:1 6:1 7:1 8:1 9:1 10:1 11:1 12:1 13:1 14:1 15:1 16:1 17:1 18:1 19:1 20:1 21:1 
5.3147432563899999 1:1 2:1 3:1 4:1 5:1 6:1 7:1 8:1 9:1 10:1 11:1 12:1 13:1 14:1 15:1 16:1 17:1 18:1 19:1 20:1 21:1 
-5.3147432563899999 1:1 2:1 3:1 4:1 5:1 6:1 7:1 8:1 9:1 10:1 11:1 12:1 13:1 14:1 15:1 16:1 17:1 18:1 19:1 20:1 21:1 
5.3147432563899999 1:1 2:1 3:1 4:1 5:1 6:1 7:1 8:1 9:1 10:1 11:1 12:1 13:1 14:1 15:1 16:1 17:1 18:1 19:1 20:1 21:1 
-5.3147432563899999 1:1 2:1 3:1 4:1 5:1 6:1 7:1 8:1 9:1 10:1 11:1 12:1 13:1 14:1 15:1 16:1 17:1 18:1 19:1 20:1 21:1 
5.3147432563899999 1:1 2:1 3:1 4:1 5:1 6:1 7:1 8:1 9:1 10:1 11:1 12:1 13:1 14:1 15:1 16:1 17:1 18:1 19:1 20:1 21:1 
-5.3147432563899999 1:1 2:1 3:1 4:1 5:1 6:1 7:1 8:1 9:1 10:1 11:1 12:1 13:1 14:1 15:1 16:1 17:1 18:1 19:1 20:1 21:1 
5.3147432563899999 1:1 2:1 3:1 4:1 5:1 6:1 7:1 8:1 9:1 10:1 11:1 12:1 13:1 14:1 15:1 16:1 17:1 18:1 19:1 20:1 21:1 
-5.3147432563899999 1:1 2:1 3:1 4:1 5:1 6:1 7:1 8:1 9:1 10:1 11:1 12:1 13:1 14:1 15:1 16:1 17:1 18:1 19:1 20:1 21:1 
5.3147432563899999 1:1 2:1 3:1 4:1 5:1 6:1 7:1 8:1 9:1 10:1 11:1 12:1 13:1 14:1 15:1 16:1 17:1 18:1 19:1 20:1 21:1 
-5.3147432563899999 1:1 2:1 3:1 4:1 5:1 6:1 7:1 8:1 9:1 10:1 11:1 12:1 13:1 14:1 15:1 16:1 17:1 18:1 19:1 20:1 21:1 
5.3147432563899999 1:1 2:1 3:1 4:1 5:1 6:1 7:1 8:1 9:1 10:1 11:1 12:1 13:1 14:1 15:1 16:1 17:1 18:1 19:1 20:1 21:1 
-5.3147432563899999 1:1 2:1 3:1 4:1 5:1 6:1 7:1 8:1 9:1 10:1 11:1 12:1 13:1 14:1 15:1 16:1 17:1 18:1 19:1 20:1 21:1 
5.3147432563899999 1:1 2:1 3:1 4:1 5:1 6:1 7:1 8:1 9:1 10:1 11:1 12:1 13:1 14:1 15:1 16:1 17:1 18:1 19:1 20:1 21:1 
-5.3147432563899999 1:1 2:1 3:1 4:1 5:1 6:1 7:1 8:1 9:1 10:1 11:1 12:1 13:1 14:1 15:1 16:1 17:1 18:1 19:1 20:1 21:1 
5.3147432563899999 1:1 2:1 3:1 4:1 5:1 6:1 7:1 8:1 9:1 10:1 11:1 12:1 13:1 14:1 15:1 16:1 17:1 18:1 19:1 20:1 21:1 
-5.3147432563899999 1:1 2:1 3:1 4:1 5:1 6:1 7:1 8:1 9:1 10:1 11:1 12:1 13:1 14:1 15:1 16:1 17:1 18:1 19:1 20:1 21:1 
5.3147432563899999 1:1 2:1 3:1 4:1 5:1 6:1 7:1 8:1 9:1 10:1 11:1 12:1 13:1 14:1 15:1 16:1 17:1 18:1 19:1 20:1 21:1 
-5.3147432563899999 1:1 2:1 3:1 4:1 5:1 6:1 7:1 8:1 9:1 10:1 11:1 12:1 13:1 14:1 15:1 16:1 17:1 18:1 19:1 20:1 21:1 
5.3147432563899999 1:1 2:1 3:1 4:1 5:1 6:1 7:1 8:1 9:1 10:1 11:1 12:1 13:1 14:1 15:1 16:1 17:1 18:1 19:1 20:1 21:1 
-5.3147432563899999 1:1 2:1 3:1 4:1 5:1 6:1 7:1 8:1 9:1 10:1 11:1 12:1 13:1 14:1 15:1 16:1 17:1 18:1 19:1 20:1 21:1 
5.3147432563899999 1:1 2:1 3:1 4:1 5:1 6:1 7:1 8:1 9:1 10:1 11:1 12:1 13:1 14:1 15:1 16:1 17:1 18:1 19:1 20:1 21:1 
-5.3147432563899999 1:1 2:1 3:1 4:1 5:1 6:1 7:1 8:1 9:1 10:1 11:1 12:1 13:1 14:1 15:1 16:1 17:1 18:1 19:1 20:1 21:1 
5.3147432563899999 1:1 2:1 3:1 4:1 5:1 6:1 7:1 8:1 9:1 10:1 11:1 12:1 13:1 14:1 15:1 16:1 17:1 18:1 19:1 20:1 21:1 
-5.3147432563899999 1:1 2:1 3:1 4:1 5:1 6:1 7:1 8:1 9:1 10:1 11:1 12:1 13:1 14:1 15:1 16:1 17:1 18:1 19:1 20:1 21:1 
5.3147432563899999 1:1 2:1 3:1 4:1 5:1 6:1 7:1 8:1 9:1 10:1 11:1 12:1 13:1 14:1 15:1 16:1 17:1 18:1 19:1 20:1 21:1 
-5.3147432563899999 1:1 2:1 3:1 4:1 5:1 6:1 7:1 8:1 9:1 10:1 11:1 12:1 13:1 14:1 15:1 16:1 17:1 18:1 19:1 20:1 21:1 
5.3147432563899999 1:1 2:1 3:1 4:1 5:1 6:1 7:1 8:1 9:1 10:1 11:1 12:1 13:1 14:1 15:1 16:1 17:1 18:1 19:1 20:1 21:1 
-5.3147432563899999 1:1 2:1 3:1 4:1 5:1 6:1 7:1 8:1 9:1 10:1 11:1 12:1 13:1 14:1 15:1 16:1 17:1 18:1 19:1 20:1 21:1 
5.3147432563899999 1:1 2:1 3:1 4:1 5:1 6:1 7:1 8:1 9:1 10:1 11:1 12:1 13:1 14:1 15:1 16:1 17:1 18:1 19:1 20:1 21:1 
-5.3147432563899999 1:1 2:1 3:1 4:1 5:1 6:1 7:1 8:1 9:1 10:1 11:1 12:1 13:1 14:1 15:1 16:1 17:1 18:1 19:1 20:1 21:1 
5.3147432563899999 1:1 2:1 3:1 4:1 5:1 6:1 7:1 8:1 9:1 10:1 11:1 12:1 13:1 14:1 15:1 16:1 17:1 18:1 19:1 20:1 21:1 
-5.3147432563899999 1:1 2:1 3:1 4:1 5:1 6:1 7:1 8:1 9:1 10:1 11:1 12:1 13:1 14:1 15:1 16:1 17:1 18:1 19:1 20:1 21:1 
5.3147432563899999 1:1 2:1 3:1 4:1 5:1 6:1 7:1 8:1 9:1 10:1 11:1 12:1 13:1 14:1 15:1 16:1 17:1 18:1 19:1 20:1 21:1 
-5.3147432563899999 1:1 2:1 3:1 4:1 5:1 6:1 7:1 8:1 9:1 10:1 11:1 12:1 13:1 14:1 15:1 16:1 17:1 18:1 19:1 20:1 21:1 
5.3147432563899999 1:1 2:1 3:1 4:1 5:1 6:1 7:1 8:1 9:1 10:1 11:1 12:1 13:1 14:1 15:1 16:1 17:1 18:1 19:1 20:1 21:1 
-5.3147432563899999 1:1 2:1 3:1 4:1 5:1 6:1 7:1 8:1 9:1 10:1 11:1 12:1 13:1 14:1 15:1 16:1 17:1 18:1 19:1 20:1 21:1 
5.3147432563899999 1:1 2:1 3:1 4:1 5:1 6:1 7:1 8:1 9:1 10:1 11:1 12:1 13:1 14:1 15:1 16:1 17:1 18:1 19:1 20:1 21:1 
-5.3147432563899999 1:1 2:1 3:1 4:1 5:1 6:1 7:1 8:1 9:1 10:1 11:1 12:1 13:1 14:1 15:1 16:1 17:1 18:1 19:1 20:1 21:1 
5.3147432563899999 1:1 2:1 3:1 4:1 5:1 6:1 7:1 8:1 9:1 10:1 11:1 12:1 13:1 14:1 15:1 16:1 17:1 18:1 19:1 20:1 21:1 
-5.3147432563899999 1:1 2:1 3:1 4:1 5:1 6:1 7:1 8:1 9:1 10:1 11:1 12:1 13:1 14:1 15:1 16:1 17:1 18:1 19:1 20:1 21:1 
5.3147432563899999 1:1 2:1 3:1 4:1 5:1 6:1 7:1 8:1 9:1 10:1 11:1 12:1 13:1 14:1 15:1 16:1 17:1 18:1 19:1 20:1 21:1 
5.3147432563899999 1:1 2:1 3:1 4:1 5:1 6:1 7:1 8:1 9:1 10:1 11:1 12:1 13:1 14:1 15:1 16:1 17:1 18:1 19:1 20:1 21:1 
5.3147432563899999 1:1 2:1 3:1 4:1 5:1 6:1 7:1 8:1 9:1 10:1 11:1 12:1 13:1 14:1 15:1 16:1 17:1 18:1 19:1 20:1 21:1 
5.3147432563899999 1:1 2:1 3:1 4:1 5:1 6:1 7:1 8:1 9:1 10:1 11:1 12:1 13:1 14:1 15:1 16:1 17:1 18:1 19:1 20:1 21:1 
5.3147432563899999 1:1 2:1 3:1 4:1 5:1 6:1 7:1 8:1 9:1 10:1 11:1 12:1 13:1 14:1 15:1 16:1 17:1 18:1 19:1 20:1 21:1 
5.3147432563899999 1:1 2:1 3:1 4:1 5:1 6:1 7:1 8:1 9:1 10:1 11:1 12:1 13:1 14:1 15:1 16:1 17:1 18:1 19:1 20:1 21:1 
5.3147432563899999 1:1 2:1 3:1 4:1 5:1 6:1 7:1 8:1 9:1 10:1 11:1 12:1 13:1 14:1 15:1 16:1 17:1 18:1 19:1 20:1 21:1 
5.3147432563899999 1:1 2:1 3:1 4:1 5:1 6:1 7:1 8:1 9:1 10:1 11:1 12:1 13:1 14:1 15:1 16:1 17:1 18:1 19:1 20:1 21:1 
5.3147432563899999 1:1 2:1 3:1 4:1 5:1 6:1 7:1 8:1 9:1 10:1 11:1 12:1 13:1 14:1 15:1 16:1 17:1 18:1 19:1 20:1 21:1 
5.3147432563899999 1:1 2:1 3:1 4:1 5:1 6:1 7:1 8:1 9:1 10:1 11:1 12:1 13:1 14:1 15:1 16:1 17:1 18:1 19:1 20:1 21:1 
5.3147432563899999 1:1 2:1 3:1 4:1 5:1 6:1 7:1 8:1 9:1 10:1 11:1 12:1 13:1 14:1 15:1 16:1 17:1 18:1 19:1 20:1 21:1 
5.3147432563899999 1:1 2:1 3:1 4:1 5:1 6:1 7:1 8:1 9:1 10:1 11:1 12:1 13:1 14:1 15:1 16:1 17:1 18:1 19:1 20:1 21:1 
5.3147432563899999 1:1 2:1 3:1 4:1 5:1 6:1 7:1 8:1 9:1 10:1 11:1 12:1 13:1 14:1 15:1 16:1 17:1 18:1 19:1 20:1 21:1 
5.3147432563899999 1:1 2:1 3:1 4:1 5:1 6:1 7:1 8:1 9:1 10:1 11:1 12:1 13:1 14:1 15:1 16:1 17:1 18:1 19:1 20:1 21:1 
5.3147432563899999 1:1 2:1 3:1 4:1 5:1 6:1 7:1 8:1 9:1 10:1 11:1 12:1 13:1 14:1 15:1 16:1 17:1 18:1 19:1 20:1 21:1 
5.3147432563899999 1:1 2:1 3:1 4:1 5:1 6:1 7:1 8:1 9:1 10:1 11:1 12:1 13:1 14:1 15:1 16:1 17:1 18:1 19:1 20:1 21:1 
5.3147432563899999 1:1 2:1 3:1 4:1 5:1 6:1 7:1 8:1 9:1 10:1 11:1 12:1 13:1 14:1 15:1 16:1 17:1 18:1 19:1 20:1 21:1 
5.3147432563899999 1:1 2:1 3:1 4:1 5:1 6:1 7:1 8:1 9:1 10:1 11:1 12:1 13:1 14:1 15:1 16:1 17:1 18:1 19:1 20:1 21:1 
5.3147432563899999 1:1 2:1 3:1 4:1 5:1 6:1 7:1 8:1 9:1 10:1 11:1 12:1 13:1 14:1 15:1 16:1 17:1 18:1 19:1 20:1 21:1 
