svm_type nu_svr
kernel_type rbf
gamma 0.03125
nr_class 2
total_sv 79
rho -3.32948
SV
-0.4 0:1 1:1 2:1 3:1 4:1 5:1 6:1 7:1 8:1 9:1 10:1 11:1 12:1 13:1 14:1 15:1 16:1 17:1 18:1 19:1 20:1 21:1 22:1 23:1 24:1 25:1 26:1 27:1 28:1 29:1 30:1 31:1
0.4 0:0.99768896 1:0.99903809 2:0.99939456 3:0.99961834 4:0.99913007 5:0.99868771 6:0.9993663 7:0.99889464 8:0.99804229 9:0.99816371 10:0.99745402 11:0.99651881 12:0.99276724 13:0.98703718 14:0.98303278 15:0.9764327 16:0.9662128 17:0.94441109 18:0.94940072 19:0.95583162 20:0.96151378 21:0.96965348 22:0.97484167 23:0.98127648 24:0.97258572 25:0.97061982 26:0.97243099 27:0.97210503 28:0.90846839 29:0.76733936 30:0.67049554 31:0.38962612
-0.4 0:0.88357573 1:0.91944612 2:0.95359403 3:0.96823363 4:0.91891307 5:0.88789776 6:0.93758857 7:0.9205827 8:0.88886445 9:0.89006674 10:0.87911086 11:0.90374557 12:0.8610693 13:0.83860619 14:0.85637623 15:0.86301131 16:0.80768894 17:0.74043498 18:0.73849804 19:0.73641094 20:0.69722838 21:0.6085277 22:0.63299497 23:0.66935785 24:0.64776143 25:0.74596104 26:0.56076113 27:0.54549806 28:0.59085486 29:0.4868279 30:0.18712887 31:-0.074652307
0.4 0:0.95005046 1:0.97343347 2:0.98717961 3:0.99013425 4:0.97353701 5:0.96803857 6:0.98120033 7:0.97419 8:0.96367529 9:0.96319115 10:0.95381018 11:0.95655373 12:0.93581149 13:0.91628332 14:0.91551992 15:0.91748773 16:0.89257069 17:0.84492309 18:0.82751704 19:0.84174774 20:0.86488254 21:0.89187281 22:0.91045831 23:0.93089837 24:0.88231453 25:0.75373611 26:0.78476813 27:0.82943367 28:0.85264671 29:0.80613844 30:0.77160767 31:0.59340873
0.4 0:0.87831965 1:0.93411949 2:0.96754608 3:0.97759758 4:0.93592586 5:0.91182456 6:0.95613205 7:0.94460596 8:0.9397118 9:0.95277629 10:0.94879827 11:0.96026386 12:0.95668067 13:0.95079035 14:0.95060587 15:0.95532282 16:0.94910612 17:0.91876421 18:0.91872802 19:0.91039841 20:0.90934739 21:0.93106959 22:0.94910064 23:0.96005003 24:0.93829371 25:0.92647269 26:0.93225397 27:0.91932063 28:0.77629085 29:0.73406398 30:0.49524509 31:0.23294445
-0.4 0:0.99925482 1:0.99982576 2:0.99999568 3:0.99999791 4:0.99999778 5:0.99999759 6:0.99999767 7:0.9999974 8:0.99999714 9:0.99999673 10:0.99999623 11:0.99999496 12:0.99999166 13:0.99998966 14:0.99998877 15:0.99998552 16:0.99997149 17:0.99956636 18:0.52846474 19:0.19930387 20:0.071334193 21:0.022716256 22:0.050543453 23:-0.0014847429 24:0.042921088 25:0.11150524 26:0.097230873 27:0.18135189 28:0.21019362 29:0.15588483 30:-0.19804206 31:-0.29907459
0.3491234128858259 0:0.98584167 1:0.98382719 2:0.9145282 3:0.91461957 4:0.97244269 5:0.98860416 6:0.99023125 7:0.99090146 8:0.98922843 9:0.9930897 10:0.99442743 11:0.9955603 12:0.99548978 13:0.98605632 14:0.99439933 15:0.98849896 16:0.97297217 17:0.94684904 18:0.90803546 19:0.95722358 20:0.98014688 21:0.99119202 22:0.97376768 23:0.94232997 24:0.93847799 25:0.90637539 26:0.90430505 27:0.87564162 28:0.86310435 29:0.80367874 30:0.64694266 31:0.57671143
-0.4 0:0.91010662 1:0.85617603 2:0.38244942 3:0.047910822 4:0.15889975 5:0.31855871 6:0.50117359 7:0.5428545 8:0.64963362 9:0.78393785 10:0.86606847 11:0.90822519 12:0.92486949 13:0.89198655 14:0.9418021 15:0.94456604 16:0.88576265 17:0.7800147 18:0.60725002 19:0.74137885 20:0.85589521 21:0.69104448 22:0.60570203 23:0.53798471 24:0.51509951 25:0.75964466 26:0.83577461 27:0.82444684 28:0.77327878 29:0.78899888 30:0.56952264 31:0.30375202
-0.4 0:0.94368659 1:0.85187599 2:0.50913198 3:0.48701206 4:0.67817239 5:0.81976512 6:0.83996748 7:0.84662205 8:0.87995543 9:0.92822904 10:0.96263909 11:0.97319608 12:0.97464004 13:0.96078898 14:0.98408044 15:0.97913418 16:0.93567309 17:0.83552335 18:0.7462516 19:0.87638752 20:0.95890232 21:0.98125642 22:0.95837599 23:0.84863251 24:0.85609511 25:0.80885091 26:0.88501654 27:0.84030141 28:0.80447124 29:0.70082831 30:0.69182374 31:0.7437633
-0.4 0:0.9319183 1:0.84478721 2:0.51364699 3:0.62915467 4:0.83337638 5:0.87909685 6:0.91815492 7:0.92629701 8:0.92986681 9:0.94891216 10:0.96126952 11:0.96796946 12:0.97354023 13:0.96607968 14:0.98581423 15:0.98294035 16:0.95755346 17:0.92582728 18:0.81860096 19:0.89727292 20:0.97445745 21:0.99102293 22:0.97435471 23:0.92885899 24:0.95427101 25:0.94369853 26:0.94865291 27:0.91426846 28:0.88498148 29:0.78257426 30:0.55284982 31:0.51287233
-0.4 0:0.99738773 1:0.99736186 2:0.99304289 3:0.99478407 4:0.99651961 5:0.9950305 6:0.99621777 7:0.99785644 8:0.99885248 9:0.99963495 10:0.99990246 11:0.99996809 12:0.99998611 13:0.99998306 14:0.99999014 15:0.9999744 16:0.99983804 17:0.99937482 18:0.60150226 19:-0.32856019 20:-0.50969997 21:0.10099234 22:0.8000555 23:0.30254802 24:0.29730383 25:0.19907879 26:0.15701864 27:0.29874391 28:0.55461612 29:0.49937024 30:-0.086982944 31:0.025865043
-0.4 0:0.99743265 1:0.99733515 2:0.99315381 3:0.99603045 4:0.99768795 5:0.99725451 6:0.9957363 7:0.99868387 8:0.99900887 9:0.99969324 10:0.99990344 11:0.99993233 12:0.99999 13:0.99999725 14:0.99999814 15:0.99999088 16:0.99989262 17:0.99967627 18:0.99913903 19:0.99803341 20:0.99941388 21:0.99981311 22:0.99813372 23:-0.23184826 24:-0.2196664 25:0.46588965 26:0.7724701 27:0.69426836 28:0.65987743 29:0.58154451 30:-0.046871421 31:0.037776302
-0.4 0:0.83025021 1:0.85610629 2:0.93644361 3:0.98732277 4:0.98660285 5:0.95271838 6:0.94507396 7:0.95497366 8:0.92007772 9:0.91975422 10:0.88095045 11:0.9042099 12:0.87850583 13:0.85186218 14:0.84626446 15:0.86903941 16:0.86515656 17:0.88491947 18:0.85953485 19:0.5277318 20:0.4258699 21:0.4835873 22:0.3884455 23:0.18941515 24:0.00662787 25:0.067531469 26:0.057819955 27:0.030475868 28:0.64010701 29:0.53562027 30:0.68037035 31:0.85388078
-0.1828657445783056 0:0.98002807 1:0.9803695 2:0.98904253 3:0.99661925 4:0.99597669 5:0.99241591 6:0.98676083 7:0.99000177 8:0.98880259 9:0.99302652 10:0.98842209 11:0.97658728 12:0.96496472 13:0.94575701 14:0.9369737 15:0.94115318 16:0.92102701 17:0.92638195 18:0.894858 19:0.6155811 20:0.75351862 21:0.79497935 22:0.75150756 23:0.74338174 24:0.3809902 25:0.38134385 26:0.49841391 27:0.351579 28:0.58101685 29:0.72843173 30:0.85282728 31:0.89662273
-0.3153598068617259 0:0.9951825 1:0.99590219 2:0.99765617 3:0.99920777 4:0.99867534 5:0.99743476 6:0.99705383 7:0.99741804 8:0.99598483 9:0.99643414 10:0.99169393 11:0.98998187 12:0.9849745 13:0.97059455 14:0.96642234 15:0.96678946 16:0.95416877 17:0.94550949 18:0.90035841 19:0.68024224 20:0.78126306 21:0.81917309 22:0.75423414 23:0.7539234 24:0.75842271 25:0.70493687 26:0.44276133 27:0.45105238 28:0.64372408 29:0.79747043 30:0.89560922 31:0.92477185
-0.4 0:0.99441476 1:0.9974865 2:0.99974041 3:0.99983018 4:0.9996998 5:0.99971275 6:0.9996668 7:0.9993049 8:0.9997794 9:0.99987197 10:0.99989947 11:0.99959241 12:0.99954178 13:0.99856132 14:0.99936145 15:0.99905472 16:0.99917294 17:0.99760485 18:0.81725779 19:0.16316698 20:0.20943469 21:0.28939888 22:-0.060750611 23:0.28537229 24:-0.1501107 25:-0.4794369 26:-0.16095933 27:0.2755872 28:0.60027059 29:0.49706314 30:0.67764496 31:0.85994408
0.2347924984718344 0:0.99815729 1:0.98509345 2:0.89856014 3:0.80881319 4:0.81071401 5:0.80061681 6:0.85860532 7:0.95988636 8:0.97852184 9:0.99056698 10:0.99888923 11:0.99875155 12:0.99908732 13:0.99808937 14:0.99610385 15:0.99717731 16:0.99658812 17:0.99128897 18:0.9927237 19:0.99480939 20:0.99691678 21:0.9948366 22:0.99266479 23:0.99019406 24:0.98276578 25:0.94371435 26:0.92410987 27:0.88724716 28:0.86919997 29:0.51799304 30:0.50348496 31:0.75960128
0.4 0:0.89548561 1:0.96665911 2:0.95729741 3:0.9109792 4:0.89938695 5:0.86044265 6:0.88648612 7:0.97073228 8:0.98231995 9:0.99261191 10:0.99915242 11:0.99905047 12:0.99902965 13:0.99732506 14:0.99562106 15:0.9921857 16:0.99625601 17:0.99111145 18:0.99416631 19:0.99620127 20:0.99575281 21:0.99264326 22:0.98909886 23:0.98674872 24:0.97621791 25:0.95599791 26:0.92430514 27:0.89215306 28:0.82494485 29:0.67526279 30:0.33224418 31:0.22988619
0.1374693355703908 0:0.96292216 1:0.89892093 2:0.67762275 3:0.57980481 4:0.42687511 5:0.48480762 6:0.77082547 7:0.91715948 8:0.89549521 9:0.96990897 10:0.99182078 11:0.99336164 12:0.99426354 13:0.94519466 14:0.92028868 15:0.92064594 16:0.96410992 17:0.93411738 18:0.9634705 19:0.9765784 20:0.98140666 21:0.81172481 22:0.4022555 23:0.32658654 24:0.63939114 25:0.5823472 26:0.41325927 27:0.3109471 28:0.59051692 29:0.58270429 30:0.50063031 31:0.74947211
0.4 0:0.9805715 1:0.92499128 2:0.73830481 3:0.69233294 4:0.63416125 5:0.63982299 6:0.83187051 7:0.9440754 8:0.95740878 9:0.98377645 10:0.99601889 11:0.99717639 12:0.99818659 13:0.98839538 14:0.98156093 15:0.98113102 16:0.99169519 17:0.98478307 18:0.98931263 19:0.9924197 20:0.99593342 21:0.99174428 22:0.98954771 23:0.98273449 24:0.92880478 25:0.76926281 26:0.55713753 27:0.55130897 28:0.55942061 29:0.38552112 30:0.56683691 31:0.76004953
0.4 0:0.9800082 1:0.9305356 2:0.76907159 3:0.72364924 4:0.72138532 5:0.7303935 6:0.84172204 7:0.94237825 8:0.96258815 9:0.98696759 10:0.99735289 11:0.99690875 12:0.99743277 13:0.99277365 14:0.98510008 15:0.98305675 16:0.99019978 17:0.98821091 18:0.99127944 19:0.99274513 20:0.99410481 21:0.99080256 22:0.9879607 23:0.98441716 24:0.96936957 25:0.87608609 26:0.68569141 27:0.6048885 28:0.60514383 29:0.67260294 30:0.69286559 31:0.76204429
-0.4 0:0.991694 1:0.99144116 2:0.98793229 3:0.98339526 4:0.98077108 5:0.97334978 6:0.97186104 7:0.98712963 8:0.99165431 9:0.99304862 10:0.99643596 11:0.99650798 12:0.9957335 13:0.99493078 14:0.99602497 15:0.99318788 16:0.99295508 17:0.82318486 18:0.69196196 19:0.2528115 20:-0.02049839 21:0.53743782 22:0.53549062 23:0.35372243 24:0.29757785 25:0.30444257 26:0.14978467 27:0.18734117 28:0.43962674 29:0.34966107 30:0.29981998 31:0.42108633
0.4 0:0.99475917 1:0.99430944 2:0.9911834 3:0.98842299 4:0.98781322 5:0.97929213 6:0.98127957 7:0.99086756 8:0.99507279 9:0.99841741 10:0.99945947 11:0.99793809 12:0.9983153 13:0.99805148 14:0.99584703 15:0.9963872 16:0.99752889 17:0.99666 18:0.99771569 19:0.99884709 20:0.99878444 21:0.99803524 22:0.99664568 23:0.61716542 24:0.51544361 25:0.53173638 26:0.39670882 27:0.32688569 28:0.52509706 29:0.44672954 30:0.33227408 31:0.42374481
0.4 0:0.97404874 1:0.97302215 2:0.97650278 3:0.97427588 4:0.97271583 5:0.97038278 6:0.97182459 7:0.97676802 8:0.97903662 9:0.97272745 10:0.97053616 11:0.97299119 12:0.97363949 13:0.97101017 14:0.96890447 15:0.96013564 16:0.96774094 17:0.96170623 18:0.9607487 19:0.96642054 20:0.97138517 21:0.9793051 22:0.98070121 23:0.97335154 24:0.96974042 25:0.96651353 26:0.96307454 27:0.97174084 28:0.9492926 29:0.7936747 30:0.56123092 31:0.25547358
0.4 0:0.96153452 1:0.96904585 2:0.97268416 3:0.97528417 4:0.96939084 5:0.96724571 6:0.96139727 7:0.96145925 8:0.96688184 9:0.9597953 10:0.9476886 11:0.95178293 12:0.94815684 13:0.94176672 14:0.94434189 15:0.94071312 16:0.93048812 17:0.93413734 18:0.92855093 19:0.91557747 20:0.92454556 21:0.94466429 22:0.92711142 23:0.90633039 24:0.82603217 25:0.6968766 26:0.64460775 27:0.7535733 28:0.82884225 29:0.73097539 30:0.6694131 31:0.57414061
0.06735747658676441 0:0.96001242 1:0.96400471 2:0.97320196 3:0.97205252 4:0.96670854 5:0.9642699 6:0.96680965 7:0.96524108 8:0.95698454 9:0.96054896 10:0.96061606 11:0.96552003 12:0.95400818 13:0.95367816 14:0.95274685 15:0.94999814 16:0.95039155 17:0.94856208 18:0.93835075 19:0.9390682 20:0.93592728 21:0.95651818 22:0.94863812 23:0.920353 24:0.90714406 25:0.85229516 26:0.74260582 27:0.78875158 28:0.84790766 29:0.83164265 30:0.79823984 31:0.80373321
0.4 0:0.92901755 1:0.95249473 2:0.95613862 3:0.95755314 4:0.95086927 5:0.95331228 6:0.95798855 7:0.95219543 8:0.94942529 9:0.94738408 10:0.94058603 11:0.93603123 12:0.94014786 13:0.91373562 14:0.92457605 15:0.92161258 16:0.9329333 17:0.93969629 18:0.93728417 19:0.92983668 20:0.93836979 21:0.95517947 22:0.96551309 23:0.95752152 24:0.95021767 25:0.9448918 26:0.94169363 27:0.95153855 28:0.88842982 29:0.80266195 30:0.42675331 31:0.17678888
-0.4 0:0.97260135 1:0.9762085 2:0.97694397 3:0.97624738 4:0.9723402 5:0.97861938 6:0.98209798 7:0.98179731 8:0.97793507 9:0.97680883 10:0.97824755 11:0.97744249 12:0.97792154 13:0.97810532 14:0.98354614 15:0.98336125 16:0.98924422 17:0.99141642 18:0.69001387 19:0.32666555 20:0.35227468 21:0.47727351 22:0.39936046 23:0.031127175 24:-0.14694104 25:-0.086786976 26:0.044256852 27:0.33326396 28:0.47714969 29:0.43454506 30:-0.0095770745 31:0.023359341
0.4 0:0.99783457 1:0.99790491 2:0.99305625 3:0.99347054 4:0.9958799 5:0.99676084 6:0.99694592 7:0.99759488 8:0.99698664 9:0.99726532 10:0.99568837 11:0.99011368 12:0.99289621 13:0.9856184 14:0.98558834 15:0.97338252 16:0.9676697 17:0.97652697 18:0.97970673 19:0.98010555 20:0.97157003 21:0.96969711 22:0.96541798 23:0.95464847 24:0.94889599 25:0.94383591 26:0.94644786 27:0.9285285 28:0.89679756 29:0.8378308 30:0.60084327 31:0.31378286
-0.4 0:0.89648101 1:0.89741635 2:0.82217479 3:0.84000587 4:0.94891573 5:0.97447751 6:0.93466496 7:0.9625743 8:0.9630326 9:0.96151497 10:0.94970945 11:0.91127008 12:0.94003984 13:0.90673187 14:0.88334486 15:0.80274109 16:0.7954767 17:0.8224924 18:0.84035125 19:0.81454838 20:0.73010874 21:0.5722742 22:0.61748731 23:0.50981029 24:0.40641245 25:0.52105308 26:0.40907797 27:0.24154908 28:0.59110185 29:0.65700733 30:-0.080384006 31:-0.51118629
0.4 0:0.97906172 1:0.97606919 2:0.93960746 3:0.9443743 4:0.97754656 5:0.98989217 6:0.98057469 7:0.98880881 8:0.98872106 9:0.98797855 10:0.98689682 11:0.96780127 12:0.98191481 13:0.96710491 14:0.96378629 15:0.93619648 16:0.92877274 17:0.94389712 18:0.94024241 19:0.93878867 20:0.91552326 21:0.90257874 22:0.91727111 23:0.89933579 24:0.81097106 25:0.67569468 26:0.58996749 27:0.5267425 28:0.686874 29:0.7811075 30:0.72501194 31:0.55169202
0.4 0:0.98639454 1:0.98707882 2:0.96193814 3:0.96432995 4:0.98430545 5:0.99246984 6:0.98596175 7:0.99125378 8:0.99219215 9:0.99095659 10:0.99042987 11:0.97427025 12:0.98837304 13:0.9756515 14:0.97374829 15:0.94579161 16:0.94556823 17:0.95656631 18:0.95537446 19:0.94703993 20:0.9252801 21:0.91319995 22:0.92478417 23:0.91757398 24:0.88818665 25:0.81683565 26:0.63003786 27:0.55894556 28:0.69727418 29:0.82260535 30:0.86055301 31:0.82537771
0.4 0:0.93000843 1:0.94628028 2:0.87792963 3:0.89825394 4:0.94805074 5:0.96611306 6:0.92922543 7:0.95166392 8:0.97113241 9:0.97936968 10:0.97222852 11:0.94625831 12:0.97027593 13:0.9425513 14:0.94343824 15:0.90391674 16:0.89957284 17:0.91302669 18:0.90726145 19:0.92137856 20:0.90258683 21:0.90233019 22:0.91270796 23:0.90676447 24:0.88004352 25:0.88408138 26:0.88049356 27:0.86208001 28:0.80611025 29:0.79540516 30:0.38740772 31:0.1802595
-0.4 0:0.98594861 1:0.99424468 2:0.99755079 3:0.99810412 4:0.99676007 5:0.99775385 6:0.99708553 7:0.99731885 8:0.99751403 9:0.99820868 10:0.99847909 11:0.99810135 12:0.99775565 13:0.99822297 14:0.99852913 15:0.99820498 16:0.99664664 17:0.99728234 18:0.82543565 19:0.64470999 20:0.27270072 21:-0.14276496 22:0.11877144 23:0.22901955 24:-0.081490158 25:-0.12985607 26:-0.13307736 27:0.12412129 28:0.51451451 29:0.39705248 30:-0.58322692 31:-0.64703906
-0.4 0:0.9859964 1:0.99412786 2:0.99726468 3:0.99744685 4:0.99683417 5:0.9976836 6:0.99796405 7:0.99670858 8:0.99763416 9:0.99881533 10:0.99900772 11:0.9995891 12:0.99927458 13:0.9963795 14:0.99859162 15:0.99797364 16:0.99677484 17:0.99788954 18:0.9963858 19:0.99629528 20:0.99643999 21:0.9971245 22:0.99075865 23:0.39478766 24:0.23124987 25:0.33529993 26:0.26568357 27:0.18809099 28:0.52250627 29:0.45228304 30:-0.56510497 31:-0.64418483
-0.3569255385651188 0:1 1:1 2:1 3:1 4:1 5:1 6:1 7:1 8:1 9:1 10:1 11:1 12:1 13:1 14:1 15:1 16:1 17:1 18:1 19:1 20:1 21:1 22:1 23:1 24:1 25:1 26:1 27:1 28:1 29:1 30:1 31:1
0.4 0:0.99080213 1:0.99739785 2:0.99793093 3:0.99767647 4:0.99763001 5:0.99804471 6:0.99829883 7:0.99698875 8:0.99417263 9:0.99529619 10:0.99553996 11:0.9937862 12:0.98774678 13:0.9902194 14:0.99227775 15:0.99141271 16:0.98251844 17:0.98850366 18:0.99361421 19:0.99067551 20:0.98781235 21:0.98710437 22:0.98585979 23:0.97654599 24:0.95830063 25:0.94708425 26:0.93429429 27:0.90642044 28:0.49440098 29:0.49470408 30:0.59346039 31:0.56879887
-0.1029212242054548 0:0.83122255 1:0.90550101 2:0.8982259 3:0.9250331 4:0.94055696 5:0.9445018 6:0.95179499 7:0.92673485 8:0.85832343 9:0.84706374 10:0.85335418 11:0.85428152 12:0.79728171 13:0.80418694 14:0.86638972 15:0.8550582 16:0.75197632 17:0.81898025 18:0.89532162 19:0.85843337 20:0.66784448 21:0.56388973 22:0.71937741 23:0.64068283 24:0.58516478 25:0.68719212 26:0.43351233 27:0.45297124 28:0.74251237 29:0.64527089 30:0.89516424 31:0.97872099
0.4 0:0.95474515 1:0.9794895 2:0.98221178 3:0.98996159 4:0.99293391 5:0.99442865 6:0.99577788 7:0.99324276 8:0.9877097 9:0.98606725 10:0.98571517 11:0.97959979 12:0.9615093 13:0.96250724 14:0.96865358 15:0.95960751 16:0.9149672 17:0.92595422 18:0.93620634 19:0.90815314 20:0.86384507 21:0.87423796 22:0.87157855 23:0.8293039 24:0.75414311 25:0.56226927 26:0.58335618 27:0.6122497 28:0.71189319 29:0.33298412 30:0.81413921 31:0.98429439
0.1739887487085518 0:0.98509373 1:0.99291879 2:0.9912174 3:0.99489914 4:0.9968585 5:0.99777675 6:0.9982526 7:0.9971714 8:0.99378762 9:0.99395839 10:0.99339653 11:0.99144846 12:0.98293731 13:0.9841255 14:0.98783257 15:0.98588312 16:0.95903933 17:0.96440003 18:0.96523821 19:0.93901278 20:0.90055498 21:0.88646623 22:0.88761877 23:0.83011669 24:0.80487767 25:0.79506581 26:0.72033431 27:0.66883917 28:0.74146843 29:0.774209 30:0.91077246 31:0.96102923
0.4 0:0.96662917 1:0.98743369 2:0.98712516 3:0.99085803 4:0.99371609 5:0.99595865 6:0.99697296 7:0.99485546 8:0.98759412 9:0.98468968 10:0.98440701 11:0.97601507 12:0.95291359 13:0.95690705 14:0.96886331 15:0.96417532 16:0.9320787 17:0.95961506 18:0.97482321 19:0.96473 20:0.94918623 21:0.95377608 22:0.95975109 23:0.94660028 24:0.92081919 25:0.90113518 26:0.83943558 27:0.74709046 28:0.77914222 29:0.65308524 30:0.89425338 31:0.98076829
-0.4 0:0.99460673 1:0.99850615 2:0.99999908 3:0.99999992 4:0.99999998 5:0.99999999 6:0.99999998 7:0.99999996 8:0.99999988 9:0.99999978 10:0.99999974 11:0.99999963 12:0.99999941 13:0.99999946 14:0.99999945 15:0.99999895 16:0.99999592 17:0.99998425 18:0.95416276 19:0.76899372 20:0.60323552 21:0.48519115 22:0.24191353 23:-0.16889615 24:-0.33832681 25:-0.2032314 26:0.088228044 27:0.51536764 28:0.76059158 29:0.67339793 30:0.9116092 31:0.98234162
0.4 0:0.9946004 1:0.99850501 2:0.99999909 3:0.99999992 4:0.99999997 5:0.99999998 6:0.99999998 7:0.99999996 8:0.99999988 9:0.9999998 10:0.99999975 11:0.99999968 12:0.99999948 13:0.99999945 14:0.99999948 15:0.99999905 16:0.99999581 17:0.99999256 18:0.9999727 19:0.99992889 20:0.99972371 21:0.99909041 22:0.99493825 23:0.8032879 24:0.66342337 25:0.55866808 26:0.20069168 27:0.5300955 28:0.75232389 29:0.6540421 30:0.88417456 31:0.97967898
-0.4 0:1 1:1 2:1 3:1 4:1 5:1 6:1 7:1 8:1 9:1 10:1 11:1 12:1 13:1 14:1 15:1 16:1 17:1 18:1 19:1 20:1 21:1 22:1 23:1 24:1 25:1 26:1 27:1 28:1 29:1 30:1 31:1
0.4 0:0.97055664 1:0.95643721 2:0.92863847 3:0.95138185 4:0.96898762 5:0.97921756 6:0.97969011 7:0.97907582 8:0.97909963 9:0.98112129 10:0.98120229 11:0.97958667 12:0.98270405 13:0.9810875 14:0.97801872 15:0.97478823 16:0.97718394 17:0.97687373 18:0.97641137 19:0.98556849 20:0.98963433 21:0.98424586 22:0.98025798 23:0.97387085 24:0.9622326 25:0.95231922 26:0.92615144 27:0.94466334 28:0.86344835 29:0.12335726 30:-0.36808124 31:-0.52948912
-0.4 0:0.83544154 1:0.79687969 2:0.77954179 3:0.88309976 4:0.9083956 5:0.93774916 6:0.96060108 7:0.96377099 8:0.96627299 9:0.95906118 10:0.955409 11:0.95882698 12:0.94948681 13:0.92833561 14:0.88147108 15:0.90685836 16:0.88414042 17:0.87214688 18:0.86189069 19:0.8857559 20:0.89110694 21:0.73808008 22:0.68106136 23:0.60763712 24:0.55485212 25:0.57655733 26:0.44908147 27:0.68204728 28:0.74367061 29:0.46998949 30:-0.48643645 31:-0.60798658
0.01413161176424766 0:0.93072225 1:0.87904774 2:0.77754946 3:0.87079576 4:0.94573628 5:0.95958464 6:0.97793071 7:0.97061489 8:0.97217269 9:0.97494665 10:0.96877874 11:0.96424917 12:0.96292098 13:0.96426625 14:0.95807965 15:0.95894557 16:0.96323343 17:0.95984994 18:0.95649098 19:0.96421016 20:0.9725842 21:0.96460145 22:0.96491217 23:0.9581793 24:0.94724211 25:0.93779062 26:0.92935467 27:0.9470453 28:0.76270702 29:0.44344 30:-0.39228065 31:-0.5860074
-0.4 0:0.97766939 1:0.97979634 2:0.97680791 3:0.98039763 4:0.97925839 5:0.98077021 6:0.97459929 7:0.97518626 8:0.98056368 9:0.98539909 10:0.98361091 11:0.98073521 12:0.97852875 13:0.98553915 14:0.98955965 15:0.98993097 16:0.98923446 17:0.99202423 18:0.80954002 19:0.67197089 20:0.74391755 21:0.70995303 22:0.58446725 23:0.59458275 24:0.16917575 25:0.043570558 26:0.098261499 27:0.38889026 28:0.53843885 29:0.4760224 30:-0.49774492 31:-0.61394542
-0.4 0:1 1:1 2:1 3:1 4:1 5:1 6:1 7:1 8:1 9:1 10:1 11:1 12:1 13:1 14:1 15:1 16:1 17:1 18:1 19:1 20:1 21:1 22:1 23:1 24:1 25:1 26:1 27:1 28:1 29:1 30:1 31:1
0.2644361745880702 0:0.98084601 1:0.97011749 2:0.9270007 3:0.97875004 4:0.99826448 5:0.99988049 6:0.99983131 7:0.99969202 8:0.99903364 9:0.99875338 10:0.99940351 11:0.99936295 12:0.99920853 13:0.99832856 14:0.99783084 15:0.99558451 16:0.99545724 17:0.99351411 18:0.98653069 19:0.99690935 20:0.99669455 21:0.99541892 22:0.98717085 23:0.96717322 24:0.96427673 25:0.94979174 26:0.95556861 27:0.95359383 28:0.84401935 29:0.35237841 30:0.35088424 31:0.49240959
0.2460688362628746 0:0.92088756 1:0.86568365 2:0.82483745 3:0.96442062 4:0.99743142 5:0.99888728 6:0.99673602 7:0.99618269 8:0.9926634 9:0.97866359 10:0.99001388 11:0.98973132 12:0.98430136 13:0.95594285 14:0.94171369 15:0.90756224 16:0.91839732 17:0.9179337 18:0.82605612 19:0.94010577 20:0.9538303 21:0.88573201 22:0.67554537 23:0.49021284 24:0.45304106 25:0.52653921 26:0.54273301 27:0.15255219 28:0.073183656 29:0.33183526 30:0.5093179 31:0.65933017
0.4 0:0.97060246 1:0.93226878 2:0.90204588 3:0.97713185 4:0.9987055 5:0.99961589 6:0.99921569 7:0.99911238 8:0.9984812 9:0.99592514 10:0.99797049 11:0.99695909 12:0.99559806 13:0.98967529 14:0.98281588 15:0.97374413 16:0.97738325 17:0.9798654 18:0.96799412 19:0.98334566 20:0.97840997 21:0.95777195 22:0.90661388 23:0.76016828 24:0.6331717 25:0.46155603 26:0.5359007 27:0.16725561 28:0.15555449 29:0.60922326 30:0.76066254 31:0.78561221
0.4 0:0.98514509 1:0.95487174 2:0.92182474 3:0.98193513 4:0.99909859 5:0.99988811 6:0.99972746 7:0.99961346 8:0.99929434 9:0.99803001 10:0.99897331 11:0.99860656 12:0.99817646 13:0.99538597 14:0.99018788 15:0.98286678 16:0.98625585 17:0.98495301 18:0.97946872 19:0.99042838 20:0.98157302 21:0.972492 22:0.92111753 23:0.68331927 24:0.67880761 25:0.59951662 26:0.596955 27:0.70095069 28:0.54954108 29:0.68054318 30:0.79318049 31:0.85258398
0.4 0:0.98501836 1:0.91830707 2:0.77209651 3:0.94079158 4:0.99088771 5:0.99894196 6:0.99810306 7:0.99772057 8:0.99631809 9:0.99486359 10:0.99763997 11:0.99802391 12:0.99642962 13:0.99076785 14:0.98984314 15:0.98098178 16:0.98289623 17:0.97666343 18:0.94808784 19:0.98579533 20:0.98909032 21:0.98620771 22:0.96272404 23:0.8814369 24:0.8879497 25:0.87803785 26:0.88228209 27:0.80295792 28:0.38432925 29:0.39317354 30:0.5706695 31:0.66608681
-0.4 0:0.99597224 1:0.99782983 2:0.99854241 3:0.9998754 4:0.99999779 5:0.99999999 6:0.99999999 7:0.99999996 8:0.99999993 9:0.99999989 10:0.99999996 11:0.99999996 12:0.99999964 13:0.99999279 14:0.9999759 15:0.99996556 16:0.99992288 17:0.99938586 18:0.65070787 19:0.87108756 20:0.87582405 21:0.87355888 22:0.66824195 23:0.12041021 24:0.16738328 25:0.023634031 26:-0.060932211 27:0.059532462 28:0.15158104 29:0.29846862 30:0.4846488 31:0.65264933
-0.2756312460142549 0:0.99597063 1:0.99783038 2:0.99854188 3:0.99987605 4:0.99999786 5:0.99999999 6:0.99999999 7:0.99999999 8:0.99999996 9:0.99999985 10:0.99999988 11:0.99999994 12:0.99999959 13:0.99999692 14:0.99998189 15:0.9999855 16:0.99991023 17:0.99973143 18:0.99992013 19:0.99992937 20:0.99968413 21:0.99942119 22:0.99697598 23:0.2096969 24:-0.050916731 25:0.08060844 26:-0.017281919 27:0.076255613 28:0.15767412 29:0.30257215 30:0.4839485 31:0.6519961
-0.4 0:1 1:1 2:1 3:1 4:1 5:1 6:1 7:1 8:1 9:1 10:1 11:1 12:1 13:1 14:1 15:1 16:1 17:1 18:1 19:1 20:1 21:1 22:1 23:1 24:1 25:1 26:1 27:1 28:1 29:1 30:1 31:1
0.4 0:0.99919457 1:0.99951029 2:0.99942965 3:0.99916791 4:0.99879537 5:0.99882383 6:0.9990024 7:0.99923615 8:0.99875445 9:0.99866095 10:0.99754982 11:0.99525243 12:0.99010064 13:0.98934156 14:0.98780359 15:0.98059263 16:0.97769283 17:0.97269495 18:0.97381649 19:0.97573704 20:0.97450859 21:0.96563379 22:0.96641387 23:0.96679149 24:0.95860587 25:0.9533026 26:0.95250096 27:0.9494218 28:0.69589245 29:0.17130883 30:0.021805147 31:-0.2072085
0.2521115576221871 0:0.9955964 1:0.99736269 2:0.99666715 3:0.99413432 4:0.99264288 5:0.99300255 6:0.99348386 7:0.99351119 8:0.99379581 9:0.99433151 10:0.99343378 11:0.99281943 12:0.99138956 13:0.99121288 14:0.99048039 15:0.98799703 16:0.98775796 17:0.98674065 18:0.98631431 19:0.98657233 20:0.98121139 21:0.97420433 22:0.96923406 23:0.96971771 24:0.96474617 25:0.95486298 26:0.94573486 27:0.93914366 28:0.84489087 29:0.63917605 30:0.68041214 31:0.67550362
-0.4 0:0.93944051 1:0.95085647 2:0.92913718 3:0.91211489 4:0.87626918 5:0.89815078 6:0.91285479 7:0.92355926 8:0.88413024 9:0.89213369 10:0.88518293 11:0.86292997 12:0.84095165 13:0.86397312 14:0.87480962 15:0.85487615 16:0.85458601 17:0.8273418 18:0.80184013 19:0.8076858 20:0.78225147 21:0.65499184 22:0.53344023 23:0.46624982 24:0.576585 25:0.69160962 26:0.60383452 27:0.56144719 28:0.4216538 29:0.27761034 30:-0.2526144 31:-0.49441536
0.4 0:0.98670032 1:0.98901266 2:0.98828626 3:0.98309101 4:0.97178524 5:0.97520333 6:0.97592556 7:0.9781329 8:0.9673182 9:0.96960842 10:0.95919596 11:0.94276135 12:0.92098997 13:0.9276616 14:0.92379162 15:0.89914376 16:0.90622959 17:0.89986237 18:0.89320206 19:0.89683171 20:0.89159978 21:0.87422413 22:0.88288024 23:0.88441878 24:0.83602835 25:0.66930334 26:0.67010395 27:0.71196543 28:0.7364778 29:0.21206406 30:0.25618871 31:0.25311358
0.4 0:0.95049604 1:0.97317385 2:0.96900694 3:0.96617714 4:0.94886621 5:0.94518133 6:0.95007405 7:0.96247245 8:0.95807497 9:0.963642 10:0.95708143 11:0.94878507 12:0.93780091 13:0.956333 14:0.96058328 15:0.94957364 16:0.94868638 17:0.95560508 18:0.95096922 19:0.94931727 20:0.95407337 21:0.94296447 22:0.94504062 23:0.94900595 24:0.93982999 25:0.91600835 26:0.90495025 27:0.83817191 28:0.51054682 29:0.33297725 30:-0.085770126 31:-0.37390057
-0.4 0:0.99983219 1:0.99993694 2:0.99999754 3:0.9999988 4:0.99999881 5:0.99999875 6:0.99999873 7:0.99999835 8:0.99999811 9:0.99999802 10:0.99999731 11:0.99999625 12:0.99999354 13:0.99999137 14:0.99999032 15:0.9999866 16:0.99997477 17:0.99956518 18:0.76038413 19:0.45286077 20:0.37883885 21:0.19019103 22:0.086962632 23:0.062310615 24:-0.010016502 25:-0.0094766727 26:0.041355816 27:0.1926878 28:0.19058231 29:0.16393874 30:-0.41271505 31:-0.61630111
-0.4 0:0.99983433 1:0.99993805 2:0.99999844 3:0.99999972 4:0.99999973 5:0.99999972 6:0.9999997 7:0.99999965 8:0.99999919 9:0.99999864 10:0.99999799 11:0.99999693 12:0.99999475 13:0.9999923 14:0.99999182 15:0.99998988 16:0.99998643 17:0.99997007 18:0.9999665 19:0.99995559 20:0.99991339 21:0.99986615 22:0.9977847 23:0.72205113 24:0.63260096 25:0.4309176 26:0.29538781 27:0.32597436 28:0.22638672 29:0.17657278 30:-0.33971876 31:-0.58597716
-0.4 0:1 1:1 2:1 3:1 4:1 5:1 6:1 7:1 8:1 9:1 10:1 11:1 12:1 13:1 14:1 15:1 16:1 17:1 18:1 19:1 20:1 21:1 22:1 23:1 24:1 25:1 26:1 27:1 28:1 29:1 30:1 31:1
0.4 0:0.99836828 1:0.99893894 2:0.99892318 3:0.99888353 4:0.99862655 5:0.99855293 6:0.99880265 7:0.99903683 8:0.99860702 9:0.99828362 10:0.99786397 11:0.99709411 12:0.99687189 13:0.99644407 14:0.996283 15:0.99550976 16:0.99493055 17:0.99335049 18:0.99101044 19:0.99127117 20:0.98631223 21:0.98460396 22:0.98181829 23:0.97647899 24:0.97251151 25:0.97141845 26:0.97447527 27:0.97296432 28:0.94346872 29:0.82650058 30:0.36508235 31:-0.1826016
-0.4 0:0.89519352 1:0.93065499 2:0.93517701 3:0.92215073 4:0.90630034 5:0.89850769 6:0.92063572 7:0.93389576 8:0.91206258 9:0.91817751 10:0.92488551 11:0.91151648 12:0.91815822 13:0.91574711 14:0.9132445 15:0.90969446 16:0.90189132 17:0.86524058 18:0.86440444 19:0.86146551 20:0.71351489 21:0.67180252 22:0.47918546 23:0.32106603 24:0.4977066 25:0.62486001 26:0.68728141 27:0.68021176 28:0.80623131 29:0.7176117 30:-0.15491935 31:-0.79262146
0.4 0:0.97608811 1:0.98521685 2:0.98613288 3:0.98423122 4:0.98244148 5:0.98162217 6:0.98581856 7:0.98780008 8:0.98388348 9:0.98320801 10:0.98405972 11:0.97919146 12:0.97775908 13:0.97726528 14:0.97504627 15:0.97581119 16:0.97345214 17:0.96252791 18:0.96467063 19:0.95923718 20:0.92853489 21:0.93216796 22:0.89677432 23:0.87979173 24:0.81516747 25:0.64538422 26:0.65209087 27:0.73492893 28:0.88528233 29:0.78701975 30:0.64935479 31:0.45076233
0.4 0:0.92618857 1:0.95845639 2:0.95271895 3:0.9419735 4:0.93502641 5:0.92748393 6:0.94664624 7:0.95702438 8:0.94092256 9:0.94879249 10:0.95567933 11:0.95185561 12:0.95506181 13:0.96172282 14:0.9640308 15:0.96080111 16:0.96110277 17:0.95715048 18:0.95281169 19:0.95881191 20:0.93389381 21:0.94200917 22:0.93836445 23:0.94019452 24:0.93051182 25:0.93377398 26:0.94680561 27:0.95826776 28:0.89649595 29:0.82050443 30:0.27631983 31:-0.42026071
-0.4 0:0.99621814 1:0.99857595 2:0.99997746 3:0.9999974 4:0.9999976 5:0.99999763 6:0.99999759 7:0.99999775 8:0.99999763 9:0.99999759 10:0.99999748 11:0.99999754 12:0.99999748 13:0.99999745 14:0.99999739 15:0.99999741 16:0.99999724 17:0.99986141 18:0.87684774 19:0.53145837 20:0.2717884 21:0.39622721 22:0.3404344 23:0.19460701 24:0.1281764 25:-0.10205681 26:-0.15425085 27:0.26666622 28:0.515932 29:0.44972451 30:-0.49816284 31:-0.82891302
-0.4 0:0.99623052 1:0.99857998 2:0.99997998 3:0.99999974 4:0.99999995 5:0.99999996 6:0.99999997 7:0.99999997 8:0.99999997 9:0.99999997 10:0.99999996 11:0.99999996 12:0.99999996 13:0.99999996 14:0.99999996 15:0.99999996 16:0.99999996 17:0.99999995 18:0.99999995 19:0.99999995 20:0.99999993 21:0.99999975 22:0.98718349 23:0.5957222 24:0.43012692 25:0.31617581 26:0.40303433 27:0.46221237 28:0.54995449 29:0.48788969 30:-0.50265234 31:-0.8298044
-0.3662964397751303 0:1 1:1 2:1 3:1 4:1 5:1 6:1 7:1 8:1 9:1 10:1 11:1 12:1 13:1 14:1 15:1 16:1 17:1 18:1 19:1 20:1 21:1 22:1 23:1 24:1 25:1 26:1 27:1 28:1 29:1 30:1 31:1
0.4 0:0.97778718 1:0.99111844 2:0.99668269 3:0.9993414 4:0.9993954 5:0.99897944 6:0.9987639 7:0.99864856 8:0.99840049 9:0.99707084 10:0.99449691 11:0.99116941 12:0.98776586 13:0.98675593 14:0.99097409 15:0.99443158 16:0.99243289 17:0.99242203 18:0.99300766 19:0.99369924 20:0.99375112 21:0.99477308 22:0.99594506 23:0.99576855 24:0.99627663 25:0.99664371 26:0.99667176 27:0.99758647 28:0.94838042 29:0.69352289 30:0.48975018 31:0.37528668
-0.4 0:0.40711029 1:0.88781701 2:0.99217352 3:0.99801496 4:0.99858717 5:0.99770208 6:0.99559931 7:0.99631107 8:0.99683668 9:0.99522598 10:0.99558546 11:0.99559605 12:0.99410392 13:0.99494269 14:0.99583404 15:0.99602112 16:0.9945954 17:0.99107582 18:0.98965053 19:0.9869011 20:0.98599834 21:0.99083827 22:0.99442487 23:0.99378644 24:0.99021273 25:0.99278625 26:0.99217321 27:0.99063328 28:0.97707444 29:0.88162471 30:0.92370976 31:0.91673669
0.2605203475392434 0:0.76377775 1:0.88897557 2:0.92822179 3:0.96176644 4:0.97104177 5:0.96737871 6:0.95034549 7:0.95825092 8:0.95740329 9:0.94015937 10:0.927632 11:0.90874737 12:0.87886015 13:0.88488738 14:0.93198674 15:0.94870295 16:0.92698961 17:0.93598917 18:0.94611999 19:0.94513688 20:0.90034591 21:0.66550279 22:0.65946525 23:0.67015364 24:0.78856184 25:0.79527554 26:0.56993106 27:0.57633886 28:0.62455034 29:0.59035238 30:0.10682064 31:-0.29607543
0.4 0:0.8650122 1:0.9369179 2:0.96580681 3:0.98937744 4:0.9904198 5:0.98532326 6:0.97778445 7:0.97627911 8:0.97822512 9:0.96950347 10:0.96320318 11:0.95831319 12:0.93859072 13:0.9497654 14:0.97023674 15:0.97784938 16:0.97159505 17:0.97287995 18:0.97753872 19:0.98046186 20:0.98200007 21:0.98461032 22:0.98824428 23:0.97919561 24:0.9278522 25:0.77868908 26:0.67907012 27:0.77675694 28:0.81352225 29:0.69017402 30:0.71205808 31:0.77713104
0.4 0:0.71515522 1:0.87761296 2:0.94661909 3:0.97971455 4:0.98978134 5:0.98808136 6:0.98279576 7:0.98449498 8:0.98608768 9:0.98134272 10:0.98048518 11:0.97668891 12:0.96381802 13:0.96625851 14:0.97616334 15:0.98088117 16:0.97381228 17:0.97580885 18:0.97989274 19:0.97738409 20:0.97375421 21:0.97541639 22:0.98579825 23:0.98321543 24:0.9848869 25:0.98593354 26:0.98222775 27:0.98336392 28:0.84796778 29:0.68731472 30:0.39115384 31:0.032582023
-0.4 0:0.97307528 1:0.98999358 2:0.99977388 3:0.99994092 4:0.99997969 5:0.99997938 6:0.99997399 7:0.99997206 8:0.99997848 9:0.99997586 10:0.99996608 11:0.99994941 12:0.99993228 13:0.99993242 14:0.99995538 15:0.99996825 16:0.99997474 17:0.99978387 18:0.81916694 19:0.17572151 20:-0.22474245 21:0.030752357 22:0.25339425 23:0.29627138 24:0.31195656 25:0.26103791 26:-0.048483103 27:0.17176241 28:0.33983063 29:0.3015793 30:-0.54816513 31:-0.67970372
-0.4 0:0.97325987 1:0.99006579 2:0.99980997 3:0.99995898 4:0.9999937 5:0.99999588 6:0.99999434 7:0.99999418 8:0.99999406 9:0.9999923 10:0.99998869 11:0.99997154 12:0.99995944 13:0.99993733 14:0.99996548 15:0.99998972 16:0.99999115 17:0.99998292 18:0.999971 19:0.99997715 20:0.99998755 21:0.99998551 22:0.99553411 23:0.61561578 24:-0.11457984 25:-0.25409629 26:0.357964 27:0.41299279 28:0.48423404 29:0.43622244 30:-0.45713686 31:-0.62367461
